{"learner":{"attributes":{},"feature_names":[],"feature_types":[],"gradient_booster":{"model":{"gbtree_model_param":{"num_trees":"60","size_leaf_vector":"0"},"tree_info":[0,0,0,0,0,0,0,0,0,0,0,0,0,0,0,0,0,0,0,0,0,0,0,0,0,0,0,0,0,0,0,0,0,0,0,0,0,0,0,0,0,0,0,0,0,0,0,0,0,0,0,0,0,0,0,0,0,0,0,0],"trees":[{"base_weights":[-4.634113E-1,-4.8782134E-1,-4.3376458E-1,-4.9299344E-1,-4.8165256E-1,-4.6411505E-1,-3.652983E-1,-4.9496982E-1,-4.8990175E-1,-4.895085E-1,-4.721204E-1,-4.8245096E-1,-4.3807945E-1,-4.329152E-1,-2.8412104E-1,-4.9684712E-1,-4.9403605E-1,-4.917762E-1,-4.8583788E-1,-4.9191484E-1,-4.8514712E-1,-4.8135293E-1,-4.5667377E-1,-4.9004978E-1,-4.724574E-1,-4.7624496E-1,-4.1453356E-1,-4.6787626E-1,-4.01225E-1,-2.7168804E-1,-4.9993062E-1,-4.9487072E-1,-4.9265733E-1,-4.939428E-1,-4.902753E-1,-4.8909932E-1,-4.7832122E-1,-4.9411732E-1,-4.9042463E-1,-4.879496E-1,-4.7778523E-1,-4.890598E-1,-4.7684184E-1,-4.6347567E-1,-4.5158625E-1,-4.93203E-1,-4.857214E-1,-4.829786E-1,-4.558352E-1,-4.8574993E-1,-4.6198025E-1,-4.051432E-1,-4.8355886E-1,-4.8130608E-1,-4.5083174E-1,-3.903207E-1,-4.828394E-1,-3.0621162E-1,-1.7842354E-1,-4.9419382E-1,-4.9076316E-1,-4.933299E-1,-4.8898122E-1,-4.9243098E-1,-4.8725298E-1,-0E0,-4.783621E-1,-4.9335325E-1,-4.8922208E-1,-4.9131238E-1,-4.850696E-1,2.5E-1,-4.778198E-1,-4.9015945E-1,-4.8445278E-1,-4.3930635E-1,-4.7690615E-1,-4.7284225E-1,-4.5676616E-1,-4.583537E-1,-4.489198E-1,-4.9457857E-1,-4.9117106E-1,-4.9041653E-1,-4.7874713E-1,-4.9142203E-1,-4.7766545E-1,-8.571429E-2,-4.5602888E-1,-4.90757E-1,-4.80044E-1,3.125E-2,-4.621596E-1,-4.2284277E-1,-3.8569704E-1,-3.8490567E-1,-4.8759583E-1,-4.9064565E-1,-4.7502965E-1,-8.695652E-2,-4.5106965E-1,-4.0826795E-1,-3.6764026E-1,-2.9666665E-1,-4.8567736E-1,-3.3889663E-1,-2.7616566E-1,-2.1507987E-1,-7.575587E-2],"categories":[],"categories_nodes":[],"categories_segments":[],"categories_sizes":[],"default_left":[true,true,true,true,true,true,true,true,true,true,true,true,true,true,true,false,true,true,true,true,true,true,true,true,true,true,true,true,true,true,false,false,true,false,true,true,true,false,true,true,true,true,true,true,true,true,true,true,true,true,true,true,true,true,true,true,true,true,true,false,false,false,false,false,false,false,false,false,false,false,false,false,false,false,false,false,false,false,false,false,false,false,false,false,false,false,false,false,false,false,false,false,false,false,false,false,false,false,false,false,false,false,false,false,false,false,false,false,false],"id":0,"left_children":[1,3,5,7,9,11,13,15,17,19,21,23,25,27,29,-1,31,33,35,37,39,41,43,45,47,49,51,53,55,57,-1,-1,59,-1,61,63,65,-1,67,69,71,73,75,77,79,81,83,85,87,89,91,93,95,97,99,101,103,105,107,-1,-1,-1,-1,-1,-1,-1,-1,-1,-1,-1,-1,-1,-1,-1,-1,-1,-1,-1,-1,-1,-1,-1,-1,-1,-1,-1,-1,-1,-1,-1,-1,-1,-1,-1,-1,-1,-1,-1,-1,-1,-1,-1,-1,-1,-1,-1,-1,-1,-1],"loss_changes":[1.5193438E3,3.65E1,1.9701094E3,3.578125E0,3.9101562E1,3.1340625E2,1.5983984E3,4.296875E-1,1.6210938E0,2.7890625E0,3.3628906E1,2.9039062E1,2.4377344E2,1.7583984E2,3.549668E2,0E0,5.078125E-2,2.96875E-1,1.6582031E0,3.671875E-1,1.8808594E0,4.9296875E0,2.8652344E0,2.75E0,2.8902344E1,1.38203125E1,1.0863672E2,1.7072266E1,7.398535E1,4.028672E2,0E0,0E0,3.7109375E-2,0E0,1.5039062E-1,9.082031E-2,4.5751953E-1,0E0,1.5039062E-1,4.7851562E-1,8.310547E-1,4.0039062E-2,1.5625E-2,2.1694336E0,7.109375E-1,1.11328125E-1,2.7890625E0,4.3398438E0,4.588867E0,1.5400391E0,3.6796875E0,5.0710938E1,7.8183594E0,2.2421875E0,2.84375E0,2.9779297E1,5.043701E0,8.959668E1,1.27224976E2,0E0,0E0,0E0,0E0,0E0,0E0,0E0,0E0,0E0,0E0,0E0,0E0,0E0,0E0,0E0,0E0,0E0,0E0,0E0,0E0,0E0,0E0,0E0,0E0,0E0,0E0,0E0,0E0,0E0,0E0,0E0,0E0,0E0,0E0,0E0,0E0,0E0,0E0,0E0,0E0,0E0,0E0,0E0,0E0,0E0,0E0,0E0,0E0,0E0,0E0],"parents":[2147483647,0,0,1,1,2,2,3,3,4,4,5,5,6,6,7,7,8,8,9,9,10,10,11,11,12,12,13,13,14,14,16,16,17,17,18,18,19,19,20,20,21,21,22,22,23,23,24,24,25,25,26,26,27,27,28,28,29,29,32,32,34,34,35,35,36,36,38,38,39,39,40,40,41,41,42,42,43,43,44,44,45,45,46,46,47,47,48,48,49,49,50,50,51,51,52,52,53,53,54,54,55,55,56,56,57,57,58,58],"right_children":[2,4,6,8,10,12,14,16,18,20,22,24,26,28,30,-1,32,34,36,38,40,42,44,46,48,50,52,54,56,58,-1,-1,60,-1,62,64,66,-1,68,70,72,74,76,78,80,82,84,86,88,90,92,94,96,98,100,102,104,106,108,-1,-1,-1,-1,-1,-1,-1,-1,-1,-1,-1,-1,-1,-1,-1,-1,-1,-1,-1,-1,-1,-1,-1,-1,-1,-1,-1,-1,-1,-1,-1,-1,-1,-1,-1,-1,-1,-1,-1,-1,-1,-1,-1,-1,-1,-1,-1,-1,-1,-1],"split_conditions":[3.5E0,3.67292E-1,9.00306E-1,4.2836797E-1,4.051785E-1,4.02837E-1,9.00306E-1,5E-1,2.14555E-1,2.19769E-1,2.5E0,4.37327E-1,4.276455E-1,3.96874E-1,5.85E1,-9.936943E-2,1.93874E-1,1.5E0,2.5E0,1.5E0,2.5E0,1.5E0,8.72324E-1,1.889115E-1,2.4148151E-1,2.4148151E-1,5.45E1,2.245045E-1,5.45E1,1.25E1,-9.998613E-2,-9.8974146E-2,1.928905E-1,-9.878856E-2,8.252165E-2,7.5E0,2.146925E-1,-9.8823465E-2,8.252165E-2,1.5E0,3.67618E-1,4.5E0,4.09804E-1,8.704295E-1,6.013345E-1,1.889115E-1,2.245045E-1,1.13083005E-1,2.416065E-1,1.379465E-1,2.416065E-1,7.5E0,4.4882601E-1,1.13083005E-1,2.2455451E-1,7.5E0,9.0482E-1,5.5E0,3.05E1,-9.883877E-2,-9.815263E-2,-9.866598E-2,-9.779625E-2,-9.84862E-2,-9.74506E-2,-0E0,-9.567242E-2,-9.8670654E-2,-9.7844414E-2,-9.826248E-2,-9.701392E-2,5E-2,-9.556396E-2,-9.803189E-2,-9.689056E-2,-8.786127E-2,-9.538123E-2,-9.4568454E-2,-9.135323E-2,-9.1670744E-2,-8.978396E-2,-9.891572E-2,-9.8234214E-2,-9.808331E-2,-9.574943E-2,-9.828441E-2,-9.5533095E-2,-1.7142858E-2,-9.1205776E-2,-9.81514E-2,-9.60088E-2,6.25E-3,-9.2431925E-2,-8.456855E-2,-7.713941E-2,-7.6981135E-2,-9.751917E-2,-9.812913E-2,-9.500593E-2,-1.7391305E-2,-9.021393E-2,-8.165359E-2,-7.352805E-2,-5.9333332E-2,-9.713548E-2,-6.7779325E-2,-5.5233132E-2,-4.3015976E-2,-1.5151175E-2],"split_indices":[4,5,5,6,6,5,6,4,5,6,4,6,6,6,0,0,5,4,4,4,4,4,5,5,5,6,0,6,1,4,0,0,6,0,5,0,5,0,6,4,5,1,6,6,6,6,6,5,5,6,6,4,5,6,6,4,5,4,4,0,0,0,0,0,0,0,0,0,0,0,0,0,0,0,0,0,0,0,0,0,0,0,0,0,0,0,0,0,0,0,0,0,0,0,0,0,0,0,0,0,0,0,0,0,0,0,0,0,0],"split_type":[0,0,0,0,0,0,0,0,0,0,0,0,0,0,0,0,0,0,0,0,0,0,0,0,0,0,0,0,0,0,0,0,0,0,0,0,0,0,0,0,0,0,0,0,0,0,0,0,0,0,0,0,0,0,0,0,0,0,0,0,0,0,0,0,0,0,0,0,0,0,0,0,0,0,0,0,0,0,0,0,0,0,0,0,0,0,0,0,0,0,0,0,0,0,0,0,0,0,0,0,0,0,0,0,0,0,0,0,0],"sum_hessian":[2.099732E6,1.151562E6,9.4817E5,6.2634E5,5.25222E5,6.56946E5,2.91224E5,3.81992E5,2.44348E5,2.87899E5,2.37323E5,3.85462E5,2.71484E5,1.5888E5,1.32344E5,1.26709E5,2.55283E5,1.67136E5,7.7212E4,1.85462E5,1.02437E5,1.48521E5,8.8802E4,2.18939E5,1.66523E5,1.03577E5,1.67907E5,7.5535E4,8.3345E4,1.25137E5,7.207E3,1.58793E5,9.649E4,6.8265E4,9.8871E4,5.3803E4,2.3409E4,7.471E4,1.10752E5,7.4146E4,2.8291E4,5.4797E4,9.3724E4,3.796E4,5.0842E4,1.26599E5,9.234E4,1.01959E5,6.4564E4,6.2139E4,4.1438E4,1.47806E5,2.0101E4,4.2232E4,3.3303E4,7.3527E4,9.818E3,9.1328E4,3.3809E4,5.3132E4,4.3358E4,2.9309E4,6.9562E4,1.909E4,3.4713E4,2E0,2.3407E4,3.212E4,7.8632E4,3.4128E4,4.0018E4,1E0,2.829E4,4.4153E4,1.0644E4,1.72E2,9.3552E4,1.5814E4,2.2146E4,1.4322E4,3.652E4,7.5348E4,5.1251E4,5.5146E4,3.7194E4,3.9344E4,6.2615E4,3.4E1,6.453E4,3.3051E4,2.9088E4,1.5E1,4.1423E4,7.7367E4,7.0439E4,7.94E2,1.9307E4,1.6943E4,2.5289E4,2.2E1,3.3281E4,4.1037E4,3.249E4,1.49E2,9.669E3,4.3738E4,4.759E4,2.4913E4,8.896E3],"tree_param":{"num_deleted":"0","num_feature":"8","num_nodes":"109","size_leaf_vector":"0"}},{"base_weights":[-3.7073117E-1,-3.865168E-1,-3.4111422E-1,-3.9025903E-1,-3.6675844E-1,-3.6880526E-1,-2.795607E-1,-3.9413816E-1,-3.8491026E-1,-3.8147685E-1,-3.313358E-1,-3.8620216E-1,-3.4827068E-1,-3.3847985E-1,-2.1420029E-1,-3.9554876E-1,-3.9074323E-1,-3.919507E-1,-3.775531E-1,-3.8925934E-1,-3.650339E-1,-2.8155568E-1,-3.6183974E-1,-3.9213717E-1,-3.780433E-1,-3.7533045E-1,-3.257315E-1,-3.713833E-1,-3.1353515E-1,-2.0083432E-1,-4.0000692E-1,-3.9755493E-1,-3.9473486E-1,-3.9429802E-1,-3.883166E-1,-3.9325568E-1,-3.883526E-1,-3.8495323E-1,-3.6516508E-1,-3.9404067E-1,-3.84558E-1,-3.8378823E-1,-3.472326E-1,-3.8252398E-1,-3.4217885E-1,-3.9500368E-1,-3.8926402E-1,-3.893578E-1,-3.6896303E-1,-3.847217E-1,-3.6146006E-1,-3.1424093E-1,-3.901762E-1,-3.784766E-1,-3.469451E-1,-3.0131438E-1,-3.8667884E-1,-2.1449794E-1,-6.0606416E-2,-3.959957E-1,-3.9361587E-1,-3.9092076E-1,-3.8234553E-1,-3.9524534E-1,-3.920766E-1,-3.9232823E-1,-3.839133E-1,-3.912089E-1,-3.812928E-1,-3.705119E-1,-3.6119112E-1,-3.9546114E-1,-3.9171043E-1,-3.9386594E-1,-3.7771517E-1,-3.8800487E-1,-3.7026128E-1,-3.6072072E-1,-3.4142685E-1,-3.8756612E-1,-3.6654004E-1,-3.5839745E-1,-3.3514938E-1,-3.9502734E-1,-2.966893E-1,-3.9303902E-1,-3.8557863E-1,-3.9174226E-1,-3.8413447E-1,-3.747387E-1,-3.6200178E-1,-3.9353883E-1,-3.7949878E-1,-3.5967982E-1,-4.07786E-1,-3.2900906E-1,-2.989194E-1,-2.9851916E-1,-3.9364877E-1,-3.926161E-1,-3.7318844E-1,2.4615097E-1,-3.4804514E-1,-3.1570378E-1,-2.847385E-1,-2.0171452E-1,-3.8954386E-1,-2.4396726E-1,-1.8992798E-1,1.4775184E-1,-1.3896501E-1],"categories":[],"categories_nodes":[],"categories_segments":[],"categories_sizes":[],"default_left":[true,true,true,true,true,true,true,true,true,true,true,true,true,true,true,true,true,true,true,true,true,false,true,true,true,true,true,true,true,true,false,false,true,false,true,true,true,true,true,true,true,true,true,true,true,true,true,true,true,true,true,true,true,true,true,true,true,true,true,false,false,false,false,false,false,false,false,false,false,false,false,false,false,false,false,false,false,false,false,false,false,false,false,false,false,false,false,false,false,false,false,false,false,false,false,false,false,false,false,false,false,false,false,false,false,false,false,false,false,false,false],"id":1,"left_children":[1,3,5,7,9,11,13,15,17,19,21,23,25,27,29,31,33,35,37,39,41,-1,43,45,47,49,51,53,55,57,-1,-1,59,-1,61,63,65,67,69,71,73,75,77,79,81,83,85,87,89,91,93,95,97,99,101,103,105,107,109,-1,-1,-1,-1,-1,-1,-1,-1,-1,-1,-1,-1,-1,-1,-1,-1,-1,-1,-1,-1,-1,-1,-1,-1,-1,-1,-1,-1,-1,-1,-1,-1,-1,-1,-1,-1,-1,-1,-1,-1,-1,-1,-1,-1,-1,-1,-1,-1,-1,-1,-1,-1],"loss_changes":[9.8153125E2,1.01125E2,1.24425E3,2.375E1,1.135957E2,1.7974219E2,8.722715E2,3.0390625E0,2.4929688E1,1.9576172E1,9.713623E1,1.3050781E1,1.4073438E2,9.766211E1,2.666338E2,6.09375E-1,1.5390625E0,1.0078125E0,2.15625E1,2.1992188E0,1.639795E1,0E0,1.6014648E1,1.1464844E0,1.1652344E1,1.353125E1,9.318457E1,8.772461E0,6.0458984E1,1.9195312E2,0E0,0E0,3.1640625E-1,0E0,1.6621094E0,2.7148438E-1,1.0126953E0,3.2441406E0,1.7480469E0,1.6601562E-2,3.2128906E0,1.2312012E0,1.8669434E0,1.4165039E0,2.201416E0,6.640625E-2,9.4628906E-1,4.8632812E-1,2.4267578E0,2.7314453E0,3.3486328E0,2.409961E1,5.9501953E0,2.8295898E0,7.6324463E0,1.3760742E1,5.060547E0,6.6055664E1,1.4527882E2,0E0,0E0,0E0,0E0,0E0,0E0,0E0,0E0,0E0,0E0,0E0,0E0,0E0,0E0,0E0,0E0,0E0,0E0,0E0,0E0,0E0,0E0,0E0,0E0,0E0,0E0,0E0,0E0,0E0,0E0,0E0,0E0,0E0,0E0,0E0,0E0,0E0,0E0,0E0,0E0,0E0,0E0,0E0,0E0,0E0,0E0,0E0,0E0,0E0,0E0,0E0,0E0],"parents":[2147483647,0,0,1,1,2,2,3,3,4,4,5,5,6,6,7,7,8,8,9,9,10,10,11,11,12,12,13,13,14,14,15,15,16,16,17,17,18,18,19,19,20,20,22,22,23,23,24,24,25,25,26,26,27,27,28,28,29,29,32,32,34,34,35,35,36,36,37,37,38,38,39,39,40,40,41,41,42,42,43,43,44,44,45,45,46,46,47,47,48,48,49,49,50,50,51,51,52,52,53,53,54,54,55,55,56,56,57,57,58,58],"right_children":[2,4,6,8,10,12,14,16,18,20,22,24,26,28,30,32,34,36,38,40,42,-1,44,46,48,50,52,54,56,58,-1,-1,60,-1,62,64,66,68,70,72,74,76,78,80,82,84,86,88,90,92,94,96,98,100,102,104,106,108,110,-1,-1,-1,-1,-1,-1,-1,-1,-1,-1,-1,-1,-1,-1,-1,-1,-1,-1,-1,-1,-1,-1,-1,-1,-1,-1,-1,-1,-1,-1,-1,-1,-1,-1,-1,-1,-1,-1,-1,-1,-1,-1,-1,-1,-1,-1,-1,-1,-1,-1,-1,-1],"split_conditions":[4.5E0,3.5E0,9.00306E-1,4.051785E-1,9.905845E-1,5.07426E-1,9.00306E-1,6.94281E-1,3.747815E-1,7.1402705E-1,5.5E0,2.408005E-1,4.02837E-1,3.96874E-1,5.85E1,5E-1,1.5E0,2.5E0,2.5E0,2.3348999E-1,3.0895752E-1,-5.6311138E-2,3.0895752E-1,2.306065E-1,2.807415E-1,2.4148151E-1,5.45E1,3.0830097E-1,5.45E1,3.05E1,-8.0001384E-2,-7.951099E-2,1.9437E-1,-7.8859605E-2,2.5268948E-1,1.12278506E-1,1.76163E-1,1.5E0,8.72324E-1,1.4209649E-1,2.3348999E-1,2.291565E-1,4.4248098E-1,2.291565E-1,4.4248098E-1,7.65E1,1.3065651E-1,1.889115E-1,5.43766E-1,1.13083005E-1,8.4E1,6.253205E-1,4.4882601E-1,1.13083005E-1,3.0831748E-1,6.253205E-1,9.0482E-1,7.5E0,3.25E1,-7.919914E-2,-7.872318E-2,-7.818415E-2,-7.646911E-2,-7.904907E-2,-7.841533E-2,-7.846565E-2,-7.6782666E-2,-7.824178E-2,-7.625856E-2,-7.410238E-2,-7.223823E-2,-7.909223E-2,-7.834209E-2,-7.877319E-2,-7.554304E-2,-7.760098E-2,-7.405226E-2,-7.214414E-2,-6.828537E-2,-7.7513225E-2,-7.330801E-2,-7.1679495E-2,-6.702988E-2,-7.900547E-2,-5.933786E-2,-7.8607805E-2,-7.711573E-2,-7.834845E-2,-7.682689E-2,-7.494774E-2,-7.2400354E-2,-7.870777E-2,-7.589976E-2,-7.193597E-2,-8.155721E-2,-6.5801814E-2,-5.9783883E-2,-5.9703834E-2,-7.8729756E-2,-7.852322E-2,-7.463769E-2,4.9230196E-2,-6.960903E-2,-6.314076E-2,-5.6947704E-2,-4.0342905E-2,-7.790878E-2,-4.8793454E-2,-3.7985597E-2,2.9550368E-2,-2.7793003E-2],"split_indices":[4,4,6,5,6,5,5,6,6,5,0,5,6,5,1,4,4,4,4,5,6,0,5,6,6,6,1,5,0,4,0,0,6,0,5,6,6,4,6,5,6,6,6,5,5,4,5,6,6,6,1,6,6,5,5,5,6,4,0,0,0,0,0,0,0,0,0,0,0,0,0,0,0,0,0,0,0,0,0,0,0,0,0,0,0,0,0,0,0,0,0,0,0,0,0,0,0,0,0,0,0,0,0,0,0,0,0,0,0,0,0],"split_type":[0,0,0,0,0,0,0,0,0,0,0,0,0,0,0,0,0,0,0,0,0,0,0,0,0,0,0,0,0,0,0,0,0,0,0,0,0,0,0,0,0,0,0,0,0,0,0,0,0,0,0,0,0,0,0,0,0,0,0,0,0,0,0,0,0,0,0,0,0,0,0,0,0,0,0,0,0,0,0,0,0,0,0,0,0,0,0,0,0,0,0,0,0,0,0,0,0,0,0,0,0,0,0,0,0,0,0,0,0,0,0],"sum_hessian":[2.099732E6,1.369686E6,7.30046E5,1.151562E6,2.18124E5,5.03522E5,2.26524E5,6.67438E5,4.84124E5,1.54089E5,6.4035E4,2.72577E5,2.30945E5,1.1913E5,1.07394E5,4.71439E5,1.95999E5,2.4736E5,2.36764E5,1.04572E5,4.9517E4,2.4334E4,3.9701E4,1.57766E5,1.14811E5,1.04941E5,1.26004E5,5.1364E4,6.7766E4,1.00189E5,7.205E3,1.35924E5,3.35515E5,7.945E4,1.16549E5,1.81444E5,6.5916E4,1.48203E5,8.8561E4,5.1804E4,5.2768E4,2.4103E4,2.5414E4,1.9338E4,2.0363E4,7.8906E4,7.886E4,5.1098E4,6.3713E4,6.2558E4,4.2383E4,1.06942E5,1.9062E4,3.9798E4,1.1566E4,5.8069E4,9.697E3,9.1293E4,8.896E3,1.57591E5,1.77924E5,8.111E4,3.5439E4,6.739E4,1.14054E5,3.4728E4,3.1188E4,5.4669E4,9.3534E4,3.7719E4,5.0842E4,3.208E4,1.9724E4,2.2333E4,3.0435E4,1.8354E4,5.749E3,7.629E3,1.7785E4,1.4683E4,4.655E3,6.142E3,1.4221E4,7.8884E4,2.2E1,3.8904E4,3.9956E4,3.5032E4,1.6066E4,3.4793E4,2.892E4,2.3244E4,3.9314E4,4.0823E4,1.56E3,5.4444E4,5.2498E4,6.99E2,1.8363E4,1.0813E4,2.8985E4,2.1E1,1.1545E4,3.1075E4,2.6994E4,1.49E2,9.548E3,4.1504E4,4.9789E4,2.431E3,6.465E3],"tree_param":{"num_deleted":"0","num_feature":"8","num_nodes":"111","size_leaf_vector":"0"}},{"base_weights":[-2.9658672E-1,-3.0921492E-1,-2.7289376E-1,-3.1220818E-1,-2.934111E-1,-2.9504654E-1,-2.2365108E-1,-3.156182E-1,-3.082866E-1,-3.0518538E-1,-2.6507404E-1,-3.0698818E-1,-2.7527416E-1,-2.7089235E-1,-1.7144991E-1,-3.1666523E-1,-3.1298503E-1,-3.1333506E-1,-3.0218577E-1,-3.1165177E-1,-2.9237592E-1,-2.9261154E-1,-2.2964306E-1,-3.1308523E-1,-2.9894465E-1,-2.9917E-1,-2.565001E-1,-2.9711002E-1,-2.5095123E-1,-1.6061051E-1,-3.2007626E-1,-3.1807545E-1,-3.1605288E-1,-3.1555253E-1,-3.111078E-1,-3.1498173E-1,-3.1035393E-1,-3.0803272E-1,-2.9247475E-1,-3.147075E-1,-3.0697966E-1,-3.0962995E-1,-2.796638E-1,-3.0683735E-1,-2.7771392E-1,-2.2524688E-1,-2.586911E-1,-3.146585E-1,-3.085743E-1,-3.0976683E-1,-2.898123E-1,-3.0574343E-1,-2.838979E-1,-2.4562147E-1,-3.1398222E-1,-3.0702734E-1,-2.854304E-1,-2.409943E-1,-3.1225872E-1,-1.6547033E-1,1.13488644E-1,-3.1737033E-1,-3.1547278E-1,-3.1557593E-1,-2.644418E-1,-3.1349325E-1,-3.0822703E-1,-3.1626853E-1,-3.136195E-1,-3.1239098E-1,-3.0505723E-1,-3.130278E-1,-3.0510885E-1,-2.9783157E-1,-2.8886747E-1,-3.1698233E-1,-3.1267813E-1,-3.1446293E-1,-3.0050552E-1,-7.100765E-2,-3.0980098E-1,-2.900484E-1,-2.7314103E-1,-3.1224468E-1,-2.986193E-1,-2.8712714E-1,-2.7138534E-1,-2.2742148E-1,-2.6969513E-1,-3.1663185E-1,-3.1299478E-1,2.793333E-1,-3.0884758E-1,-3.1287372E-1,-3.0409363E-1,2.0682879E-1,-2.8995043E-1,-3.1274962E-1,-3.008364E-1,-2.8937778E-1,-2.5164407E-1,-2.6010478E-1,-2.3009108E-1,-2.912672E-1,-3.2279032E-1,-3.1410015E-1,-3.0249736E-1,9.425393E-2,-2.8577253E-1,-2.423584E-1,-5.8723122E-2,-2.8014863E-1,-3.2367608E-1,-1.8567283E-1,-1.2373041E-1,3.132944E-1,3.847226E-2],"categories":[],"categories_nodes":[],"categories_segments":[],"categories_sizes":[],"default_left":[true,true,true,true,true,true,true,true,true,true,true,true,true,true,true,true,true,true,true,true,true,true,true,true,true,true,true,true,true,true,false,false,true,true,true,true,true,true,true,true,true,true,true,true,true,false,true,true,true,true,true,true,true,true,true,true,true,true,true,true,true,false,false,false,false,false,false,false,false,false,false,false,false,false,false,false,false,false,false,false,false,false,false,false,false,false,false,false,false,false,false,false,false,false,false,false,false,false,false,false,false,false,false,false,false,false,false,false,false,false,false,false,false,false,false,false,false],"id":2,"left_children":[1,3,5,7,9,11,13,15,17,19,21,23,25,27,29,31,33,35,37,39,41,43,45,47,49,51,53,55,57,59,-1,-1,61,63,65,67,69,71,73,75,77,79,81,83,85,-1,87,89,91,93,95,97,99,101,103,105,107,109,111,113,115,-1,-1,-1,-1,-1,-1,-1,-1,-1,-1,-1,-1,-1,-1,-1,-1,-1,-1,-1,-1,-1,-1,-1,-1,-1,-1,-1,-1,-1,-1,-1,-1,-1,-1,-1,-1,-1,-1,-1,-1,-1,-1,-1,-1,-1,-1,-1,-1,-1,-1,-1,-1,-1,-1,-1,-1],"loss_changes":[6.2815625E2,6.4703125E1,7.963164E2,1.5296875E1,7.269531E1,1.1880469E2,5.585742E2,1.6015625E0,1.6402344E1,1.2671875E1,6.2411133E1,1.5302734E1,8.498633E1,6.209375E1,1.7332056E2,2.8125E-1,7.4609375E-1,1.3398438E0,1.3683594E1,1.3652344E0,1.1254883E1,7.550293E0,3.5185547E0,1.1699219E0,1.3290039E1,8.287598E0,6.632617E1,5.8618164E0,4.1157227E1,1.3362964E2,0E0,0E0,1.3476562E-1,4.8828125E-3,5.996094E-1,2.3242188E-1,1.03125E0,2.1152344E0,1.6757812E0,1.8652344E-1,1.8688965E0,8.7280273E-1,1.9379883E0,7.252197E-1,9.7106934E-1,0E0,1.2032013E0,3.359375E-1,7.512207E0,9.9658203E-1,5.097168E0,1.9101562E0,4.366211E0,2.002539E1,3.2861328E0,7.944336E-1,3.0927734E0,1.443457E1,3.367981E0,8.308447E1,2.6188202E1,0E0,0E0,0E0,0E0,0E0,0E0,0E0,0E0,0E0,0E0,0E0,0E0,0E0,0E0,0E0,0E0,0E0,0E0,0E0,0E0,0E0,0E0,0E0,0E0,0E0,0E0,0E0,0E0,0E0,0E0,0E0,0E0,0E0,0E0,0E0,0E0,0E0,0E0,0E0,0E0,0E0,0E0,0E0,0E0,0E0,0E0,0E0,0E0,0E0,0E0,0E0,0E0,0E0,0E0,0E0,0E0],"parents":[2147483647,0,0,1,1,2,2,3,3,4,4,5,5,6,6,7,7,8,8,9,9,10,10,11,11,12,12,13,13,14,14,15,15,16,16,17,17,18,18,19,19,20,20,21,21,22,22,23,23,24,24,25,25,26,26,27,27,28,28,29,29,32,32,33,33,34,34,35,35,36,36,37,37,38,38,39,39,40,40,41,41,42,42,43,43,44,44,46,46,47,47,48,48,49,49,50,50,51,51,52,52,53,53,54,54,55,55,56,56,57,57,58,58,59,59,60,60],"right_children":[2,4,6,8,10,12,14,16,18,20,22,24,26,28,30,32,34,36,38,40,42,44,46,48,50,52,54,56,58,60,-1,-1,62,64,66,68,70,72,74,76,78,80,82,84,86,-1,88,90,92,94,96,98,100,102,104,106,108,110,112,114,116,-1,-1,-1,-1,-1,-1,-1,-1,-1,-1,-1,-1,-1,-1,-1,-1,-1,-1,-1,-1,-1,-1,-1,-1,-1,-1,-1,-1,-1,-1,-1,-1,-1,-1,-1,-1,-1,-1,-1,-1,-1,-1,-1,-1,-1,-1,-1,-1,-1,-1,-1,-1,-1,-1,-1,-1],"split_conditions":[4.5E0,3.5E0,9.00306E-1,3.497515E-1,9.905845E-1,6.2335503E-1,8.969165E-1,7.1334255E-1,4.051785E-1,6.699865E-1,6.77747E-1,2.80652E-1,4.02837E-1,3.96874E-1,5.85E1,5E-1,1.5E0,2.19769E-1,2.5E0,3.389025E-1,2.5987798E-1,2.91377E-1,5.5E0,1.95667E-1,3.0830097E-1,2.829255E-1,3.55E1,2.245045E-1,3.55E1,4.55E1,-6.4015254E-2,-6.361509E-2,1.25615E-1,1.085E2,1.6841501E-1,1.12609E-1,2.5E0,1.5E0,8.72324E-1,1.4209649E-1,2.334225E-1,6.7386353E-1,4.4248098E-1,1.7400101E-1,4.4248098E-1,-4.5049377E-2,7.31174E-1,1.95667E-1,1.9569051E-1,1.95667E-1,3.0831748E-1,1.3547E-1,4.35E1,6.240495E-1,6.75E1,1.13083005E-1,2.2455451E-1,3.45E1,6.45E1,1.25E1,9.087395E-1,-6.347407E-2,-6.309456E-2,-6.311519E-2,-5.288836E-2,-6.2698655E-2,-6.1645407E-2,-6.325371E-2,-6.27239E-2,-6.2478196E-2,-6.1011445E-2,-6.260556E-2,-6.102177E-2,-5.9566315E-2,-5.7773497E-2,-6.339647E-2,-6.253563E-2,-6.2892586E-2,-6.0101103E-2,-1.4201529E-2,-6.1960198E-2,-5.800968E-2,-5.4628205E-2,-6.2448937E-2,-5.972386E-2,-5.742543E-2,-5.427707E-2,-4.5484297E-2,-5.3939026E-2,-6.332637E-2,-6.259896E-2,5.586666E-2,-6.1769515E-2,-6.2574744E-2,-6.0818728E-2,4.1365758E-2,-5.7990085E-2,-6.254993E-2,-6.0167283E-2,-5.7875555E-2,-5.0328817E-2,-5.2020956E-2,-4.6018217E-2,-5.8253437E-2,-6.455807E-2,-6.282003E-2,-6.049947E-2,1.8850787E-2,-5.7154506E-2,-4.847168E-2,-1.1744625E-2,-5.6029726E-2,-6.473522E-2,-3.713457E-2,-2.4746083E-2,6.265888E-2,7.6944525E-3],"split_indices":[4,4,6,6,6,5,5,5,5,5,5,5,6,5,0,4,4,5,4,6,6,5,0,5,6,6,4,5,4,0,0,0,5,0,6,5,4,4,5,6,5,5,6,5,5,0,5,6,5,6,6,6,1,6,1,5,5,1,0,4,6,0,0,0,0,0,0,0,0,0,0,0,0,0,0,0,0,0,0,0,0,0,0,0,0,0,0,0,0,0,0,0,0,0,0,0,0,0,0,0,0,0,0,0,0,0,0,0,0,0,0,0,0,0,0,0,0],"split_type":[0,0,0,0,0,0,0,0,0,0,0,0,0,0,0,0,0,0,0,0,0,0,0,0,0,0,0,0,0,0,0,0,0,0,0,0,0,0,0,0,0,0,0,0,0,0,0,0,0,0,0,0,0,0,0,0,0,0,0,0,0,0,0,0,0,0,0,0,0,0,0,0,0,0,0,0,0,0,0,0,0,0,0,0,0,0,0,0,0,0,0,0,0,0,0,0,0,0,0,0,0,0,0,0,0,0,0,0,0,0,0,0,0,0,0,0,0],"sum_hessian":[2.099732E6,1.369686E6,7.30046E5,1.151562E6,2.18124E5,5.03522E5,2.26524E5,6.15913E5,5.35649E5,1.54089E5,6.4035E4,3.13916E5,1.89606E5,1.18909E5,1.07615E5,4.40593E5,1.7532E5,2.93076E5,2.42573E5,1.02382E5,5.1707E4,3.6027E4,2.8008E4,1.78542E5,1.35374E5,8.3417E4,1.06189E5,5.1364E4,6.7545E4,1.00302E5,7.313E3,1.33234E5,3.07359E5,7.3976E4,1.01344E5,1.88727E5,1.04349E5,1.51391E5,9.1182E4,6.1858E4,4.0524E4,2.1925E4,2.9782E4,1.8419E4,1.7608E4,2.4334E4,3.674E3,1.32323E5,4.6219E4,6.194E4,7.3434E4,5.8303E4,2.5114E4,8.9295E4,1.6894E4,2.7764E4,2.36E4,5.8112E4,9.433E3,9.8555E4,1.747E3,9.3798E4,2.13561E5,7.3937E4,3.9E1,5.5379E4,4.5965E4,9.693E4,9.1797E4,7.5323E4,2.9026E4,5.5858E4,9.5533E4,3.666E4,5.4522E4,2.9092E4,3.2766E4,1.8775E4,2.1749E4,1.6E1,2.1909E4,1.1473E4,1.8309E4,1.1087E4,7.332E3,7.061E3,1.0547E4,9.62E2,2.712E3,6.0442E4,7.1881E4,2.1E1,4.6198E4,3.9987E4,2.1953E4,2E1,7.3414E4,2.3989E4,3.4314E4,2.146E4,3.654E3,4.6197E4,4.3098E4,4.73E3,1.2164E4,1.0813E4,1.6951E4,2.1E1,2.3579E4,5.768E4,4.32E2,2.481E3,6.952E3,6.6409E4,3.2146E4,4.76E2,1.271E3],"tree_param":{"num_deleted":"0","num_feature":"8","num_nodes":"117","size_leaf_vector":"0"}},{"base_weights":[-2.3727074E-1,-2.4746372E-1,-2.1845017E-1,-2.5044596E-1,-2.3731366E-1,-2.4577959E-1,-1.9392402E-1,-2.527042E-1,-2.4709636E-1,-2.4709174E-1,-2.2587566E-1,-2.492437E-1,-2.3785388E-1,-2.2223416E-1,-1.5439619E-1,-2.53661E-1,-2.5127938E-1,-2.5048572E-1,-2.4185494E-1,-2.489812E-1,-2.3708172E-1,-2.4273352E-1,-2.1528476E-1,-2.5213853E-1,-2.4682339E-1,-2.4472158E-1,-2.2943115E-1,-2.3917256E-1,-2.0522004E-1,-1.466818E-1,-2.5724992E-1,-2.549396E-1,-2.533664E-1,-2.5174183E-1,-2.4322449E-1,-2.518632E-1,-2.4808396E-1,-2.4889006E-1,-2.3498681E-1,-2.5197107E-1,-2.4554914E-1,-2.4270138E-1,-2.1944997E-1,-2.4935968E-1,-2.3931217E-1,-2.1167131E-1,-2.5825104E-1,-2.5158843E-1,-2.5372908E-1,-2.504408E-1,-2.4355131E-1,-2.5050363E-1,-2.4088496E-1,2.9236832E-1,-2.2947012E-1,-2.457747E-1,-2.2816746E-1,-1.9793959E-1,-2.5274292E-1,-1.6319594E-1,-1.05451964E-1,-2.5495282E-1,4.1184977E-2,-1.1632498E-1,-2.5337902E-1,-2.5300527E-1,-2.5006056E-1,-2.1102521E-1,-2.4722093E-1,-2.5483888E-1,-2.5144005E-1,-2.4982761E-1,-2.4353865E-1,-2.497872E-1,-2.2997577E-1,-5.6351732E-2,-2.3532803E-1,-2.5297952E-1,-2.4898113E-1,-2.502834E-1,-2.4334365E-1,-2.5145793E-1,-2.3942412E-1,1.5048024E-1,-2.2010888E-1,-2.4953285E-1,-1.7200921E-1,-2.4150872E-1,-2.331668E-1,-2.2229648E-1,-2.0348702E-1,-1.0109071E-1,-2.585144E-1,-2.525579E-1,-2.5069973E-1,-2.5346592E-1,-2.4951406E-1,4.9172875E-1,-2.4357957E-1,-2.5515917E-1,-2.4962708E-1,-2.4943298E-1,-2.3895125E-1,-2.3007841E-1,-2.1843527E-1,-2.507161E-1,-2.4133825E-1,-2.2682463E-1,-2.7836156E-1,-2.0495898E-1,-1.722224E-1,-2.334049E-1,-2.5971562E-1,-1.8040283E-1,-1.4809394E-1,1.2514745E-1,-1.1135538E-1],"categories":[],"categories_nodes":[],"categories_segments":[],"categories_sizes":[],"default_left":[true,true,true,true,true,true,true,true,true,true,true,true,true,true,true,true,true,true,true,true,true,true,true,true,true,true,true,true,true,true,false,true,true,true,true,true,true,true,true,true,true,true,true,true,true,true,true,true,false,true,true,true,true,false,true,true,true,true,true,true,true,false,false,false,false,false,false,false,false,false,false,false,false,false,false,false,false,false,false,false,false,false,false,false,false,false,false,false,false,false,false,false,false,false,false,false,false,false,false,false,false,false,false,false,false,false,false,false,false,false,false,false,false,false,false,false,false],"id":3,"left_children":[1,3,5,7,9,11,13,15,17,19,21,23,25,27,29,31,33,35,37,39,41,43,45,47,49,51,53,55,57,59,-1,61,63,65,67,69,71,73,75,77,79,81,83,85,87,89,91,93,-1,95,97,99,101,-1,103,105,107,109,111,113,115,-1,-1,-1,-1,-1,-1,-1,-1,-1,-1,-1,-1,-1,-1,-1,-1,-1,-1,-1,-1,-1,-1,-1,-1,-1,-1,-1,-1,-1,-1,-1,-1,-1,-1,-1,-1,-1,-1,-1,-1,-1,-1,-1,-1,-1,-1,-1,-1,-1,-1,-1,-1,-1,-1,-1,-1],"loss_changes":[4.027578E2,4.1164062E1,4.9441016E2,7.8984375E0,3.4541016E1,9.519531E0,4.3503223E2,7.96875E-1,7.4726562E0,3.0947266E0,2.540332E1,1.6386719E0,6.083496E0,6.523633E1,1.2870068E2,7.8125E-2,8.798828E-1,7.890625E-1,7.9873047E0,1.3779297E0,2.5723877E0,1.1872559E0,1.3541748E1,3.2714844E-2,1.5043945E0,1.236084E0,1.036377E0,8.191406E0,3.90542E1,1.0274951E2,0E0,2.861328E-1,4.9804688E-1,4.453125E-1,1.7172241E0,1.4257812E-1,6.8359375E-1,1.3378906E0,5.1245117E0,1.6308594E-1,6.213379E-1,5.161133E-1,1.5968018E0,2.076416E-1,4.3359375E-1,6.9797363E0,2.548828E-1,7.8125E-3,0E0,1.1279297E-1,1.5625E0,3.149414E-2,5.2160645E-1,0E0,2.697754E-1,1.4946289E0,2.8066406E0,1.765747E1,1.96344E0,2.7977295E1,5.877954E1,0E0,0E0,0E0,0E0,0E0,0E0,0E0,0E0,0E0,0E0,0E0,0E0,0E0,0E0,0E0,0E0,0E0,0E0,0E0,0E0,0E0,0E0,0E0,0E0,0E0,0E0,0E0,0E0,0E0,0E0,0E0,0E0,0E0,0E0,0E0,0E0,0E0,0E0,0E0,0E0,0E0,0E0,0E0,0E0,0E0,0E0,0E0,0E0,0E0,0E0,0E0,0E0,0E0,0E0,0E0,0E0],"parents":[2147483647,0,0,1,1,2,2,3,3,4,4,5,5,6,6,7,7,8,8,9,9,10,10,11,11,12,12,13,13,14,14,15,15,16,16,17,17,18,18,19,19,20,20,21,21,22,22,23,23,24,24,25,25,26,26,27,27,28,28,29,29,31,31,32,32,33,33,34,34,35,35,36,36,37,37,38,38,39,39,40,40,41,41,42,42,43,43,44,44,45,45,46,46,47,47,49,49,50,50,51,51,52,52,54,54,55,55,56,56,57,57,58,58,59,59,60,60],"right_children":[2,4,6,8,10,12,14,16,18,20,22,24,26,28,30,32,34,36,38,40,42,44,46,48,50,52,54,56,58,60,-1,62,64,66,68,70,72,74,76,78,80,82,84,86,88,90,92,94,-1,96,98,100,102,-1,104,106,108,110,112,114,116,-1,-1,-1,-1,-1,-1,-1,-1,-1,-1,-1,-1,-1,-1,-1,-1,-1,-1,-1,-1,-1,-1,-1,-1,-1,-1,-1,-1,-1,-1,-1,-1,-1,-1,-1,-1,-1,-1,-1,-1,-1,-1,-1,-1,-1,-1,-1,-1,-1,-1,-1,-1,-1,-1,-1,-1],"split_conditions":[6.7277896E-1,4.02837E-1,3.5E0,4.37327E-1,5.368035E-1,2.5E0,9.00306E-1,1.79426E-1,3.5E0,8.5E0,3.5E0,2.5E0,5.583875E-1,4.2456E-1,5.85E1,4.0630303E-2,1.25E1,2.14555E-1,1.95667E-1,2.245045E-1,4.126905E-1,5.5E0,4.05E1,2.25E1,3.4074998E-1,1.76163E-1,5.58577E-1,2.620505E-1,4.25E1,1.25E1,-5.1449984E-2,7.6E1,4.06642E-2,1.95667E-1,2.75E1,5.1625103E-2,2.5E0,1.465E2,1.960455E-1,4.5E0,6.5E0,1.3547799E-1,4.1285E-1,3.9E1,5.583875E-1,9.8882747E-1,5.430395E-1,5.5E0,-5.0745815E-2,8.560465E-2,3.41381E-1,5.8898948E-2,7.5E0,5.8473665E-2,7.5E0,1.378795E-1,8.25E1,7.645995E-1,5.75E1,5.5E0,9.0437996E-1,-5.0990563E-2,8.236996E-3,-2.3264997E-2,-5.0675806E-2,-5.0601054E-2,-5.001211E-2,-4.2205043E-2,-4.9444187E-2,-5.096778E-2,-5.028801E-2,-4.9965523E-2,-4.870773E-2,-4.995744E-2,-4.5995157E-2,-1.1270347E-2,-4.706561E-2,-5.0595906E-2,-4.9796227E-2,-5.0056677E-2,-4.866873E-2,-5.0291587E-2,-4.7884826E-2,3.0096048E-2,-4.4021778E-2,-4.990657E-2,-3.4401845E-2,-4.8301745E-2,-4.663336E-2,-4.4459295E-2,-4.0697407E-2,-2.0218141E-2,-5.1702883E-2,-5.051158E-2,-5.0139945E-2,-5.0693184E-2,-4.990281E-2,9.834575E-2,-4.8715916E-2,-5.1031835E-2,-4.9925417E-2,-4.9886595E-2,-4.779025E-2,-4.6015684E-2,-4.3687057E-2,-5.014322E-2,-4.826765E-2,-4.5364928E-2,-5.5672314E-2,-4.0991794E-2,-3.444448E-2,-4.6680983E-2,-5.1943123E-2,-3.6080565E-2,-2.9618789E-2,2.502949E-2,-2.2271076E-2],"split_indices":[6,6,4,5,5,4,5,6,4,4,4,1,5,5,0,6,4,6,6,5,5,1,4,0,5,5,5,5,1,4,0,4,6,5,0,6,4,1,6,4,1,5,5,0,6,5,5,0,0,5,5,5,0,0,0,5,0,5,1,4,5,0,0,0,0,0,0,0,0,0,0,0,0,0,0,0,0,0,0,0,0,0,0,0,0,0,0,0,0,0,0,0,0,0,0,0,0,0,0,0,0,0,0,0,0,0,0,0,0,0,0,0,0,0,0,0,0],"split_type":[0,0,0,0,0,0,0,0,0,0,0,0,0,0,0,0,0,0,0,0,0,0,0,0,0,0,0,0,0,0,0,0,0,0,0,0,0,0,0,0,0,0,0,0,0,0,0,0,0,0,0,0,0,0,0,0,0,0,0,0,0,0,0,0,0,0,0,0,0,0,0,0,0,0,0,0,0,0,0,0,0,0,0,0,0,0,0,0,0,0,0,0,0,0,0,0,0,0,0,0,0,0,0,0,0,0,0,0,0,0,0,0,0,0,0,0,0],"sum_hessian":[2.099732E6,1.362051E6,7.37681E5,1.052722E6,3.09329E5,3.48897E5,3.88784E5,6.28753E5,4.23969E5,1.66754E5,1.42575E5,2.42762E5,1.06135E5,2.26534E5,1.6225E5,3.76048E5,2.52705E5,2.57446E5,1.66523E5,1.40256E5,2.6498E4,5.5003E4,8.7572E4,1.10498E5,1.32264E5,5.8449E4,4.7686E4,1.13513E5,1.13021E5,1.50932E5,1.1318E4,7.0258E4,3.0579E5,2.38956E5,1.3749E4,1.63543E5,9.3903E4,8.2244E4,8.4279E4,7.4918E4,6.5338E4,2.0084E4,6.414E3,1.8705E4,3.6298E4,8.0784E4,6.788E3,8.2222E4,2.8276E4,6.2781E4,6.9483E4,2.3288E4,3.5161E4,3E0,4.7683E4,7.0936E4,4.2577E4,9.8011E4,1.501E4,1.07765E5,4.3167E4,7.0255E4,3E0,2.9E1,3.05761E5,1.36345E5,1.02611E5,1.524E3,1.2225E4,2.0287E4,1.43256E5,6.7829E4,2.6074E4,7.8508E4,3.736E3,1.61E2,8.4118E4,5.596E4,1.8958E4,2.0729E4,4.4609E4,5.449E3,1.4635E4,1.1E1,6.403E3,1.8661E4,4.4E1,2.6712E4,9.586E3,3.5139E4,4.5645E4,1.2E1,6.776E3,3.9189E4,4.3033E4,1.4659E4,4.8122E4,2E0,6.9481E4,3.644E3,1.9644E4,6.463E3,2.8698E4,4.5173E4,2.51E3,3.3532E4,3.7404E4,4.1473E4,1.104E3,7.699E4,2.1021E4,3.987E3,1.1023E4,5.0367E4,5.7398E4,1.077E3,4.209E4],"tree_param":{"num_deleted":"0","num_feature":"8","num_nodes":"117","size_leaf_vector":"0"}},{"base_weights":[-1.8981765E-1,-1.9804811E-1,-1.7437571E-1,-1.9984993E-1,-1.8853478E-1,-1.8907714E-1,-1.416964E-1,-2.0206355E-1,-1.9720976E-1,-1.9606213E-1,-1.7041878E-1,-1.9696936E-1,-1.7746155E-1,-1.7253795E-1,-1.0761679E-1,-2.0275253E-1,-2.0022109E-1,-2.0087634E-1,-1.9342475E-1,-1.994425E-1,-1.8725003E-1,-1.4412028E-1,-1.8653393E-1,-1.9941422E-1,-1.8967338E-1,-1.954199E-1,-1.6805117E-1,-1.9397065E-1,-1.6153836E-1,-1.0054429E-1,-2.0467867E-1,-2.0413654E-1,-2.0244037E-1,-2.012172E-1,-1.967494E-1,-2.025402E-1,-1.9982097E-1,-1.9715518E-1,-1.867943E-1,-2.0151153E-1,-1.9623043E-1,-1.978984E-1,-1.797058E-1,-1.9896068E-1,-1.7923304E-1,-2.0174918E-1,-1.9671232E-1,-1.9669391E-1,-1.8173648E-1,-2.0266777E-1,-1.925459E-1,-1.6182129E-1,-2.0322809E-1,-1.9078289E-1,-2.0328803E-1,-1.5478237E-1,-1.9532463E-1,-1.04225196E-1,1.07063495E-1,-8.045616E-2,-2.0245065E-1,-2.021732E-1,-2.00036E-1,-1.9977853E-1,-1.9365704E-1,-2.0550266E-1,-2.0220724E-1,-2.0184113E-1,-1.9845293E-1,-2.0053479E-1,-1.9522029E-1,-1.9026692E-1,-1.8417971E-1,-2.0304118E-1,-2.0017926E-1,-2.0016077E-1,-1.9083516E-1,-2.0188124E-1,-1.9385697E-1,-1.8084659E-1,-1.5571086E-1,-1.994709E-1,-1.7248227E-1,-1.8566097E-1,-1.7434007E-1,-2.0074092E-1,-2.0297866E-1,-1.9718088E-1,-1.664092E-1,-2.008948E-1,-1.9219401E-1,3.8702324E-1,-1.8210171E-1,-2.053668E-1,-1.9964328E-1,2.625856E-1,-1.9266002E-1,-1.6740064E-1,-1.3486506E-1,2.1657467E-1,-2.0376143E-1,-1.9571656E-1,-1.8437149E-1,-2.0399892E-1,-1.5331954E-1,-1.5999785E-1,-1.1694504E-1,-9.011695E-2,-1.9770083E-1,-1.1709722E-1,-7.763559E-2,2.2559361E-1,6.302316E-4],"categories":[],"categories_nodes":[],"categories_segments":[],"categories_sizes":[],"default_left":[true,true,true,true,true,true,true,true,true,true,true,true,true,true,true,true,true,true,true,true,true,false,true,true,true,true,true,true,true,true,false,false,true,true,true,true,true,true,true,true,true,true,true,true,true,true,true,true,true,true,true,true,true,true,true,true,true,true,true,false,false,false,false,false,false,false,false,false,false,false,false,false,false,false,false,false,false,false,false,false,false,false,false,false,false,false,false,false,false,false,false,false,false,false,false,false,false,false,false,false,false,false,false,false,false,false,false,false,false,false,false,false,false],"id":4,"left_children":[1,3,5,7,9,11,13,15,17,19,21,23,25,27,29,31,33,35,37,39,41,-1,43,45,47,49,51,53,55,57,-1,-1,59,61,63,65,67,69,71,73,75,77,79,81,83,85,87,89,91,93,95,97,99,101,103,105,107,109,111,-1,-1,-1,-1,-1,-1,-1,-1,-1,-1,-1,-1,-1,-1,-1,-1,-1,-1,-1,-1,-1,-1,-1,-1,-1,-1,-1,-1,-1,-1,-1,-1,-1,-1,-1,-1,-1,-1,-1,-1,-1,-1,-1,-1,-1,-1,-1,-1,-1,-1,-1,-1,-1,-1],"loss_changes":[2.6682812E2,2.34375E1,3.5071094E2,6.6914062E0,2.9711426E1,4.6125E1,2.3807422E2,7.5390625E-1,7.25E0,4.5532227E0,2.7111816E1,5.310547E0,3.439502E1,2.8001709E1,7.3854614E1,1.5429688E-1,5.5029297E-1,4.2773438E-1,6.3554688E0,7.001953E-1,3.397705E0,0E0,3.5664062E0,1.3759766E0,4.158203E0,1.4199219E0,2.9262695E1,1.1589355E0,1.7908203E1,7.666589E1,0E0,0E0,4.5117188E-1,1.09375E-1,3.1799316E-1,6.0546875E-2,4.111328E-1,1.0424805E0,8.100586E-1,9.716797E-2,8.876953E-1,2.4597168E-1,6.5686035E-1,1.6394043E-1,7.5457764E-1,1.0888672E-1,1.4458008E0,7.161865E-1,7.411865E0,1.2121582E-1,2.6564941E0,1.705835E1,4.54657E0,9.147949E-1,3.33313E-1,1.2906372E1,3.255127E0,3.3724976E1,2.2051832E1,0E0,0E0,0E0,0E0,0E0,0E0,0E0,0E0,0E0,0E0,0E0,0E0,0E0,0E0,0E0,0E0,0E0,0E0,0E0,0E0,0E0,0E0,0E0,0E0,0E0,0E0,0E0,0E0,0E0,0E0,0E0,0E0,0E0,0E0,0E0,0E0,0E0,0E0,0E0,0E0,0E0,0E0,0E0,0E0,0E0,0E0,0E0,0E0,0E0,0E0,0E0,0E0,0E0,0E0],"parents":[2147483647,0,0,1,1,2,2,3,3,4,4,5,5,6,6,7,7,8,8,9,9,10,10,11,11,12,12,13,13,14,14,15,15,16,16,17,17,18,18,19,19,20,20,22,22,23,23,24,24,25,25,26,26,27,27,28,28,29,29,32,32,33,33,34,34,35,35,36,36,37,37,38,38,39,39,40,40,41,41,42,42,43,43,44,44,45,45,46,46,47,47,48,48,49,49,50,50,51,51,52,52,53,53,54,54,55,55,56,56,57,57,58,58],"right_children":[2,4,6,8,10,12,14,16,18,20,22,24,26,28,30,32,34,36,38,40,42,-1,44,46,48,50,52,54,56,58,-1,-1,60,62,64,66,68,70,72,74,76,78,80,82,84,86,88,90,92,94,96,98,100,102,104,106,108,110,112,-1,-1,-1,-1,-1,-1,-1,-1,-1,-1,-1,-1,-1,-1,-1,-1,-1,-1,-1,-1,-1,-1,-1,-1,-1,-1,-1,-1,-1,-1,-1,-1,-1,-1,-1,-1,-1,-1,-1,-1,-1,-1,-1,-1,-1,-1,-1,-1,-1,-1,-1,-1,-1,-1],"split_conditions":[4.5E0,3.5E0,9.00306E-1,3.67292E-1,9.905845E-1,5.828755E-1,8.969165E-1,8.72324E-1,3.67292E-1,8.4379053E-1,5.5E0,5.07426E-1,3.0830097E-1,3.1265402E-1,5.85E1,4.96563E-2,2.5E0,1.5E0,2.5E0,3.482245E-1,2.5987798E-1,-2.8824056E-2,2.291565E-1,2.280135E-1,2.96736E-1,1.13083005E-1,3.85E1,9.5E0,2.75E1,4.55E1,-4.0935736E-2,-4.0827308E-2,4.9675047E-2,1.5E0,1.69943E-1,5E-1,8.72261E-1,1.5E0,8.72324E-1,1.4209649E-1,3.416025E-1,1.379465E-1,2.45E1,1.465E2,4.4248098E-1,3.55E1,3.45E1,1.62029E-1,2.967715E-1,7.25E1,1.131015E-1,1.65E1,5.8347154E-1,1.84699E-1,3.08174E-1,1.65E1,9.04613E-1,1.25E1,9.133985E-1,-1.6091233E-2,-4.049013E-2,-4.043464E-2,-4.00072E-2,-3.9955705E-2,-3.8731407E-2,-4.110053E-2,-4.044145E-2,-4.0368225E-2,-3.9690588E-2,-4.010696E-2,-3.904406E-2,-3.8053386E-2,-3.6835942E-2,-4.060824E-2,-4.0035855E-2,-4.0032156E-2,-3.8167033E-2,-4.037625E-2,-3.8771395E-2,-3.6169317E-2,-3.1142173E-2,-3.9894182E-2,-3.4496453E-2,-3.7132196E-2,-3.4868013E-2,-4.0148184E-2,-4.0595733E-2,-3.9436176E-2,-3.328184E-2,-4.0178962E-2,-3.8438804E-2,7.740465E-2,-3.642034E-2,-4.1073363E-2,-3.9928656E-2,5.2517124E-2,-3.8532004E-2,-3.348013E-2,-2.6973013E-2,4.3314934E-2,-4.0752288E-2,-3.9143313E-2,-3.6874298E-2,-4.0799785E-2,-3.0663908E-2,-3.199957E-2,-2.338901E-2,-1.802339E-2,-3.9540168E-2,-2.3419445E-2,-1.5527119E-2,4.5118723E-2,1.2604632E-4],"split_indices":[4,4,6,5,6,5,5,6,6,5,0,6,6,5,1,5,4,4,4,6,6,0,5,5,5,6,0,4,4,1,0,0,5,4,5,4,5,4,5,6,5,6,1,0,5,1,4,5,5,1,6,4,5,5,5,4,6,4,6,0,0,0,0,0,0,0,0,0,0,0,0,0,0,0,0,0,0,0,0,0,0,0,0,0,0,0,0,0,0,0,0,0,0,0,0,0,0,0,0,0,0,0,0,0,0,0,0,0,0,0,0,0,0],"split_type":[0,0,0,0,0,0,0,0,0,0,0,0,0,0,0,0,0,0,0,0,0,0,0,0,0,0,0,0,0,0,0,0,0,0,0,0,0,0,0,0,0,0,0,0,0,0,0,0,0,0,0,0,0,0,0,0,0,0,0,0,0,0,0,0,0,0,0,0,0,0,0,0,0,0,0,0,0,0,0,0,0,0,0,0,0,0,0,0,0,0,0,0,0,0,0,0,0,0,0,0,0,0,0,0,0,0,0,0,0,0,0,0,0],"sum_hessian":[2.099732E6,1.369686E6,7.30046E5,1.151562E6,2.18124E5,5.03522E5,2.26524E5,6.2634E5,5.25222E5,1.54089E5,6.4035E4,2.99804E5,2.03718E5,1.18909E5,1.07615E5,4.5579E5,1.7055E5,2.66758E5,2.58464E5,1.11352E5,4.2737E4,2.4334E4,3.9701E4,2.24536E5,7.5268E4,7.0039E4,1.33679E5,4.0323E4,7.8586E4,1.00308E5,7.307E3,8.3762E4,3.72028E5,1.32481E5,3.8069E4,1.03459E5,1.63299E5,1.65386E5,9.3078E4,6.7689E4,4.3663E4,1.7712E4,2.5025E4,1.4683E4,2.5018E4,1.20408E5,1.04128E5,3.9927E4,3.5341E4,1.9867E4,5.0172E4,1.13571E5,2.0108E4,3.006E4,1.0263E4,6.5495E4,1.3091E4,9.8561E4,1.747E3,3.2E1,3.71996E5,7.3126E4,5.9355E4,1.9199E4,1.887E4,1.0391E4,9.3068E4,6.5875E4,9.7424E4,6.0176E4,1.0521E5,3.9948E4,5.313E4,3.144E4,3.6249E4,2.524E4,1.8423E4,8.896E3,8.816E3,2.3883E4,1.142E3,1.4399E4,2.84E2,1.0797E4,1.4221E4,6.6246E4,5.4162E4,1.02537E5,1.591E3,2.0627E4,1.93E4,2.2E1,3.5319E4,1.0463E4,9.404E3,1.2E1,5.016E4,9.4091E4,1.948E4,2.5E1,2.0083E4,1.6971E4,1.3089E4,1.0116E4,1.47E2,5.7558E4,7.937E3,2.9E2,1.2801E4,6.6409E4,3.2152E4,8.26E2,9.21E2],"tree_param":{"num_deleted":"0","num_feature":"8","num_nodes":"113","size_leaf_vector":"0"}},{"base_weights":[-1.5185492E-1,-1.5851492E-1,-1.3955772E-1,-1.6035698E-1,-1.5224542E-1,-1.5388553E-1,-1.1969134E-1,-1.6177179E-1,-1.5825844E-1,-1.5880585E-1,-1.4457135E-1,-1.5721178E-1,-1.3931933E-1,-1.3908364E-1,-8.8651136E-2,-1.6246325E-1,-1.607429E-1,-1.607873E-1,-1.5548205E-1,-1.5918776E-1,-1.3376167E-1,-1.5504776E-1,-1.3798954E-1,-1.5956843E-1,-1.5182002E-1,-1.183877E-1,-1.5131845E-1,-1.52353E-1,-1.2899758E-1,-8.28961E-2,-1.7079678E-1,-1.6341689E-1,-1.6224353E-1,-1.6113655E-1,-1.5505013E-1,-1.6119479E-1,-1.4512342E-1,-1.5904485E-1,-1.5095793E-1,-1.6138816E-1,-1.5673168E-1,8.613347E-2,-1.422548E-1,-1.6109222E-1,-1.5192859E-1,-1.3520053E-1,-1.7115675E-1,-1.6163588E-1,-1.5783998E-1,-1.5638258E-1,-1.462245E-1,-1.3434605E-1,-1.152974E-1,-1.5846282E-1,-1.4498958E-1,-1.5613179E-1,-1.4290163E-1,-1.22027755E-1,-1.6189408E-1,-9.179499E-2,4.042001E-2,-4.391742E-1,-1.6625066E-1,-1.6343011E-1,1.09638646E-1,-2.7768483E-2,-1.622562E-1,-1.6202572E-1,-1.5995003E-1,-1.3095097E-1,-1.5849671E-1,-1.6221648E-1,-1.5993479E-1,-1.5024927E-1,1.1369965E-1,-1.6146626E-1,-1.5772896E-1,-8.307377E-2,-1.5150943E-1,-1.6182128E-1,-1.5503027E-1,-1.5824845E-1,-1.4955781E-1,-2.0890276E-1,2.991392E-1,-2.3157015E-2,-1.4711538E-1,-1.6126163E-1,-8.725396E-2,-1.5758517E-1,-1.503996E-1,-1.3904685E-1,-1.1857781E-1,-2.2009386E-2,-1.714176E-1,-1.6121678E-1,-1.6284879E-1,-1.6040596E-1,-1.5551923E-1,-1.605412E-1,-1.5377367E-1,3.5526192E-1,-1.462635E-1,-1.3620248E-1,-5.7700362E-2,-1.6109665E-1,-1.5429889E-1,-1.5658598E-1,-1.4307126E-1,-1.5321077E-1,-1.6244717E-1,3.2325682E-1,-1.4361145E-1,-1.2303717E-1,2.1339163E-1,3.2071325E-1,-1.6401467E-1,-8.674811E-2,-3.2524517E-1,2.458557E-1,-4.5494292E-2,-2.445919E-1,-1.6547436E-1],"categories":[],"categories_nodes":[],"categories_segments":[],"categories_sizes":[],"default_left":[true,true,true,true,true,true,true,true,true,true,true,true,true,true,true,true,true,true,true,true,true,true,true,true,true,true,true,true,true,true,true,true,true,true,true,true,true,true,true,true,true,true,true,true,true,true,true,true,true,true,true,true,false,true,true,true,true,true,true,true,true,false,true,false,false,false,false,false,false,false,false,false,false,false,false,false,false,false,false,false,false,false,false,false,false,false,false,false,false,false,false,false,false,false,false,false,false,false,false,false,false,false,false,false,false,false,false,false,false,false,false,false,false,false,false,false,false,false,false,false,false,false,false],"id":5,"left_children":[1,3,5,7,9,11,13,15,17,19,21,23,25,27,29,31,33,35,37,39,41,43,45,47,49,51,53,55,57,59,61,63,65,67,69,71,73,75,77,79,81,83,85,87,89,91,93,95,97,99,101,103,-1,105,107,109,111,113,115,117,119,-1,121,-1,-1,-1,-1,-1,-1,-1,-1,-1,-1,-1,-1,-1,-1,-1,-1,-1,-1,-1,-1,-1,-1,-1,-1,-1,-1,-1,-1,-1,-1,-1,-1,-1,-1,-1,-1,-1,-1,-1,-1,-1,-1,-1,-1,-1,-1,-1,-1,-1,-1,-1,-1,-1,-1,-1,-1,-1,-1,-1,-1],"loss_changes":[1.7194531E2,1.5703125E1,2.0995605E2,3.1015625E0,1.5550293E1,2.074414E1,1.860498E2,4.21875E-1,2.9511719E0,1.5737305E0,9.809814E0,4.408203E0,1.9995361E1,2.5442139E1,5.6176575E1,5.1757812E-2,5.415039E-1,1.3925781E0,3.2338867E0,8.618164E-1,4.70179E0,1.0125732E0,8.077637E0,8.417969E-1,2.6870117E0,1.4165955E0,2.2669678E0,2.911621E0,2.4764282E1,1.2189923E2,9.420395E0,2.7160645E-1,5.15625E-1,2.2363281E-1,1.3395996E0,2.529297E-1,7.4929657E0,3.3496094E-1,3.3220215E0,2.1362305E-1,8.2128906E-1,5.9698653E0,1.3963356E0,2.1994019E-1,2.9022217E-1,5.1486816E0,2.6034546E-1,3.0029297E-2,7.6293945E-1,6.09375E-1,9.8461914E-1,6.6160583E-1,0E0,2.3590088E-1,5.7525635E-1,1.0576172E0,7.814331E0,3.0227417E1,1.9389923E1,1.2203638E2,1.3197923E2,0E0,4.2494202E-1,0E0,0E0,0E0,0E0,0E0,0E0,0E0,0E0,0E0,0E0,0E0,0E0,0E0,0E0,0E0,0E0,0E0,0E0,0E0,0E0,0E0,0E0,0E0,0E0,0E0,0E0,0E0,0E0,0E0,0E0,0E0,0E0,0E0,0E0,0E0,0E0,0E0,0E0,0E0,0E0,0E0,0E0,0E0,0E0,0E0,0E0,0E0,0E0,0E0,0E0,0E0,0E0,0E0,0E0,0E0,0E0,0E0,0E0,0E0,0E0],"parents":[2147483647,0,0,1,1,2,2,3,3,4,4,5,5,6,6,7,7,8,8,9,9,10,10,11,11,12,12,13,13,14,14,15,15,16,16,17,17,18,18,19,19,20,20,21,21,22,22,23,23,24,24,25,25,26,26,27,27,28,28,29,29,30,30,31,31,32,32,33,33,34,34,35,35,36,36,37,37,38,38,39,39,40,40,41,41,42,42,43,43,44,44,45,45,46,46,47,47,48,48,49,49,50,50,51,51,53,53,54,54,55,55,56,56,57,57,58,58,59,59,60,60,62,62],"right_children":[2,4,6,8,10,12,14,16,18,20,22,24,26,28,30,32,34,36,38,40,42,44,46,48,50,52,54,56,58,60,62,64,66,68,70,72,74,76,78,80,82,84,86,88,90,92,94,96,98,100,102,104,-1,106,108,110,112,114,116,118,120,-1,122,-1,-1,-1,-1,-1,-1,-1,-1,-1,-1,-1,-1,-1,-1,-1,-1,-1,-1,-1,-1,-1,-1,-1,-1,-1,-1,-1,-1,-1,-1,-1,-1,-1,-1,-1,-1,-1,-1,-1,-1,-1,-1,-1,-1,-1,-1,-1,-1,-1,-1,-1,-1,-1,-1,-1,-1,-1,-1,-1,-1],"split_conditions":[6.7277896E-1,4.02837E-1,4.5E0,4.37327E-1,5.368035E-1,3.5E0,9.961185E-1,1.79289E-1,1.857425E-1,2.95E1,3.5E0,2.5E0,5.5E0,4.3382E-1,4.75E1,4.0630303E-2,1.15E1,1.465E2,3.5E0,2.29208E-1,4.45E1,5.5E0,4.05E1,2.5E0,5.583875E-1,9.6666646E-1,2.8671598E-1,3.0830097E-1,5.55E1,3.15E1,5.15E1,7.6E1,4.06642E-2,1.95667E-1,2.65E1,1.12609E-1,1.601205E-1,1.5E0,1.870055E-1,1.15E1,8.5E0,3.15E1,3.85E1,3.9E1,8.4379053E-1,2.55E1,5.430395E-1,2.25E1,3.4074998E-1,1.69943E-1,5.58577E-1,2.75E1,-2.305948E-2,1.70484E-1,6.5E0,1.05E1,3.0831748E-1,5.35E1,4.3895048E-1,2.95E1,3.25E1,-8.783484E-2,5.45E1,-3.268602E-2,2.192773E-2,-5.553697E-3,-3.245124E-2,-3.2405145E-2,-3.1990007E-2,-2.6190195E-2,-3.169934E-2,-3.2443296E-2,-3.198696E-2,-3.0049855E-2,2.273993E-2,-3.2293253E-2,-3.154579E-2,-1.6614756E-2,-3.0301888E-2,-3.2364257E-2,-3.1006053E-2,-3.164969E-2,-2.9911563E-2,-4.1780554E-2,5.982784E-2,-4.6314034E-3,-2.9423077E-2,-3.2252327E-2,-1.7450793E-2,-3.1517036E-2,-3.007992E-2,-2.780937E-2,-2.3715561E-2,-4.401877E-3,-3.428352E-2,-3.2243356E-2,-3.256976E-2,-3.2081194E-2,-3.1103848E-2,-3.2108244E-2,-3.0754734E-2,7.105239E-2,-2.9252699E-2,-2.7240498E-2,-1.1540073E-2,-3.221933E-2,-3.0859778E-2,-3.1317197E-2,-2.8614253E-2,-3.0642156E-2,-3.2489434E-2,6.465136E-2,-2.872229E-2,-2.4607433E-2,4.2678326E-2,6.414265E-2,-3.2802936E-2,-1.7349621E-2,-6.504904E-2,4.9171142E-2,-9.098859E-3,-4.891838E-2,-3.309487E-2],"split_indices":[5,5,4,6,6,4,6,5,5,4,4,4,1,6,1,5,4,0,4,6,1,0,4,0,6,5,6,6,1,1,0,4,5,6,1,5,5,4,5,4,4,4,0,1,6,0,6,1,6,6,6,0,0,6,1,0,6,4,6,1,0,0,0,0,0,0,0,0,0,0,0,0,0,0,0,0,0,0,0,0,0,0,0,0,0,0,0,0,0,0,0,0,0,0,0,0,0,0,0,0,0,0,0,0,0,0,0,0,0,0,0,0,0,0,0,0,0,0,0,0,0,0,0],"split_type":[0,0,0,0,0,0,0,0,0,0,0,0,0,0,0,0,0,0,0,0,0,0,0,0,0,0,0,0,0,0,0,0,0,0,0,0,0,0,0,0,0,0,0,0,0,0,0,0,0,0,0,0,0,0,0,0,0,0,0,0,0,0,0,0,0,0,0,0,0,0,0,0,0,0,0,0,0,0,0,0,0,0,0,0,0,0,0,0,0,0,0,0,0,0,0,0,0,0,0,0,0,0,0,0,0,0,0,0,0,0,0,0,0,0,0,0,0,0,0,0,0,0,0],"sum_hessian":[2.099732E6,1.362051E6,7.37681E5,1.052722E6,3.09329E5,4.28579E5,3.09102E5,6.28753E5,4.23969E5,1.66754E5,1.42575E5,3.48897E5,7.9682E4,1.90244E5,1.18858E5,3.75944E5,2.52809E5,2.21846E5,2.02123E5,1.64244E5,2.51E3,5.5003E4,8.7572E4,2.42762E5,1.06135E5,2.9038E4,5.0644E4,8.2151E4,1.08093E5,1.11078E5,7.78E3,7.0258E4,3.05686E5,2.36432E5,1.6377E4,2.16212E5,5.634E3,1.13056E5,8.9067E4,8.6597E4,7.7647E4,9.3E1,2.417E3,1.8705E4,3.6298E4,8.0784E4,6.788E3,1.10498E5,1.32264E5,5.8449E4,4.7686E4,4.704E3,2.4334E4,2.3778E4,2.6866E4,5.8676E4,2.3475E4,8.9199E4,1.8894E4,1.03602E5,7.476E3,1.28E2,7.652E3,7.0255E4,3E0,2.9E1,3.05657E5,1.35074E5,1.01358E5,2.054E3,1.4323E4,1.19326E5,9.6886E4,5.525E3,1.09E2,3.9764E4,7.3292E4,7.19E2,8.8348E4,8.1051E4,5.546E3,6.4078E4,1.3569E4,3.9E1,5.4E1,9.5E1,2.322E3,1.8661E4,4.4E1,7.702E3,2.8596E4,6.5598E4,1.5186E4,1.2E1,6.776E3,8.2222E4,2.8276E4,6.2781E4,6.9483E4,2.2509E4,3.594E4,3E0,4.7683E4,4.592E3,1.12E2,1.4542E4,9.236E3,3.802E3,2.3064E4,4.0137E4,1.8539E4,3.5E1,2.344E4,8.8932E4,2.67E2,8.2E1,1.8812E4,1.01411E5,2.191E3,2.204E3,5.272E3,7.2E1,7.58E3],"tree_param":{"num_deleted":"0","num_feature":"8","num_nodes":"123","size_leaf_vector":"0"}},{"base_weights":[-1.2148451E-1,-1.2546605E-1,-1.0766288E-1,-1.2793905E-1,-1.1951518E-1,-1.1815196E-1,-8.024766E-2,-1.2887692E-1,-1.2522012E-1,-1.2517807E-1,-1.0540372E-1,-1.2513117E-1,-1.0783114E-1,-1.066304E-1,-4.93621E-2,-1.2979142E-1,-1.2769093E-1,-1.2723066E-1,-1.2071746E-1,-1.2814397E-1,-1.169879E-1,-1.160257E-1,-8.9591786E-2,-1.2802903E-1,-1.2035581E-1,-9.6344516E-2,-1.21872574E-1,-1.0335142E-1,-1.5948552E-1,-4.411974E-2,-1.3799074E-1,-1.3067465E-1,-1.2940775E-1,-1.3041517E-1,-1.2718768E-1,-1.2908362E-1,-1.2279841E-1,-1.2652852E-1,-1.1762788E-1,-1.3001265E-1,-1.2716018E-1,-1.24976784E-1,-1.1201613E-1,-1.2559375E-1,-1.1102722E-1,-9.119184E-2,-8.426985E-2,-1.1787176E-1,-1.2857352E-1,-1.2284318E-1,-1.0313503E-1,-1.0413467E-1,-6.254211E-2,-1.1390911E-1,-1.6207017E-1,-1.0640114E-1,6.0431257E-2,-9.978265E-2,-1.9785668E-1,-5.579595E-2,7.2698645E-2,-3.5163087E-1,-1.3047625E-1,-1.3049942E-1,-1.3279855E-1,-1.2921177E-1,-1.3036534E-1,-1.2822796E-1,-1.3064888E-1,-1.2855373E-1,-1.2602125E-1,-1.2994385E-1,-1.2797183E-1,-1.2697877E-1,-1.1914684E-1,4.801775E-2,-1.2655762E-1,5.7837732E-2,-1.17655374E-1,-1.297746E-1,-1.3433059E-1,-1.2977327E-1,-1.2602052E-1,-1.2807396E-1,-1.2233484E-1,-4.3513145E-2,-1.1228684E-1,-1.2852807E-1,-1.2247466E-1,-1.10503815E-1,-1.3954106E-1,-9.223886E-2,-8.977136E-2,4.2741668E-1,-1.1802313E-1,-1.2896691E-1,-1.1972279E-1,1.1486356E-1,-1.2302989E-1,-1.6170088E-2,-1.1727508E-1,-8.262605E-2,-1.1134617E-1,-9.727827E-2,-2.4879836E-2,-1.2046442E-1,3.2098904E-2,-2.377256E-1,-1.352249E-1,-1.20608285E-1,-9.2448026E-2,-7.443861E-2,2.4489936E-1,-1.3977326E-1,8.059996E-4,-3.2000676E-1,-1.3089265E-1,-4.900862E-2,-2.8577617E-1,1.871441E-1,-5.027755E-2],"categories":[],"categories_nodes":[],"categories_segments":[],"categories_sizes":[],"default_left":[true,true,true,true,true,true,true,true,true,true,true,true,true,true,true,true,true,true,true,true,true,true,true,true,true,true,true,true,true,true,true,true,true,true,true,true,true,true,true,true,true,true,true,true,true,true,false,true,true,true,true,true,true,true,true,true,true,true,true,true,true,false,false,false,false,false,false,false,false,false,false,false,false,false,false,false,false,false,false,false,false,false,false,false,false,false,false,false,false,false,false,false,false,false,false,false,false,false,false,false,false,false,false,false,false,false,false,false,false,false,false,false,false,false,false,false,false,false,false,false,false],"id":6,"left_children":[1,3,5,7,9,11,13,15,17,19,21,23,25,27,29,31,33,35,37,39,41,43,45,47,49,51,53,55,57,59,61,63,65,67,69,71,73,75,77,79,81,83,85,87,89,91,-1,93,95,97,99,101,103,105,107,109,111,113,115,117,119,-1,-1,-1,-1,-1,-1,-1,-1,-1,-1,-1,-1,-1,-1,-1,-1,-1,-1,-1,-1,-1,-1,-1,-1,-1,-1,-1,-1,-1,-1,-1,-1,-1,-1,-1,-1,-1,-1,-1,-1,-1,-1,-1,-1,-1,-1,-1,-1,-1,-1,-1,-1,-1,-1,-1,-1,-1,-1,-1,-1],"loss_changes":[1.1553906E2,2.397461E1,1.3502734E2,2.9199219E0,3.823047E1,2.445166E1,1.0588556E2,9.111328E-1,2.6586914E0,8.280762E0,2.3009155E1,2.7885742E0,2.2089233E1,1.2129822E1,2.7810455E1,1.4648438E-1,4.951172E-1,1.6608887E0,1.6225586E0,4.4482422E-1,3.5926514E0,3.9068604E0,4.6133423E-1,6.821289E-1,3.265747E0,1.9841614E1,1.9717407E1,3.296936E1,9.354492E0,7.7106636E1,5.320965E0,3.7353516E-2,4.638672E-2,1.2878418E-2,4.8535156E-1,1.2109375E-1,9.0405273E-1,1.6680908E-1,2.9412842E-1,7.141113E-2,4.7265625E-1,2.6922607E-1,1.0333252E0,2.416687E-1,7.883911E-1,5.46875E-2,0E0,5.809326E-1,4.0124512E-1,2.9819946E0,1.1884285E1,9.4921875E0,1.8469975E1,4.9259644E1,2.0667725E1,1.2831848E1,3.0047411E1,6.448344E0,2.032547E1,8.0204834E1,7.230789E1,0E0,0E0,0E0,0E0,0E0,0E0,0E0,0E0,0E0,0E0,0E0,0E0,0E0,0E0,0E0,0E0,0E0,0E0,0E0,0E0,0E0,0E0,0E0,0E0,0E0,0E0,0E0,0E0,0E0,0E0,0E0,0E0,0E0,0E0,0E0,0E0,0E0,0E0,0E0,0E0,0E0,0E0,0E0,0E0,0E0,0E0,0E0,0E0,0E0,0E0,0E0,0E0,0E0,0E0,0E0,0E0,0E0,0E0,0E0,0E0],"parents":[2147483647,0,0,1,1,2,2,3,3,4,4,5,5,6,6,7,7,8,8,9,9,10,10,11,11,12,12,13,13,14,14,15,15,16,16,17,17,18,18,19,19,20,20,21,21,22,22,23,23,24,24,25,25,26,26,27,27,28,28,29,29,30,30,31,31,32,32,33,33,34,34,35,35,36,36,37,37,38,38,39,39,40,40,41,41,42,42,43,43,44,44,45,45,47,47,48,48,49,49,50,50,51,51,52,52,53,53,54,54,55,55,56,56,57,57,58,58,59,59,60,60],"right_children":[2,4,6,8,10,12,14,16,18,20,22,24,26,28,30,32,34,36,38,40,42,44,46,48,50,52,54,56,58,60,62,64,66,68,70,72,74,76,78,80,82,84,86,88,90,92,-1,94,96,98,100,102,104,106,108,110,112,114,116,118,120,-1,-1,-1,-1,-1,-1,-1,-1,-1,-1,-1,-1,-1,-1,-1,-1,-1,-1,-1,-1,-1,-1,-1,-1,-1,-1,-1,-1,-1,-1,-1,-1,-1,-1,-1,-1,-1,-1,-1,-1,-1,-1,-1,-1,-1,-1,-1,-1,-1,-1,-1,-1,-1,-1,-1,-1,-1,-1,-1,-1],"split_conditions":[6.5E0,3.5E0,9.961185E-1,2.5E0,9.905845E-1,5.07426E-1,9.961185E-1,1.5E0,8.72324E-1,8.357645E-1,9.8214304E-1,2.81645E-1,3.05E1,9.115165E-1,4.75E1,5E-1,1.094245E-1,8.704295E-1,2.8875798E-1,1.69943E-1,2.5997198E-1,2.306065E-1,6.5E0,8.5E0,4.75E1,1.65E1,9.115165E-1,9.00306E-1,3.05E1,3.15E1,5.65E1,3.7926602E-1,2.65E1,1.95E1,3.60999E-1,2.8875798E-1,2.542565E-1,8.7575746E-1,8.7397146E-1,1.195E2,1.699555E-1,1.3146949E-1,2.625595E-1,1.3146949E-1,8.896235E-1,5.5E0,-1.6853971E-2,9.5E0,1.54E2,2.81685E-1,5.15E1,1.05E1,7.659025E-1,9.00306E-1,4.35E1,4.978505E-1,4.25E1,2.35E1,4.85E1,2.95E1,3.65E1,-7.032617E-2,-2.609525E-2,-2.6099885E-2,-2.655971E-2,-2.5842354E-2,-2.6073068E-2,-2.5645593E-2,-2.6129777E-2,-2.5710747E-2,-2.520425E-2,-2.598877E-2,-2.5594367E-2,-2.5395755E-2,-2.3829369E-2,9.603551E-3,-2.5311524E-2,1.1567547E-2,-2.3531076E-2,-2.595492E-2,-2.6866117E-2,-2.5954654E-2,-2.5204105E-2,-2.5614792E-2,-2.4466967E-2,-8.702629E-3,-2.2457369E-2,-2.5705615E-2,-2.4494933E-2,-2.2100763E-2,-2.7908212E-2,-1.8447772E-2,-1.7954273E-2,8.5483335E-2,-2.3604626E-2,-2.5793383E-2,-2.3944559E-2,2.2972712E-2,-2.4605978E-2,-3.2340176E-3,-2.3455016E-2,-1.652521E-2,-2.2269234E-2,-1.9455655E-2,-4.975967E-3,-2.4092885E-2,6.419781E-3,-4.754512E-2,-2.704498E-2,-2.4121657E-2,-1.8489605E-2,-1.4887722E-2,4.8979875E-2,-2.7954653E-2,1.6119993E-4,-6.400135E-2,-2.617853E-2,-9.801724E-3,-5.7155233E-2,3.7428822E-2,-1.005551E-2],"split_indices":[4,4,6,4,5,6,5,4,6,6,6,6,0,5,0,4,6,5,5,6,5,6,0,0,1,4,6,5,0,0,0,6,1,1,5,6,6,6,6,1,5,5,5,6,6,0,0,1,1,6,1,0,6,6,0,5,0,1,0,0,0,0,0,0,0,0,0,0,0,0,0,0,0,0,0,0,0,0,0,0,0,0,0,0,0,0,0,0,0,0,0,0,0,0,0,0,0,0,0,0,0,0,0,0,0,0,0,0,0,0,0,0,0,0,0,0,0,0,0,0,0],"split_type":[0,0,0,0,0,0,0,0,0,0,0,0,0,0,0,0,0,0,0,0,0,0,0,0,0,0,0,0,0,0,0,0,0,0,0,0,0,0,0,0,0,0,0,0,0,0,0,0,0,0,0,0,0,0,0,0,0,0,0,0,0,0,0,0,0,0,0,0,0,0,0,0,0,0,0,0,0,0,0,0,0,0,0,0,0,0,0,0,0,0,0,0,0,0,0,0,0,0,0,0,0,0,0,0,0,0,0,0,0,0,0,0,0,0,0,0,0,0,0,0,0],"sum_hessian":[2.099732E6,1.630138E6,4.69594E5,1.151562E6,4.78576E5,3.39643E5,1.29951E5,8.56182E5,2.9538E5,3.41518E5,1.37058E5,2.02617E5,1.37026E5,7.0083E4,5.9868E4,4.8336E5,3.72822E5,2.04181E5,9.1199E4,2.50713E5,9.0805E4,8.198E4,5.5078E4,1.26081E5,7.6536E4,7.5374E4,6.1652E4,6.5992E4,4.091E3,5.6526E4,3.342E3,1.46284E5,3.37076E5,5.8092E4,3.1473E5,1.43966E5,6.0215E4,3.1643E4,5.9556E4,8.6423E4,1.6429E5,3.4824E4,5.5981E4,2.8123E4,5.3857E4,4.2334E4,1.2744E4,6.426E3,1.19655E5,6.6871E4,9.665E3,6.1255E4,1.4119E4,5.1461E4,1.0191E4,6.4786E4,1.206E3,1.602E3,2.489E3,5.139E4,5.136E3,1.12E2,3.23E3,1.35193E5,1.1091E4,2.79924E5,5.7152E4,5.661E3,5.2431E4,1.44911E5,1.69819E5,8.11E4,6.2866E4,2.8059E4,3.2156E4,5E0,3.1638E4,9E0,5.9547E4,8.1937E4,4.486E3,4.9858E4,1.14432E5,1.6009E4,1.8815E4,2.21E2,5.576E4,1.447E4,1.3653E4,5.2891E4,9.66E2,2.4334E4,1.8E4,1E0,6.425E3,1.1455E5,5.105E3,5.2E1,6.6819E4,1.352E3,8.313E3,1.5384E4,4.5871E4,7.344E3,6.775E3,4.925E4,2.211E3,2.667E3,7.524E3,3.2097E4,3.2689E4,6.97E2,5.09E2,1.146E3,4.56E2,8.8E2,1.609E3,4.9918E4,1.472E3,2.66E3,2.476E3],"tree_param":{"num_deleted":"0","num_feature":"8","num_nodes":"121","size_leaf_vector":"0"}},{"base_weights":[-9.718814E-2,-1.0086877E-1,-8.7504305E-2,-1.0235153E-1,-9.625228E-2,-9.526164E-2,-6.717284E-2,-1.034628E-1,-1.0081926E-1,-1.006297E-1,-8.5539E-2,-1.0044383E-1,-8.678014E-2,-8.616291E-2,-4.4393934E-2,-1.0391842E-1,-1.02263816E-1,-1.029098E-1,-9.8634735E-2,-1.0275015E-1,-9.417813E-2,-9.3738206E-2,-7.2954334E-2,-1.028685E-1,-9.641694E-2,-7.83509E-2,-1.0062834E-1,-8.42749E-2,-1.4999072E-1,-5.5476792E-2,-2.4203617E-2,-1.04383506E-1,-1.0358203E-1,-1.0310873E-1,-1.00734316E-1,-1.0457232E-1,-1.0248216E-1,-1.0072828E-1,-9.513018E-2,-1.0453517E-1,-1.0220834E-1,-1.0138259E-1,-9.022795E-2,-9.9551514E-2,-8.8223144E-2,-7.379184E-2,-7.181809E-2,-9.614435E-2,-1.03663206E-1,-9.840832E-2,-7.888587E-2,-9.890308E-2,-6.83361E-2,-9.508928E-2,-1.3020164E-1,-1.00365534E-1,-7.7199265E-2,-1.9134998E-1,-1.0367581E-1,-6.741723E-2,-5.1016964E-2,4.2718258E-2,-6.0159538E-2,-1.04405314E-1,-9.886217E-2,-1.0359701E-1,-6.676779E-2,-4.309056E-3,-1.03124544E-1,-1.0391023E-1,-9.894188E-2,-1.0651993E-1,-1.03571236E-1,-1.0326303E-1,-9.96323E-2,-1.0152953E-1,-9.776527E-2,-9.594408E-2,-9.028941E-2,-1.0539237E-1,-9.4179735E-2,-1.0307567E-1,-9.8271355E-2,-5.494988E-2,-1.017403E-1,-8.970022E-2,-1.2586199E-1,-1.0292391E-1,-9.552723E-2,-9.547208E-2,-8.5832305E-2,1.5231617E-1,-9.625467E-2,1.20238E-1,-1.0367639E-1,-8.9471415E-2,-1.0105123E-1,5.061054E-3,-9.24569E-2,-9.8955326E-2,4.9709234E-1,-7.616688E-2,-4.421074E-2,-9.988267E-2,1.1616166E-2,-2.0726083E-1,-1.1127173E-1,-9.477828E-2,-1.0504679E-1,3.506205E-1,-7.751852E-2,-1.0133816E-1,-2.8369492E-1,-4.8796095E-2,-5.6967873E-2,-1.5797549E-3,1.341825E-1,-1.5630609E-1,-2.1903006E-2],"categories":[],"categories_nodes":[],"categories_segments":[],"categories_sizes":[],"default_left":[true,true,true,true,true,true,true,true,true,true,true,true,true,true,true,true,true,true,true,true,true,true,true,true,true,true,true,true,true,true,true,true,true,true,true,true,true,true,true,true,true,true,true,true,true,false,false,true,true,true,true,true,true,true,true,true,true,true,false,false,true,true,true,false,false,false,false,false,false,false,false,false,false,false,false,false,false,false,false,false,false,false,false,false,false,false,false,false,false,false,false,false,false,false,false,false,false,false,false,false,false,false,false,false,false,false,false,false,false,false,false,false,false,false,false,false,false,false,false],"id":7,"left_children":[1,3,5,7,9,11,13,15,17,19,21,23,25,27,29,31,33,35,37,39,41,43,45,47,49,51,53,55,57,59,61,63,65,67,69,71,73,75,77,79,81,83,85,87,89,-1,-1,91,93,95,97,99,101,103,105,107,109,111,-1,-1,113,115,117,-1,-1,-1,-1,-1,-1,-1,-1,-1,-1,-1,-1,-1,-1,-1,-1,-1,-1,-1,-1,-1,-1,-1,-1,-1,-1,-1,-1,-1,-1,-1,-1,-1,-1,-1,-1,-1,-1,-1,-1,-1,-1,-1,-1,-1,-1,-1,-1,-1,-1,-1,-1,-1,-1,-1,-1],"loss_changes":[7.483203E1,1.0404297E1,9.119922E1,1.9511719E0,1.733789E1,1.8388916E1,6.908197E1,3.544922E-1,2.2006836E0,3.5825195E0,1.1065063E1,2.5268555E0,1.8523926E1,1.0483154E1,1.6246994E1,6.4453125E-2,2.2717285E-1,1.6503906E-1,1.7277832E0,1.8041992E-1,1.8397827E0,2.0741577E0,3.4988403E-2,8.565674E-1,3.4016724E0,2.0306824E1,9.827026E0,9.623779E0,4.770954E0,2.4929657E0,6.1927094E1,1.4160156E-2,1.4794922E-1,1.8457031E-1,3.6242676E-1,8.7524414E-2,4.2773438E-1,3.4191895E-1,3.40271E-1,3.9816284E-1,5.076904E-1,3.7641907E-1,7.779236E-1,4.1931152E-1,5.697632E-1,0E0,0E0,4.8483276E-1,4.404297E-1,2.062317E0,1.1355335E1,1.0559387E0,1.2533569E1,2.5879547E1,1.379541E1,6.657715E-1,8.053314E0,1.0943272E1,0E0,0E0,4.4835663E-1,3.6445107E1,6.157388E1,0E0,0E0,0E0,0E0,0E0,0E0,0E0,0E0,0E0,0E0,0E0,0E0,0E0,0E0,0E0,0E0,0E0,0E0,0E0,0E0,0E0,0E0,0E0,0E0,0E0,0E0,0E0,0E0,0E0,0E0,0E0,0E0,0E0,0E0,0E0,0E0,0E0,0E0,0E0,0E0,0E0,0E0,0E0,0E0,0E0,0E0,0E0,0E0,0E0,0E0,0E0,0E0,0E0,0E0,0E0,0E0],"parents":[2147483647,0,0,1,1,2,2,3,3,4,4,5,5,6,6,7,7,8,8,9,9,10,10,11,11,12,12,13,13,14,14,15,15,16,16,17,17,18,18,19,19,20,20,21,21,22,22,23,23,24,24,25,25,26,26,27,27,28,28,29,29,30,30,31,31,32,32,33,33,34,34,35,35,36,36,37,37,38,38,39,39,40,40,41,41,42,42,43,43,44,44,47,47,48,48,49,49,50,50,51,51,52,52,53,53,54,54,55,55,56,56,57,57,60,60,61,61,62,62],"right_children":[2,4,6,8,10,12,14,16,18,20,22,24,26,28,30,32,34,36,38,40,42,44,46,48,50,52,54,56,58,60,62,64,66,68,70,72,74,76,78,80,82,84,86,88,90,-1,-1,92,94,96,98,100,102,104,106,108,110,112,-1,-1,114,116,118,-1,-1,-1,-1,-1,-1,-1,-1,-1,-1,-1,-1,-1,-1,-1,-1,-1,-1,-1,-1,-1,-1,-1,-1,-1,-1,-1,-1,-1,-1,-1,-1,-1,-1,-1,-1,-1,-1,-1,-1,-1,-1,-1,-1,-1,-1,-1,-1,-1,-1,-1,-1,-1,-1,-1,-1],"split_conditions":[5.5E0,3.5E0,9.961185E-1,4.051785E-1,9.905845E-1,5.07426E-1,9.961185E-1,8.72324E-1,3.747815E-1,9.905845E-1,9.761905E-1,2.80652E-1,3.35E1,9.3699455E-1,1.45E1,1.12309E-1,2.184265E-1,9.5E0,2.5E0,8.5E0,2.306065E-1,3.19524E-1,5.5E0,8.5E0,4.75E1,5.6870496E-1,9.115165E-1,3.1265402E-1,5.45E1,7.5E0,1.95E1,2.005E2,1.54E2,8.75108E-1,7.5E0,8.495625E-1,2.19769E-1,5.5E0,7.5E0,7.74284E-1,3.84445E-1,2.98809E-2,8.92999E-1,1.7400101E-1,7.5E0,-1.4758368E-2,-1.4363619E-2,2.6785702E-1,8.5E0,1.05E1,5.15E1,3E1,1.65E1,9.00306E-1,4.35E1,8.5E0,3.135795E-1,3.05E1,-2.0735163E-2,-1.3483445E-2,1.15E1,1.75E1,2.55E1,-2.0881062E-2,-1.9772435E-2,-2.0719402E-2,-1.3353558E-2,-8.6181116E-4,-2.062491E-2,-2.0782046E-2,-1.9788375E-2,-2.1303987E-2,-2.0714248E-2,-2.0652605E-2,-1.992646E-2,-2.0305907E-2,-1.9553054E-2,-1.9188816E-2,-1.805788E-2,-2.1078473E-2,-1.8835947E-2,-2.0615134E-2,-1.9654272E-2,-1.0989976E-2,-2.034806E-2,-1.7940044E-2,-2.5172397E-2,-2.0584783E-2,-1.9105447E-2,-1.9094417E-2,-1.7166462E-2,3.0463234E-2,-1.9250935E-2,2.40476E-2,-2.0735279E-2,-1.7894283E-2,-2.0210247E-2,1.0122109E-3,-1.849138E-2,-1.9791065E-2,9.941847E-2,-1.5233377E-2,-8.842148E-3,-1.9976534E-2,2.3232333E-3,-4.1452166E-2,-2.2254346E-2,-1.8955655E-2,-2.1009358E-2,7.0124105E-2,-1.5503705E-2,-2.0267634E-2,-5.6738984E-2,-9.759219E-3,-1.1393575E-2,-3.1595098E-4,2.68365E-2,-3.1261217E-2,-4.3806015E-3],"split_indices":[4,4,5,6,5,5,6,5,5,6,6,5,1,6,0,6,6,0,4,0,5,6,0,1,0,6,5,6,0,0,0,1,1,5,1,6,5,0,1,6,5,5,5,6,1,0,0,6,0,1,0,4,4,5,1,0,6,1,0,0,0,0,0,0,0,0,0,0,0,0,0,0,0,0,0,0,0,0,0,0,0,0,0,0,0,0,0,0,0,0,0,0,0,0,0,0,0,0,0,0,0,0,0,0,0,0,0,0,0,0,0,0,0,0,0,0,0,0,0],"split_type":[0,0,0,0,0,0,0,0,0,0,0,0,0,0,0,0,0,0,0,0,0,0,0,0,0,0,0,0,0,0,0,0,0,0,0,0,0,0,0,0,0,0,0,0,0,0,0,0,0,0,0,0,0,0,0,0,0,0,0,0,0,0,0,0,0,0,0,0,0,0,0,0,0,0,0,0,0,0,0,0,0,0,0,0,0,0,0,0,0,0,0,0,0,0,0,0,0,0,0,0,0,0,0,0,0,0,0,0,0,0,0,0,0,0,0,0,0,0,0],"sum_hessian":[2.099732E6,1.52145E6,5.78282E5,1.151562E6,3.69888E5,4.18574E5,1.59708E5,6.67438E5,4.84124E5,2.62587E5,1.07301E5,2.59816E5,1.58758E5,8.7096E4,7.2612E4,4.83588E5,1.8385E5,2.4736E5,2.36764E5,1.9762E5,6.4967E4,6.4967E4,4.2334E4,1.62155E5,9.7661E4,9.8692E4,6.0066E4,8.4596E4,2.5E3,4.6878E4,2.5734E4,2.02838E5,2.8075E5,1.18386E5,6.5464E4,5.0559E4,1.96801E5,1.48203E5,8.8561E4,4.5972E4,1.51648E5,2.2998E4,4.1969E4,3.162E4,3.3347E4,2.4334E4,1.8E4,1.7152E4,1.45003E5,8.7695E4,9.966E3,3.2332E4,6.636E4,5.0594E4,9.472E3,2.5834E4,5.8762E4,1.319E3,1.181E3,1.2744E4,3.4134E4,8.994E3,1.674E4,2.02022E5,8.16E2,2.80634E5,1.16E2,1.9E1,1.18367E5,2.3597E4,4.1867E4,1.7129E4,3.343E4,1.54447E5,4.2354E4,1.16631E5,3.1572E4,7.5798E4,1.2763E4,4.2449E4,3.523E3,1.2425E5,2.7398E4,1.77E2,2.2821E4,4.136E4,6.09E2,1.719E4,1.443E4,8.261E3,2.5086E4,7E0,1.7145E4,8E0,1.44995E5,2.0023E4,6.7672E4,1.387E3,8.579E3,3.233E4,2E0,5.0097E4,1.6263E4,4.8419E4,2.175E3,1.866E3,7.606E3,1.1787E4,1.4047E4,4.3E1,5.8719E4,6.69E2,6.5E2,2.4864E4,9.27E3,6.06E3,2.934E3,4.764E3,1.1976E4],"tree_param":{"num_deleted":"0","num_feature":"8","num_nodes":"119","size_leaf_vector":"0"}},{"base_weights":[-7.775087E-2,-8.005101E-2,-6.769154E-2,-8.1743196E-2,-7.588731E-2,-7.475704E-2,-4.9533278E-2,-8.273949E-2,-7.913263E-2,-8.035318E-2,-6.7442745E-2,-8.009779E-2,-6.758679E-2,-6.701489E-2,-2.9634792E-2,-8.341E-2,-8.2224175E-2,-8.057357E-2,-7.2337165E-2,-8.173057E-2,-7.692548E-2,-7.4334376E-2,-5.65511E-2,-8.227233E-2,-7.5708136E-2,-5.741033E-2,-8.033252E-2,-5.8954906E-2,-8.646333E-2,-2.4296371E-2,-1.06042154E-1,-8.330665E-2,-8.477611E-2,-8.193049E-2,-8.41552E-2,-8.133044E-2,-7.5034484E-2,-7.992497E-2,-6.947766E-2,-8.295972E-2,-8.059721E-2,-8.024735E-2,-7.4437775E-2,-7.762894E-2,-6.934351E-2,-8.611845E-2,-5.5410706E-2,-8.198025E-2,-9.4919585E-2,3.7916017E-1,-7.6124325E-2,-7.359125E-2,-4.5341138E-2,-7.4607804E-2,-1.0513332E-1,-6.567472E-2,-7.4977963E-3,-1.4431618E-1,-8.0807514E-2,-3.4738928E-2,6.2544E-2,-2.7758518E-1,-1.00009836E-1,-8.3076045E-2,-8.389592E-2,-8.39789E-2,-8.769021E-2,-8.322687E-2,-8.142291E-2,-8.398544E-2,-9.505223E-2,-8.222051E-2,-7.966089E-2,-8.129395E-2,-6.46661E-2,-8.027658E-2,1.5841497E-3,-6.770696E-2,-8.748668E-2,-8.629082E-2,-8.2863756E-2,-8.218493E-2,-7.9467684E-2,-9.2437185E-2,-7.993631E-2,5.3648045E-3,-7.4575216E-2,-7.76581E-2,3.0536398E-1,-7.3376425E-2,-6.058442E-2,-9.187527E-2,-2.7164461E-2,-5.73403E-2,-4.3153E-2,-8.220528E-2,-5.8808602E-2,-6.516134E-2,-1.07065E-1,4.1118887E-1,-8.395999E-2,-3.5850044E-2,-7.719739E-2,1.4100753E-2,-7.523893E-2,-5.9164166E-2,-2.7272267E-2,-7.9477854E-2,9.551807E-2,-1.6678987E-1,-8.891144E-2,-8.2283676E-2,-5.3696703E-2,-4.461635E-2,4.9188815E-2,-1.2465061E-1,-3.0827618E-1,-1.0159745E-1,-6.778879E-2,-2.6231559E-2,-1.9178194E-1,1.541083E-1,-3.5847254E-2],"categories":[],"categories_nodes":[],"categories_segments":[],"categories_sizes":[],"default_left":[true,true,true,true,true,true,true,true,true,true,true,true,true,true,true,true,true,true,true,true,true,true,true,true,true,true,true,true,true,true,true,true,true,true,true,true,true,true,true,true,true,true,true,true,true,true,true,true,true,true,true,true,true,true,true,true,true,true,true,true,true,false,false,false,false,false,false,false,false,false,false,false,false,false,false,false,false,false,false,false,false,false,false,false,false,false,false,false,false,false,false,false,false,false,false,false,false,false,false,false,false,false,false,false,false,false,false,false,false,false,false,false,false,false,false,false,false,false,false,false,false,false,false],"id":8,"left_children":[1,3,5,7,9,11,13,15,17,19,21,23,25,27,29,31,33,35,37,39,41,43,45,47,49,51,53,55,57,59,61,63,65,67,69,71,73,75,77,79,81,83,85,87,89,91,93,95,97,99,101,103,105,107,109,111,113,115,117,119,121,-1,-1,-1,-1,-1,-1,-1,-1,-1,-1,-1,-1,-1,-1,-1,-1,-1,-1,-1,-1,-1,-1,-1,-1,-1,-1,-1,-1,-1,-1,-1,-1,-1,-1,-1,-1,-1,-1,-1,-1,-1,-1,-1,-1,-1,-1,-1,-1,-1,-1,-1,-1,-1,-1,-1,-1,-1,-1,-1,-1,-1,-1],"loss_changes":[4.8578125E1,1.203418E1,5.0131714E1,3.1538086E0,1.8618896E1,1.0767334E1,3.8075897E1,2.96875E-1,3.2807617E0,1.5187988E0,1.281897E1,1.5325928E0,1.5572327E1,9.128967E0,2.0879585E1,4.711914E-2,2.7514648E-1,1.1549072E0,1.2687683E0,3.1420898E-1,7.593994E-1,1.7149658E0,2.2276764E0,3.904419E-1,1.0141876E1,1.3038376E1,7.561554E0,1.4245743E1,5.5740585E0,4.3396976E1,3.4315796E0,4.1259766E-2,5.493164E-2,2.7734375E-1,1.1340332E-1,3.5559082E-1,2.156189E0,4.6064758E-1,1.3546143E0,2.8198242E-2,2.0855713E-1,1.4291382E-1,5.8135986E-1,7.27478E-1,1.4655304E0,8.3137894E-1,1.5054321E0,5.4467773E-1,8.702049E-1,7.613473E-1,2.303833E0,4.123169E0,9.552704E0,3.5898285E1,9.983025E0,7.2452545E0,1.0017831E1,4.8593845E0,4.202667E0,5.7065857E1,4.62854E1,0E0,0E0,0E0,0E0,0E0,0E0,0E0,0E0,0E0,0E0,0E0,0E0,0E0,0E0,0E0,0E0,0E0,0E0,0E0,0E0,0E0,0E0,0E0,0E0,0E0,0E0,0E0,0E0,0E0,0E0,0E0,0E0,0E0,0E0,0E0,0E0,0E0,0E0,0E0,0E0,0E0,0E0,0E0,0E0,0E0,0E0,0E0,0E0,0E0,0E0,0E0,0E0,0E0,0E0,0E0,0E0,0E0,0E0,0E0,0E0,0E0,0E0],"parents":[2147483647,0,0,1,1,2,2,3,3,4,4,5,5,6,6,7,7,8,8,9,9,10,10,11,11,12,12,13,13,14,14,15,15,16,16,17,17,18,18,19,19,20,20,21,21,22,22,23,23,24,24,25,25,26,26,27,27,28,28,29,29,30,30,31,31,32,32,33,33,34,34,35,35,36,36,37,37,38,38,39,39,40,40,41,41,42,42,43,43,44,44,45,45,46,46,47,47,48,48,49,49,50,50,51,51,52,52,53,53,54,54,55,55,56,56,57,57,58,58,59,59,60,60],"right_children":[2,4,6,8,10,12,14,16,18,20,22,24,26,28,30,32,34,36,38,40,42,44,46,48,50,52,54,56,58,60,62,64,66,68,70,72,74,76,78,80,82,84,86,88,90,92,94,96,98,100,102,104,106,108,110,112,114,116,118,120,122,-1,-1,-1,-1,-1,-1,-1,-1,-1,-1,-1,-1,-1,-1,-1,-1,-1,-1,-1,-1,-1,-1,-1,-1,-1,-1,-1,-1,-1,-1,-1,-1,-1,-1,-1,-1,-1,-1,-1,-1,-1,-1,-1,-1,-1,-1,-1,-1,-1,-1,-1,-1,-1,-1,-1,-1,-1,-1,-1,-1,-1,-1],"split_conditions":[7.5E0,8.4430003E-1,9.961185E-1,8.438885E-1,3.5E0,5.07426E-1,9.961185E-1,1.68944E-1,4.5E0,3.5E0,9.86111E-1,3.0830097E-1,3.35E1,2.15E1,4.75E1,6.07436E-1,4.45E1,5.482E-1,1.94659E-1,2.5E0,3.84445E-1,4.438885E-1,9.86111E-1,3.00399E-1,3.0831748E-1,7.473105E-1,9.0437996E-1,1.75E1,2.35E1,3.15E1,5.65E1,4.45E1,1.341725E-1,6.5E0,4.4882601E-1,3.5E0,6.5E0,9.5E0,7.46061E-1,4.116155E-2,2.775985E-1,7.5E0,8.5581E-1,1.235E2,1.05E1,1.05E1,7.5E0,2.96736E-1,2.25E1,5.2E1,3.138865E-1,1.05E1,7.645995E-1,9.00306E-1,4.35E1,4.02837E-1,6.2769055E-1,9.06659E-1,6.7299354E-1,2.85E1,3.65E1,-5.5517036E-2,-2.0001968E-2,-1.661521E-2,-1.6779184E-2,-1.679578E-2,-1.7538043E-2,-1.6645374E-2,-1.6284583E-2,-1.6797088E-2,-1.9010445E-2,-1.6444102E-2,-1.5932178E-2,-1.625879E-2,-1.293322E-2,-1.6055316E-2,3.1682994E-4,-1.3541392E-2,-1.7497336E-2,-1.7258165E-2,-1.6572751E-2,-1.6436987E-2,-1.5893538E-2,-1.8487437E-2,-1.5987262E-2,1.0729609E-3,-1.49150435E-2,-1.5531621E-2,6.1072797E-2,-1.4675285E-2,-1.2116884E-2,-1.8375054E-2,-5.432892E-3,-1.146806E-2,-8.6306E-3,-1.6441057E-2,-1.176172E-2,-1.3032268E-2,-2.1413E-2,8.223777E-2,-1.6791997E-2,-7.170009E-3,-1.5439478E-2,2.8201507E-3,-1.5047786E-2,-1.1832833E-2,-5.4544536E-3,-1.5895572E-2,1.9103615E-2,-3.3357974E-2,-1.7782288E-2,-1.6456736E-2,-1.073934E-2,-8.92327E-3,9.837763E-3,-2.4930123E-2,-6.1655235E-2,-2.031949E-2,-1.3557757E-2,-5.246312E-3,-3.835639E-2,3.082166E-2,-7.169451E-3],"split_indices":[4,6,5,5,4,5,6,5,4,1,5,5,1,0,0,6,1,6,6,1,5,5,6,5,5,6,5,0,0,0,0,0,5,0,6,0,1,0,6,5,5,0,6,1,0,1,0,5,0,1,5,1,5,5,1,6,6,6,6,0,0,0,0,0,0,0,0,0,0,0,0,0,0,0,0,0,0,0,0,0,0,0,0,0,0,0,0,0,0,0,0,0,0,0,0,0,0,0,0,0,0,0,0,0,0,0,0,0,0,0,0,0,0,0,0,0,0,0,0,0,0,0,0],"split_type":[0,0,0,0,0,0,0,0,0,0,0,0,0,0,0,0,0,0,0,0,0,0,0,0,0,0,0,0,0,0,0,0,0,0,0,0,0,0,0,0,0,0,0,0,0,0,0,0,0,0,0,0,0,0,0,0,0,0,0,0,0,0,0,0,0,0,0,0,0,0,0,0,0,0,0,0,0,0,0,0,0,0,0,0,0,0,0,0,0,0,0,0,0,0,0,0,0,0,0,0,0,0,0,0,0,0,0,0,0,0,0,0,0,0,0,0,0,0,0,0,0,0,0],"sum_hessian":[2.099732E6,1.708958E6,3.90774E5,1.215105E6,4.93853E5,2.81311E5,1.09463E5,8.79444E5,3.35661E5,3.23018E5,1.70835E5,1.61218E5,1.20093E5,5.8269E4,5.1194E4,3.82099E5,4.97345E5,2.76929E5,5.8732E4,2.30408E5,9.261E4,1.04627E5,6.6208E4,1.07799E5,5.3419E4,6.678E4,5.3313E4,4.1199E4,1.707E4,4.7852E4,3.342E3,3.55282E5,2.6817E4,4.31727E5,6.5618E4,2.43626E5,3.3303E4,1.6068E4,4.2664E4,1.10498E5,1.1991E5,3.9643E4,5.2967E4,6.3015E4,4.1612E4,2.456E3,6.3752E4,1.05373E5,2.426E3,4.8E1,5.3371E4,2.8528E4,3.8252E4,4.3318E4,9.995E3,3.644E4,4.759E3,1.518E3,1.5552E4,4.2716E4,5.136E3,1.12E2,3.23E3,2.55455E5,9.9827E4,2.108E4,5.737E3,1.21429E5,3.10298E5,6.462E4,9.98E2,1.58877E5,8.4749E4,2.0762E4,1.2541E4,1.5999E4,6.9E1,3.8849E4,3.815E3,3.069E3,1.07429E5,4.9815E4,7.0095E4,9.79E2,3.8664E4,9.1E1,5.2876E4,6.3011E4,4E0,2.8488E4,1.3124E4,2.237E3,2.19E2,5.5078E4,8.674E3,1.04357E5,1.016E3,7.05E2,1.721E3,4.5E1,3E0,1.386E3,5.1985E4,5.26E2,2.8002E4,2.1671E4,1.6581E4,4.2113E4,1.205E3,2.08E3,7.915E3,1.5266E4,2.1174E4,2.876E3,1.883E3,1.357E3,1.61E2,5.986E3,9.566E3,4.0522E4,2.194E3,2.66E3,2.476E3],"tree_param":{"num_deleted":"0","num_feature":"8","num_nodes":"123","size_leaf_vector":"0"}},{"base_weights":[-6.2201038E-2,-6.457525E-2,-5.5954423E-2,-6.5527715E-2,-6.1609793E-2,-6.314989E-2,-4.696087E-2,-6.663168E-2,-6.472904E-2,-6.443153E-2,-5.470389E-2,-6.063354E-2,-6.682884E-2,-5.6577284E-2,-3.4837853E-2,-6.712096E-2,-6.641915E-2,-6.612661E-2,-6.385892E-2,-6.577383E-2,-6.0347512E-2,-6.173014E-2,-4.8440654E-2,-6.4571664E-2,-5.610073E-2,-6.578649E-2,-8.22274E-2,-5.4079413E-2,-7.4323215E-2,5.3076178E-2,-3.710352E-2,-6.6962525E-2,-6.9046155E-2,-6.80107E-2,-6.635378E-2,-6.6912845E-2,-6.5586425E-2,-6.518737E-2,-6.196774E-2,-6.5676965E-2,-7.675526E-2,-6.691141E-2,-5.7984497E-2,-6.1271463E-2,-1.02213986E-1,-4.826256E-2,-1.2871091E-1,-6.440603E-2,-9.7694404E-2,-5.8106795E-2,-7.045954E-3,-6.629017E-2,1.3013912E-2,-1.3495904E-1,-7.690258E-2,-5.4927994E-2,6.67133E-2,-1.1068764E-1,-7.2106786E-2,-4.888611E-2,1.2547363E-1,-3.0369768E-2,-7.304362E-2,-6.697999E-2,-4.9511757E-2,-6.7971855E-2,-7.1617104E-2,-6.808177E-2,4.0748534E-3,-6.636407E-2,-2.9423686E-2,-6.892578E-2,-6.6676386E-2,-5.7786964E-2,-6.574344E-2,-7.287324E-2,-6.50132E-2,3.656103E-1,-6.1982475E-2,-6.555721E-2,-8.0887966E-2,-8.33672E-2,-2.1705292E-2,-2.8577274E-2,-6.730852E-2,3.1676725E-1,-5.8100972E-2,-6.318571E-2,-5.3181414E-2,-9.640789E-2,-1.3830307E-1,4.2553496E-1,-4.8278447E-2,-6.453403E-2,-6.2010796E-3,-8.902518E-2,-1.1767588E-1,-5.7403762E-2,-1.0618326E-1,3.5772237E-1,-1.549949E-2,-6.595089E-2,-9.5310204E-2,5.340801E-1,-4.839477E-2,-7.918376E-2,-1.4815709E-1,-6.1827723E-2,-8.3002746E-2,-6.1877154E-2,-4.538258E-2,2.2061689E-1,-3.2082297E-2,-1.519521E-1,-8.3221965E-2,1.6394068E-2,-7.402795E-2,-8.630739E-2,4.0850814E-2,1.9341247E-1,5.4468475E-3,-3.3619307E-2,4.4414207E-2,-3.1959012E-1,-5.983721E-2],"categories":[],"categories_nodes":[],"categories_segments":[],"categories_sizes":[],"default_left":[true,true,true,true,true,true,true,true,true,true,true,true,true,true,true,true,true,true,true,true,true,true,true,true,true,true,true,true,true,true,true,true,true,true,true,true,true,true,true,true,true,true,true,true,true,true,false,true,true,true,true,true,true,true,true,true,true,true,true,true,true,true,true,false,false,false,false,false,false,false,false,false,false,false,false,false,false,false,false,false,false,false,false,false,false,false,false,false,false,false,false,false,false,false,false,false,false,false,false,false,false,false,false,false,false,false,false,false,false,false,false,false,false,false,false,false,false,false,false,false,false,false,false,false,false],"id":9,"left_children":[1,3,5,7,9,11,13,15,17,19,21,23,25,27,29,31,33,35,37,39,41,43,45,47,49,51,53,55,57,59,61,63,65,67,69,71,73,75,77,79,81,83,85,87,89,91,-1,93,95,97,99,101,103,105,107,109,111,113,115,117,119,121,123,-1,-1,-1,-1,-1,-1,-1,-1,-1,-1,-1,-1,-1,-1,-1,-1,-1,-1,-1,-1,-1,-1,-1,-1,-1,-1,-1,-1,-1,-1,-1,-1,-1,-1,-1,-1,-1,-1,-1,-1,-1,-1,-1,-1,-1,-1,-1,-1,-1,-1,-1,-1,-1,-1,-1,-1,-1,-1,-1,-1,-1,-1],"loss_changes":[3.1137207E1,4.2929688E0,3.741931E1,1.0112305E0,7.204468E0,2.9699707E0,2.9962708E1,4.5898438E-2,8.0810547E-1,1.4355469E0,4.719055E0,3.4019775E0,2.0888062E0,6.349457E0,2.2649185E1,4.0039062E-2,3.0639648E-2,1.0461426E-1,1.0305176E0,2.0513916E-1,1.00383E0,9.3270874E-1,8.048706E-1,5.53772E-1,8.728394E0,4.8512573E0,2.3111649E0,1.2883148E1,1.4172516E0,2.1095966E1,2.6823334E1,3.7841797E-2,2.5764465E-2,6.819153E-2,1.2097168E-1,4.5074463E-2,1.8237305E-1,3.190918E-1,1.0930786E0,3.5162354E-1,6.249752E-1,2.5977325E-1,2.1038666E0,7.7101135E-1,1.0505438E-1,4.4665527E-1,0E0,7.563782E-1,7.717514E-2,2.874176E0,1.0754912E1,1.189331E0,2.4888283E1,5.4551506E-1,6.8566513E-1,8.273773E0,1.334186E1,1.1365776E0,2.8355255E0,3.9895563E0,1.3625082E1,2.2688011E1,5.692823E1,0E0,0E0,0E0,0E0,0E0,0E0,0E0,0E0,0E0,0E0,0E0,0E0,0E0,0E0,0E0,0E0,0E0,0E0,0E0,0E0,0E0,0E0,0E0,0E0,0E0,0E0,0E0,0E0,0E0,0E0,0E0,0E0,0E0,0E0,0E0,0E0,0E0,0E0,0E0,0E0,0E0,0E0,0E0,0E0,0E0,0E0,0E0,0E0,0E0,0E0,0E0,0E0,0E0,0E0,0E0,0E0,0E0,0E0,0E0,0E0,0E0,0E0],"parents":[2147483647,0,0,1,1,2,2,3,3,4,4,5,5,6,6,7,7,8,8,9,9,10,10,11,11,12,12,13,13,14,14,15,15,16,16,17,17,18,18,19,19,20,20,21,21,22,22,23,23,24,24,25,25,26,26,27,27,28,28,29,29,30,30,31,31,32,32,33,33,34,34,35,35,36,36,37,37,38,38,39,39,40,40,41,41,42,42,43,43,44,44,45,45,47,47,48,48,49,49,50,50,51,51,52,52,53,53,54,54,55,55,56,56,57,57,58,58,59,59,60,60,61,61,62,62],"right_children":[2,4,6,8,10,12,14,16,18,20,22,24,26,28,30,32,34,36,38,40,42,44,46,48,50,52,54,56,58,60,62,64,66,68,70,72,74,76,78,80,82,84,86,88,90,92,-1,94,96,98,100,102,104,106,108,110,112,114,116,118,120,122,124,-1,-1,-1,-1,-1,-1,-1,-1,-1,-1,-1,-1,-1,-1,-1,-1,-1,-1,-1,-1,-1,-1,-1,-1,-1,-1,-1,-1,-1,-1,-1,-1,-1,-1,-1,-1,-1,-1,-1,-1,-1,-1,-1,-1,-1,-1,-1,-1,-1,-1,-1,-1,-1,-1,-1,-1,-1,-1,-1,-1,-1,-1],"split_conditions":[5.5E0,3.5E0,6.6127753E-1,1.5E0,9.905845E-1,2.75E1,8.969165E-1,5E-1,2.7934E-1,9.905845E-1,5.396755E-1,3.1035948E-1,8.550025E-1,3.55E1,9.0989006E-1,3.7947E-1,5.029925E-2,1.12278506E-1,5.583875E-1,9.0054953E-1,1.7400101E-1,5.287785E-1,5.2E1,3.084005E-1,4.35E1,8.26434E-1,4.35E1,3.35E1,4.15E1,2.5E1,3.7E1,8.4993553E-1,1.5296751E-1,2.005E2,1.98E2,4.208595E-2,1.146295E-1,4.5E0,5.585475E-1,9.0054953E-1,9.3095195E-1,2.98809E-2,1.74218E-1,4.3756902E-1,1.55E1,5.40761E-1,-2.5742183E-2,3.0830097E-1,9.871795E-1,2.15E1,3.1368E-1,7.88954E-1,8.270995E-1,5.4486847E-1,3.55E1,5.08135E-1,4.25E1,5.15E1,4.25E1,9.05848E-1,4.75E1,3.05E1,4.15E1,-1.3395998E-2,-9.902352E-3,-1.3594371E-2,-1.4323421E-2,-1.3616353E-2,8.149707E-4,-1.3272814E-2,-5.8847372E-3,-1.3785156E-2,-1.3335277E-2,-1.1557393E-2,-1.3148688E-2,-1.4574649E-2,-1.3002641E-2,7.312206E-2,-1.2396495E-2,-1.3111442E-2,-1.6177593E-2,-1.667344E-2,-4.3410584E-3,-5.715455E-3,-1.3461704E-2,6.335345E-2,-1.1620195E-2,-1.2637141E-2,-1.0636283E-2,-1.928158E-2,-2.7660614E-2,8.510699E-2,-9.65569E-3,-1.2906807E-2,-1.240216E-3,-1.7805036E-2,-2.3535175E-2,-1.1480752E-2,-2.1236653E-2,7.1544476E-2,-3.099898E-3,-1.3190179E-2,-1.906204E-2,1.06816016E-1,-9.678954E-3,-1.5836751E-2,-2.963142E-2,-1.2365545E-2,-1.660055E-2,-1.2375431E-2,-9.076516E-3,4.4123378E-2,-6.4164596E-3,-3.039042E-2,-1.6644394E-2,3.2788136E-3,-1.480559E-2,-1.7261479E-2,8.170163E-3,3.8682494E-2,1.0893695E-3,-6.7238617E-3,8.882842E-3,-6.3918024E-2,-1.1967442E-2],"split_indices":[4,4,5,4,5,1,6,4,6,6,6,5,6,4,6,5,5,6,5,6,5,6,1,5,0,6,0,4,0,4,1,6,6,1,0,6,6,0,5,5,5,5,5,6,1,6,0,5,6,4,5,6,6,5,4,6,1,1,0,6,0,4,0,0,0,0,0,0,0,0,0,0,0,0,0,0,0,0,0,0,0,0,0,0,0,0,0,0,0,0,0,0,0,0,0,0,0,0,0,0,0,0,0,0,0,0,0,0,0,0,0,0,0,0,0,0,0,0,0,0,0,0,0,0,0],"split_type":[0,0,0,0,0,0,0,0,0,0,0,0,0,0,0,0,0,0,0,0,0,0,0,0,0,0,0,0,0,0,0,0,0,0,0,0,0,0,0,0,0,0,0,0,0,0,0,0,0,0,0,0,0,0,0,0,0,0,0,0,0,0,0,0,0,0,0,0,0,0,0,0,0,0,0,0,0,0,0,0,0,0,0,0,0,0,0,0,0,0,0,0,0,0,0,0,0,0,0,0,0,0,0,0,0,0,0,0,0,0,0,0,0,0,0,0,0,0,0,0,0,0,0,0,0],"sum_hessian":[2.099732E6,1.52145E6,5.78282E5,1.151562E6,3.69888E5,3.21252E5,2.5703E5,4.8336E5,6.68202E5,2.62587E5,1.07301E5,1.90779E5,1.30473E5,1.43331E5,1.13699E5,1.46284E5,3.37076E5,2.56362E5,4.1184E5,1.9762E5,6.4967E4,5.0566E4,5.6735E4,1.02079E5,8.87E4,1.22206E5,8.267E3,1.25649E5,1.7682E4,2.856E3,1.10843E5,1.35194E5,1.109E4,1.3257E4,3.23819E5,1.04353E5,1.52009E5,2.41891E5,1.69949E5,1.95899E5,1.721E3,1.719E4,4.7777E4,5.0002E4,5.64E2,5.6611E4,1.24E2,1.01574E5,5.05E2,8.5215E4,3.485E3,1.2143E5,7.76E2,7.56E2,7.511E3,1.24773E5,8.76E2,1.013E3,1.6669E4,1.186E3,1.67E3,9.3354E4,1.7489E4,1.35056E5,1.38E2,7.841E3,3.249E3,1.3244E4,1.3E1,3.23728E5,9.1E1,1.0939E4,9.3414E4,3.007E3,1.49002E5,5.351E3,2.3654E5,5E0,1.69944E5,1.94374E5,1.525E3,1.536E3,1.85E2,1.77E2,1.7013E4,1.4E1,4.7763E4,4.0429E4,9.573E3,4.89E2,7.5E1,1E0,5.661E4,1.01351E5,2.23E2,3.56E2,1.49E2,8.3989E4,1.226E3,7.8E1,3.407E3,1.2003E5,1.4E3,8.1E1,6.95E2,1.46E2,6.1E2,2.167E3,5.344E3,7.2203E4,5.257E4,3.42E2,5.34E2,4.03E2,6.1E2,3.54E2,1.6315E4,8.37E2,3.49E2,1.066E3,6.04E2,8.9467E4,3.887E3,8.88E2,1.6601E4],"tree_param":{"num_deleted":"0","num_feature":"8","num_nodes":"125","size_leaf_vector":"0"}},{"base_weights":[-3.6722615E-2,-5.2864887E-2,2.769193E-1,-5.7821542E-2,5.6436237E-2,1.08766995E-1,5.379037E-1,-5.9109498E-2,-3.2236967E-2,-4.327349E-2,2.5596008E-1,3.390482E-2,4.0076575E-1,2.1817963E-1,5.679427E-1,-5.9420493E-2,-4.5763887E-2,-4.791623E-2,1.5901144E-1,-5.850442E-2,4.912228E-2,1.752686E-1,3.1952703E-1,-4.6886478E-2,1.1994928E-1,3.115308E-1,5.612948E-1,8.142251E-2,2.6928622E-1,5.296628E-1,7.7454007E-1,-5.8104247E-2,-6.398336E-2,-5.8912527E-2,1.0153005E-1,-5.0481882E-2,3.470629E-2,1.2538815E-1,2.9754716E-1,-6.316092E-2,-2.5990842E-2,-1.1585998E-2,1.3422467E-1,1.6519323E-1,5.7640773E-1,2.3648725E-1,3.535359E-1,-9.59703E-2,-2.702012E-2,1.00860745E-1,3.7240577E-1,1.8473256E-1,3.592391E-1,2.4982566E-1,6.2577033E-1,1.7073055E-1,2.1655643E-2,2.1564111E-1,3.185772E-1,4.5451227E-1,6.0846615E-1,4.9652803E-1,7.8331137E-1,-5.632069E-2,-5.8649737E-2,-6.0132876E-2,-6.902317E-2,-6.1286487E-2,-5.571617E-3,8.023702E-2,6.6084105E-1,-5.2986834E-2,-3.0517772E-2,-1.4546282E-3,7.328365E-2,1.6927743E-1,8.531155E-2,2.6638132E-1,8.0032283E-1,-6.9133885E-2,-5.5987682E-2,-4.9176015E-2,2.0137375E-2,-3.8244665E-2,7.26609E-2,9.106317E-2,1.6209108E-1,1.01091705E-1,2.1598852E-1,7.387196E-1,8.702472E-3,2.0213692E-1,3.216307E-1,3.1248924E-1,4.1449836E-1,-5.8556676E-2,-1.312163E-1,-1.2295509E-2,-6.591264E-2,1.8315713E-1,6.9478895E-3,1.4775996E-1,5.069284E-1,2.6118103E-1,9.8767675E-2,3.1072837E-1,4.7283173E-1,-4.49812E-2,3.2536197E-1,4.650996E-1,7.042516E-1,1.0185316E-1,2.2996902E-1,-4.4414774E-2,4.4440933E-2,1.9745544E-1,4.032401E-1,3.577232E-1,2.596985E-1,3.8259044E-1,5.218595E-1,5.636887E-1,7.024597E-1,3.7847278E-1,8.6628294E-1,5.6969386E-1,7.93397E-1],"categories":[],"categories_nodes":[],"categories_segments":[],"categories_sizes":[],"default_left":[true,true,true,true,true,true,true,true,true,true,true,true,true,true,true,true,true,true,true,true,true,true,true,true,true,true,true,true,true,true,true,true,true,true,true,true,true,true,true,true,true,true,true,true,true,true,true,true,true,true,true,true,true,true,true,true,true,true,true,true,true,true,true,false,false,false,false,false,false,false,false,false,false,false,false,false,false,false,false,false,false,false,false,false,false,false,false,false,false,false,false,false,false,false,false,false,false,false,false,false,false,false,false,false,false,false,false,false,false,false,false,false,false,false,false,false,false,false,false,false,false,false,false,false,false,false,false],"id":10,"left_children":[1,3,5,7,9,11,13,15,17,19,21,23,25,27,29,31,33,35,37,39,41,43,45,47,49,51,53,55,57,59,61,63,65,67,69,71,73,75,77,79,81,83,85,87,89,91,93,95,97,99,101,103,105,107,109,111,113,115,117,119,121,123,125,-1,-1,-1,-1,-1,-1,-1,-1,-1,-1,-1,-1,-1,-1,-1,-1,-1,-1,-1,-1,-1,-1,-1,-1,-1,-1,-1,-1,-1,-1,-1,-1,-1,-1,-1,-1,-1,-1,-1,-1,-1,-1,-1,-1,-1,-1,-1,-1,-1,-1,-1,-1,-1,-1,-1,-1,-1,-1,-1,-1,-1,-1,-1,-1],"loss_changes":[3.511743E5,3.5738938E4,1.489965E5,2.0794375E3,5.6932945E4,4.5135812E4,1.27768125E4,2.4935938E2,9.069505E3,2.6853132E3,4.891168E3,1.142472E4,6.0355234E3,7.98542E2,9.617094E3,3.52625E2,2.6498076E3,5.925659E2,1.0674658E3,2.4801025E2,1.395126E3,1.6981738E3,1.5062539E3,8.265083E2,3.8352021E3,1.6381582E3,3.0229297E3,1.659122E2,2.1986133E2,6.0757812E3,4.631797E2,4.43125E1,2.5508203E2,1.5905469E2,1.3353153E3,1.3558252E2,1.1744455E2,3.243645E2,7.011196E2,6.138965E1,2.194808E2,3.539762E2,1.3521106E2,1.3346387E3,9.4862915E2,4.5320898E2,9.467656E2,3.220354E2,3.4554517E2,5.718532E3,1.6905801E3,4.8655005E2,1.0841641E3,5.749684E2,1.5723203E3,5.0823914E1,2.8037663E1,1.3580847E2,9.980957E1,2.5436016E3,2.1074531E3,2.535929E2,3.9658594E2,0E0,0E0,0E0,0E0,0E0,0E0,0E0,0E0,0E0,0E0,0E0,0E0,0E0,0E0,0E0,0E0,0E0,0E0,0E0,0E0,0E0,0E0,0E0,0E0,0E0,0E0,0E0,0E0,0E0,0E0,0E0,0E0,0E0,0E0,0E0,0E0,0E0,0E0,0E0,0E0,0E0,0E0,0E0,0E0,0E0,0E0,0E0,0E0,0E0,0E0,0E0,0E0,0E0,0E0,0E0,0E0,0E0,0E0,0E0,0E0,0E0,0E0,0E0,0E0],"parents":[2147483647,0,0,1,1,2,2,3,3,4,4,5,5,6,6,7,7,8,8,9,9,10,10,11,11,12,12,13,13,14,14,15,15,16,16,17,17,18,18,19,19,20,20,21,21,22,22,23,23,24,24,25,25,26,26,27,27,28,28,29,29,30,30,31,31,32,32,33,33,34,34,35,35,36,36,37,37,38,38,39,39,40,40,41,41,42,42,43,43,44,44,45,45,46,46,47,47,48,48,49,49,50,50,51,51,52,52,53,53,54,54,55,55,56,56,57,57,58,58,59,59,60,60,61,61,62,62],"right_children":[2,4,6,8,10,12,14,16,18,20,22,24,26,28,30,32,34,36,38,40,42,44,46,48,50,52,54,56,58,60,62,64,66,68,70,72,74,76,78,80,82,84,86,88,90,92,94,96,98,100,102,104,106,108,110,112,114,116,118,120,122,124,126,-1,-1,-1,-1,-1,-1,-1,-1,-1,-1,-1,-1,-1,-1,-1,-1,-1,-1,-1,-1,-1,-1,-1,-1,-1,-1,-1,-1,-1,-1,-1,-1,-1,-1,-1,-1,-1,-1,-1,-1,-1,-1,-1,-1,-1,-1,-1,-1,-1,-1,-1,-1,-1,-1,-1,-1,-1,-1,-1,-1,-1,-1,-1,-1],"split_conditions":[5.45E1,7.334915E-1,7.8701997E-1,2.65E1,1.55E1,7.8715146E-1,5.90273E-1,8.0997753E-1,6.02508E-1,9.5E0,8.268655E-1,4.464575E-1,2.075E2,4.462965E-1,3.495E2,2.38897E-1,1.25E1,5.33753E-1,9.0985847E-1,7.1474147E-1,7.586155E-1,5.625E2,2.55E1,6.0951352E-2,4.595E2,5.714115E-1,5.865425E-1,1.495E2,8.73325E-1,9.066545E-1,3.815E2,5E-1,2.2898051E-1,9.5E0,5.625E2,3.164025E-1,4.205225E-1,6.65E1,5.6E2,2.85E1,8.5E0,9.0933204E-1,8.69475E-1,2.75E1,9.9477544E-2,9.619885E-1,9.369095E-1,7.55E1,6.295E2,3.085E2,5.928455E-1,3.55E2,9.08371E-1,4.777215E-1,4.225E2,2.695E2,8.050725E-1,3.165E2,5.495E2,8.299685E-1,1.805E2,9.824285E-1,3.815E2,-1.1264138E-2,-1.1729947E-2,-1.2026575E-2,-1.3804634E-2,-1.22572975E-2,-1.1143234E-3,1.6047405E-2,1.3216822E-1,-1.0597367E-2,-6.1035543E-3,-2.9092564E-4,1.465673E-2,3.3855487E-2,1.706231E-2,5.3276267E-2,1.6006456E-1,-1.3826777E-2,-1.1197536E-2,-9.835203E-3,4.027475E-3,-7.648933E-3,1.45321805E-2,1.8212635E-2,3.2418218E-2,2.021834E-2,4.3197703E-2,1.4774393E-1,1.7404944E-3,4.0427383E-2,6.432614E-2,6.249785E-2,8.2899675E-2,-1.1711336E-2,-2.624326E-2,-2.4591018E-3,-1.3182528E-2,3.6631428E-2,1.3895779E-3,2.9551992E-2,1.01385675E-1,5.2236207E-2,1.9753536E-2,6.2145676E-2,9.4566345E-2,-8.99624E-3,6.5072395E-2,9.3019925E-2,1.4085032E-1,2.0370632E-2,4.5993805E-2,-8.882955E-3,8.888187E-3,3.9491087E-2,8.064803E-2,7.154464E-2,5.1939704E-2,7.651809E-2,1.04371905E-1,1.1273774E-1,1.4049195E-1,7.569455E-2,1.7325659E-1,1.1393877E-1,1.5867941E-1],"split_indices":[4,5,5,4,4,6,6,6,6,4,6,5,4,6,4,5,4,5,6,6,6,1,4,6,4,5,5,0,5,5,1,4,6,4,0,6,6,0,0,1,0,5,5,4,6,5,5,4,0,1,5,0,6,5,0,1,5,4,1,6,4,6,0,0,0,0,0,0,0,0,0,0,0,0,0,0,0,0,0,0,0,0,0,0,0,0,0,0,0,0,0,0,0,0,0,0,0,0,0,0,0,0,0,0,0,0,0,0,0,0,0,0,0,0,0,0,0,0,0,0,0,0,0,0,0,0,0],"split_type":[0,0,0,0,0,0,0,0,0,0,0,0,0,0,0,0,0,0,0,0,0,0,0,0,0,0,0,0,0,0,0,0,0,0,0,0,0,0,0,0,0,0,0,0,0,0,0,0,0,0,0,0,0,0,0,0,0,0,0,0,0,0,0,0,0,0,0,0,0,0,0,0,0,0,0,0,0,0,0,0,0,0,0,0,0,0,0,0,0,0,0,0,0,0,0,0,0,0,0,0,0,0,0,0,0,0,0,0,0,0,0,0,0,0,0,0,0,0,0,0,0,0,0,0,0,0,0],"sum_hessian":[6.9362376E7,6.596723E7,3.395148E6,6.3105484E7,2.861746E6,2.064799E6,1.330349E6,6.0080944E7,3.024542E6,1.908164E6,9.53582E5,1.643454E6,4.21345E5,1.14256E5,1.216093E6,5.8712748E7,1.368193E6,2.795368E6,2.29174E5,1.638128E6,2.70036E5,4.20194E5,5.33388E5,8.47601E5,7.95853E5,2.7081E5,1.50535E5,3.1083E4,8.3173E4,1.025993E6,1.901E5,4.556784E7,1.3144908E7,1.256067E6,1.12126E5,2.711179E6,8.4189E4,1.84417E5,4.4757E4,1.43291E6,2.05218E5,1.57607E5,1.12429E5,4.099E5,1.0294E4,1.5498E5,3.78408E5,2.44215E5,6.03386E5,7.39909E5,5.5944E4,7.4038E4,1.96772E5,2.5818E4,1.24717E5,1.2461E4,1.8622E4,3.983E4,4.3343E4,5.25172E5,5.00821E5,5.816E3,1.84284E5,1.0672558E7,3.4895284E7,7.45171E6,5.693198E6,1.202547E6,5.352E4,1.08015E5,4.111E3,2.408923E6,3.02256E5,4.3456E4,4.0733E4,8.802E4,9.6397E4,4.2146E4,2.611E3,7.81864E5,6.51046E5,1.36573E5,6.8645E4,1.19723E5,3.7884E4,4.4111E4,6.8318E4,1.81216E5,2.28684E5,8.005E3,2.289E3,1.10431E5,4.4549E4,2.26147E5,1.52261E5,1.18466E5,1.25749E5,4.37682E5,1.65704E5,3.94343E5,3.45566E5,2.0954E4,3.499E4,3.9187E4,3.4851E4,1.37889E5,5.8883E4,5.266E3,2.0552E4,4.093E4,8.3787E4,5.763E3,6.698E3,4.775E3,1.3847E4,3.6312E4,3.518E3,2.6031E4,1.7312E4,2.53964E5,2.71208E5,3.39225E5,1.61596E5,4.41E3,1.406E3,8.311E3,1.75973E5],"tree_param":{"num_deleted":"0","num_feature":"8","num_nodes":"127","size_leaf_vector":"0"}},{"base_weights":[-2.9378053E-2,-4.252307E-2,2.1719001E-1,-4.6346746E-2,4.2670902E-2,7.3842406E-2,4.154121E-1,-4.7412034E-2,-2.8328165E-2,-3.4770984E-2,2.0321587E-1,2.1351043E-2,3.113674E-1,2.8002325E-1,4.7363585E-1,-4.6420537E-2,-5.059004E-2,-3.909493E-2,1.24388985E-1,-4.679457E-2,3.8167994E-2,1.3860977E-1,2.544384E-1,-3.883027E-2,9.2555314E-2,2.6963627E-1,5.7454234E-1,2.4076647E-1,5.637724E-1,4.4279042E-1,6.0873055E-1,-4.4999752E-2,-4.6855118E-2,-5.180143E-2,-3.232887E-2,-4.1489977E-2,1.1028479E-2,9.085023E-2,2.5212225E-1,-5.0596565E-2,-2.024749E-2,-1.8648157E-2,1.0118315E-1,1.2969859E-1,4.8757896E-1,2.17413E-1,3.0975917E-1,-8.406636E-2,-2.5282176E-2,7.5300634E-2,2.923397E-1,1.8684174E-1,3.532058E-1,1.9508827E-1,5.9316117E-1,1.4228013E-1,3.2175726E-1,1.8097807E-1,5.8368444E-1,3.859401E-1,4.9398804E-1,5.1328343E-1,6.3833237E-1,-4.5009334E-2,-2.2118075E-2,-4.639653E-2,-4.8033964E-2,-4.7980025E-2,-5.5213075E-2,-3.8262676E-2,8.711182E-2,-4.310836E-2,-2.8835054E-2,-8.728019E-3,5.2022815E-2,4.6992254E-2,1.2183677E-1,2.146322E-1,5.8850294E-1,-5.6171417E-2,-4.3901455E-2,-3.7131578E-2,3.0723915E-2,-3.354378E-2,9.062831E-2,5.776746E-2,1.3108866E-1,9.719645E-2,1.8864428E-1,6.2893575E-1,-3.2476448E-2,1.5502834E-1,2.4457945E-1,2.5863838E-1,3.607836E-1,-4.8628096E-2,-1.2106755E-1,-1.3706601E-2,-5.7962406E-2,1.4219424E-1,-1.6079197E-2,8.6602576E-2,4.1228288E-1,2.3296611E-1,9.961621E-2,2.3902394E-1,4.1192308E-1,-7.114436E-2,2.790297E-1,5.0346243E-1,6.318627E-1,2.1235137E-1,2.233323E-2,2.6259506E-1,4.4804546E-1,-1.1915822E-1,2.8677186E-1,1.9071552E-1,5.959686E-1,4.1024405E-1,2.8739905E-1,4.838931E-1,7.486226E-1,3.6521733E-1,6.1586344E-1,6.401034E-1,-2.135642E-1],"categories":[],"categories_nodes":[],"categories_segments":[],"categories_sizes":[],"default_left":[true,true,true,true,true,true,true,true,true,true,true,true,true,true,true,true,true,true,true,true,true,true,true,true,true,true,true,true,true,true,true,true,true,true,true,true,true,true,true,true,true,true,true,true,true,true,true,true,true,true,true,true,true,true,true,true,true,true,true,true,true,true,true,false,false,false,false,false,false,false,false,false,false,false,false,false,false,false,false,false,false,false,false,false,false,false,false,false,false,false,false,false,false,false,false,false,false,false,false,false,false,false,false,false,false,false,false,false,false,false,false,false,false,false,false,false,false,false,false,false,false,false,false,false,false,false,false],"id":11,"left_children":[1,3,5,7,9,11,13,15,17,19,21,23,25,27,29,31,33,35,37,39,41,43,45,47,49,51,53,55,57,59,61,63,65,67,69,71,73,75,77,79,81,83,85,87,89,91,93,95,97,99,101,103,105,107,109,111,113,115,117,119,121,123,125,-1,-1,-1,-1,-1,-1,-1,-1,-1,-1,-1,-1,-1,-1,-1,-1,-1,-1,-1,-1,-1,-1,-1,-1,-1,-1,-1,-1,-1,-1,-1,-1,-1,-1,-1,-1,-1,-1,-1,-1,-1,-1,-1,-1,-1,-1,-1,-1,-1,-1,-1,-1,-1,-1,-1,-1,-1,-1,-1,-1,-1,-1,-1,-1],"loss_changes":[2.2481328E5,2.1451477E4,9.9754766E4,1.2097188E3,3.516776E4,2.5401621E4,1.1613984E4,1.875E2,5.7846064E3,1.67344E3,3.045961E3,7.1502197E3,4.0496523E3,4.935246E3,4.292922E3,2.8E1,3.1301953E2,3.9451953E2,9.9254956E2,1.6533838E2,9.668096E2,1.2657344E3,1.0515039E3,5.5420654E2,2.6346948E3,2.2021523E3,3.564414E2,3.1045781E3,4.1033594E2,2.441125E3,5.407578E2,2.328125E0,1.8773438E1,1.73E2,6.238946E2,6.423535E1,1.2138167E2,2.493855E2,6.0750635E2,5.3479736E1,1.766138E2,2.311488E2,1.6622778E2,7.604082E2,7.450786E2,5.212002E2,5.3681836E2,2.7327856E2,2.6324612E2,4.3005625E3,1.499374E3,6.432261E2,1.0618711E3,5.280571E1,1.666836E2,1.4762358E3,1.5956504E3,8.4622986E1,2.469707E2,9.517383E2,1.1340625E3,6.884121E2,2.2067578E2,0E0,0E0,0E0,0E0,0E0,0E0,0E0,0E0,0E0,0E0,0E0,0E0,0E0,0E0,0E0,0E0,0E0,0E0,0E0,0E0,0E0,0E0,0E0,0E0,0E0,0E0,0E0,0E0,0E0,0E0,0E0,0E0,0E0,0E0,0E0,0E0,0E0,0E0,0E0,0E0,0E0,0E0,0E0,0E0,0E0,0E0,0E0,0E0,0E0,0E0,0E0,0E0,0E0,0E0,0E0,0E0,0E0,0E0,0E0,0E0,0E0,0E0,0E0,0E0],"parents":[2147483647,0,0,1,1,2,2,3,3,4,4,5,5,6,6,7,7,8,8,9,9,10,10,11,11,12,12,13,13,14,14,15,15,16,16,17,17,18,18,19,19,20,20,21,21,22,22,23,23,24,24,25,25,26,26,27,27,28,28,29,29,30,30,31,31,32,32,33,33,34,34,35,35,36,36,37,37,38,38,39,39,40,40,41,41,42,42,43,43,44,44,45,45,46,46,47,47,48,48,49,49,50,50,51,51,52,52,53,53,54,54,55,55,56,56,57,57,58,58,59,59,60,60,61,61,62,62],"right_children":[2,4,6,8,10,12,14,16,18,20,22,24,26,28,30,32,34,36,38,40,42,44,46,48,50,52,54,56,58,60,62,64,66,68,70,72,74,76,78,80,82,84,86,88,90,92,94,96,98,100,102,104,106,108,110,112,114,116,118,120,122,124,126,-1,-1,-1,-1,-1,-1,-1,-1,-1,-1,-1,-1,-1,-1,-1,-1,-1,-1,-1,-1,-1,-1,-1,-1,-1,-1,-1,-1,-1,-1,-1,-1,-1,-1,-1,-1,-1,-1,-1,-1,-1,-1,-1,-1,-1,-1,-1,-1,-1,-1,-1,-1,-1,-1,-1,-1,-1,-1,-1,-1,-1,-1,-1,-1],"split_conditions":[5.25E1,7.334915E-1,7.6637745E-1,2.45E1,1.55E1,7.9195E-1,7.6539147E-1,2.32265E-1,6.25211E-1,9.5E0,8.268655E-1,4.464575E-1,3.135E2,3.155E2,3.815E2,5E-1,5.45E1,4.85126E-1,9.098445E-1,7.1474147E-1,7.06272E-1,5.625E2,9.369095E-1,5.1644653E-2,4.425E2,8.76671E-1,5.5092204E-1,8.461705E-1,5.5092204E-1,9.0700305E-1,3.855E2,7.44993E-1,1.9564599E-1,1.923765E-1,8.70065E-1,3.164025E-1,3.65E1,5.453445E-1,3.765E2,2.85E1,9.5E0,9.58114E-1,8.69475E-1,3.45E1,9.9477544E-2,2.55E1,3.15E1,7.55E1,6.295E2,3.395E2,5.928455E-1,3.395E2,5.92983E-1,4.777215E-1,3.595E2,3.415E2,2.035E2,4.777215E-1,7.73472E-1,2.835E2,9.9928045E-1,8.698775E-1,4.78E2,-9.001867E-3,-4.423615E-3,-9.279306E-3,-9.606793E-3,-9.596005E-3,-1.1042615E-2,-7.6525356E-3,1.7422365E-2,-8.621672E-3,-5.767011E-3,-1.7456039E-3,1.04045635E-2,9.398451E-3,2.4367353E-2,4.2926442E-2,1.1770059E-1,-1.1234283E-2,-8.780291E-3,-7.4263155E-3,6.144783E-3,-6.708756E-3,1.8125663E-2,1.15534915E-2,2.6217733E-2,1.9439291E-2,3.7728857E-2,1.2578715E-1,-6.4952895E-3,3.100567E-2,4.891589E-2,5.172768E-2,7.215672E-2,-9.725619E-3,-2.421351E-2,-2.7413203E-3,-1.1592481E-2,2.843885E-2,-3.2158394E-3,1.7320516E-2,8.245658E-2,4.6593223E-2,1.9923242E-2,4.7804788E-2,8.2384616E-2,-1.4228872E-2,5.580594E-2,1.0069249E-1,1.2637255E-1,4.2470273E-2,4.4666464E-3,5.2519012E-2,8.9609094E-2,-2.3831645E-2,5.7354372E-2,3.8143106E-2,1.19193725E-1,8.204881E-2,5.747981E-2,9.6778624E-2,1.4972453E-1,7.3043466E-2,1.2317269E-1,1.2802069E-1,-4.271284E-2],"split_indices":[4,6,5,4,4,6,6,6,5,4,5,6,4,4,0,4,1,6,5,5,5,0,6,5,4,6,5,5,6,5,1,5,5,5,5,5,4,6,1,0,1,6,6,4,5,4,4,4,1,0,6,0,5,5,4,1,4,6,5,0,6,6,1,0,0,0,0,0,0,0,0,0,0,0,0,0,0,0,0,0,0,0,0,0,0,0,0,0,0,0,0,0,0,0,0,0,0,0,0,0,0,0,0,0,0,0,0,0,0,0,0,0,0,0,0,0,0,0,0,0,0,0,0,0,0,0,0],"split_type":[0,0,0,0,0,0,0,0,0,0,0,0,0,0,0,0,0,0,0,0,0,0,0,0,0,0,0,0,0,0,0,0,0,0,0,0,0,0,0,0,0,0,0,0,0,0,0,0,0,0,0,0,0,0,0,0,0,0,0,0,0,0,0,0,0,0,0,0,0,0,0,0,0,0,0,0,0,0,0,0,0,0,0,0,0,0,0,0,0,0,0,0,0,0,0,0,0,0,0,0,0,0,0,0,0,0,0,0,0,0,0,0,0,0,0,0,0,0,0,0,0,0,0,0,0,0,0],"sum_hessian":[6.9362376E7,6.5851696E7,3.51068E6,6.3023096E7,2.828602E6,2.037343E6,1.473337E6,5.950506E7,3.518036E6,1.908164E6,9.20438E5,1.668596E6,3.68747E5,4.43068E5,1.030269E6,4.5354932E7,1.4150129E7,3.286345E6,2.31691E5,1.638128E6,2.70036E5,4.07044E5,5.13394E5,9.04294E5,7.64302E5,3.1828E5,5.0467E4,3.89221E5,5.3847E4,8.38763E5,1.91506E5,1.0623411E7,3.473152E7,1.3269845E7,8.80284E5,3.136475E6,1.4987E5,1.83509E5,4.8182E4,1.43291E6,2.05218E5,1.42003E5,1.28033E5,3.9691E5,1.0134E4,3.07556E5,2.05838E5,2.08413E5,6.95881E5,7.03541E5,6.0761E4,1.59883E5,1.58397E5,2.361E3,4.8106E4,1.75641E5,2.1358E5,2.663E3,5.1184E4,3.97445E5,4.41318E5,4.5338E4,1.46168E5,1.0618963E7,4.448E3,2.5004536E7,9.726985E6,6.259055E6,7.01079E6,8.38622E5,4.1662E4,2.780843E6,3.55632E5,1.01132E5,4.8738E4,7.5976E4,1.07533E5,4.3352E4,4.83E3,7.81864E5,6.51046E5,1.54155E5,5.1063E4,1.24969E5,1.7034E4,5.2222E4,7.5811E4,2.55843E5,1.41067E5,7.968E3,2.166E3,9.3303E4,2.14253E5,1.02825E5,1.03013E5,1.06456E5,1.01957E5,5.13867E5,1.82014E5,4.06192E5,2.97349E5,2.2378E4,3.8383E4,1.0458E5,5.5303E4,5.3794E4,1.04603E5,5.66E2,1.795E3,1.4504E4,3.3602E4,1.10871E5,6.477E4,1.45446E5,6.8134E4,6.94E2,1.969E3,1.552E3,4.9632E4,3.18811E5,7.8634E4,4.24492E5,1.6826E4,1.8557E4,2.6781E4,1.45865E5,3.03E2],"tree_param":{"num_deleted":"0","num_feature":"8","num_nodes":"127","size_leaf_vector":"0"}},{"base_weights":[-2.3502411E-2,-3.367213E-2,1.8089443E-1,-3.7133962E-2,3.7920084E-2,6.3737296E-2,3.363783E-1,-3.777979E-2,-1.7552499E-2,-2.9939726E-2,1.6266525E-1,2.4596998E-2,2.7911004E-1,1.1355954E-1,3.6020598E-1,-3.801843E-2,-2.6187735E-2,-2.9236302E-2,1.0230195E-1,-3.6871266E-2,3.4242313E-2,1.297027E-1,2.3460372E-1,-3.132075E-2,8.094864E-2,1.9812167E-1,4.003913E-1,1.396885E-2,1.5775964E-1,3.317231E-1,4.8786193E-1,-3.7172753E-2,-4.0985838E-2,-3.635321E-2,1.0287074E-1,-3.11824E-2,2.4390241E-2,1.205709E-1,9.513579E-3,-4.039402E-2,-6.4629335E-3,-1.0152238E-2,8.345299E-2,1.0287648E-1,1.9131829E-1,1.856189E-1,2.7975294E-1,-8.390855E-2,-2.1437682E-2,-5.695996E-4,1.0786779E-1,1.4234892E-1,2.4779408E-1,1.8513733E-1,4.4828308E-1,1.01709E-1,-2.5303084E-2,1.08142756E-1,2.173378E-1,2.7145427E-1,4.0061858E-1,3.995691E-1,5.118034E-1,-3.659591E-2,-3.787905E-2,-4.2122763E-2,-2.7317507E-2,-3.93371E-2,1.9138904E-3,7.300003E-2,4.3510154E-1,-3.4441937E-2,-1.8665234E-2,4.2444323E-3,4.5920983E-2,1.0217175E-1,1.9711915E-1,6.0162865E-2,-3.100203E-3,-4.734232E-2,-3.5797056E-2,-3.6741536E-2,3.512452E-2,-2.3385579E-2,1.0816979E-1,4.998206E-2,1.0968985E-1,3.261671E-2,1.326646E-1,1.817741E-1,5.4683006E-1,1.3405252E-1,2.0268954E-1,2.459567E-1,3.6853758E-1,-3.833209E-2,-1.17461786E-1,-4.6324052E-2,-9.918928E-3,6.45768E-2,-4.495815E-2,9.125317E-2,2.932496E-1,2.01234E-1,4.7296602E-2,1.5948112E-1,2.8360194E-1,-1.7120567E-1,2.3220204E-1,2.9210958E-1,5.010567E-1,1.5369831E-2,1.7481977E-1,-2.9149788E-2,1.647881E-1,1.7197436E-1,4.906124E-2,2.5923815E-1,1.5603407E-1,2.2596496E-1,3.2276738E-1,3.6090785E-1,4.8011422E-1,2.6647186E-1,5.1345986E-1,5.235316E-1,4.0434584E-1],"categories":[],"categories_nodes":[],"categories_segments":[],"categories_sizes":[],"default_left":[true,true,true,true,true,true,true,true,true,true,true,true,true,true,true,true,true,true,true,true,true,true,true,true,true,true,true,true,true,true,true,true,true,true,true,true,true,true,true,true,true,true,true,true,true,true,true,true,true,true,true,true,true,true,true,true,true,true,true,true,true,true,true,false,false,false,false,false,false,false,false,false,false,false,false,false,false,false,false,false,false,false,false,false,false,false,false,false,false,false,false,false,false,false,false,false,false,false,false,false,false,false,false,false,false,false,false,false,false,false,false,false,false,false,false,false,false,false,false,false,false,false,false,false,false,false,false],"id":12,"left_children":[1,3,5,7,9,11,13,15,17,19,21,23,25,27,29,31,33,35,37,39,41,43,45,47,49,51,53,55,57,59,61,63,65,67,69,71,73,75,77,79,81,83,85,87,89,91,93,95,97,99,101,103,105,107,109,111,113,115,117,119,121,123,125,-1,-1,-1,-1,-1,-1,-1,-1,-1,-1,-1,-1,-1,-1,-1,-1,-1,-1,-1,-1,-1,-1,-1,-1,-1,-1,-1,-1,-1,-1,-1,-1,-1,-1,-1,-1,-1,-1,-1,-1,-1,-1,-1,-1,-1,-1,-1,-1,-1,-1,-1,-1,-1,-1,-1,-1,-1,-1,-1,-1,-1,-1,-1,-1],"loss_changes":[1.441807E5,1.6376008E4,5.9885953E4,7.970547E2,2.5799098E4,1.5804473E4,7.500297E3,1.6878906E2,2.8180256E3,8.781493E2,2.5461855E3,4.9992275E3,2.8319375E3,6.007584E2,4.640172E3,1.5002344E2,1.6146963E3,1.913617E2,3.030011E2,1.908357E2,4.203322E2,1.2171357E3,7.4616406E2,4.138728E2,1.7340073E3,4.789087E2,1.1900059E3,1.4456108E2,2.7940015E2,4.332414E3,4.9191406E2,1.8953125E1,2.0604492E2,1.3027368E2,8.9178577E2,7.219141E1,2.7852028E1,2.1031787E2,1.8786423E1,5.0993652E1,2.3290227E2,1.5838277E2,8.012775E1,1.07369E3,7.5776025E2,1.424292E2,5.267363E2,1.9265045E2,1.921615E2,5.672609E2,1.829625E3,4.558346E2,2.8911572E2,3.5243573E2,7.7814453E2,8.188077E1,2.1197144E1,1.9449847E2,1.1028296E2,1.2990352E3,1.5367656E3,7.52728E2,2.3060156E2,0E0,0E0,0E0,0E0,0E0,0E0,0E0,0E0,0E0,0E0,0E0,0E0,0E0,0E0,0E0,0E0,0E0,0E0,0E0,0E0,0E0,0E0,0E0,0E0,0E0,0E0,0E0,0E0,0E0,0E0,0E0,0E0,0E0,0E0,0E0,0E0,0E0,0E0,0E0,0E0,0E0,0E0,0E0,0E0,0E0,0E0,0E0,0E0,0E0,0E0,0E0,0E0,0E0,0E0,0E0,0E0,0E0,0E0,0E0,0E0,0E0,0E0,0E0,0E0],"parents":[2147483647,0,0,1,1,2,2,3,3,4,4,5,5,6,6,7,7,8,8,9,9,10,10,11,11,12,12,13,13,14,14,15,15,16,16,17,17,18,18,19,19,20,20,21,21,22,22,23,23,24,24,25,25,26,26,27,27,28,28,29,29,30,30,31,31,32,32,33,33,34,34,35,35,36,36,37,37,38,38,39,39,40,40,41,41,42,42,43,43,44,44,45,45,46,46,47,47,48,48,49,49,50,50,51,51,52,52,53,53,54,54,55,55,56,56,57,57,58,58,59,59,60,60,61,61,62,62],"right_children":[2,4,6,8,10,12,14,16,18,20,22,24,26,28,30,32,34,36,38,40,42,44,46,48,50,52,54,56,58,60,62,64,66,68,70,72,74,76,78,80,82,84,86,88,90,92,94,96,98,100,102,104,106,108,110,112,114,116,118,120,122,124,126,-1,-1,-1,-1,-1,-1,-1,-1,-1,-1,-1,-1,-1,-1,-1,-1,-1,-1,-1,-1,-1,-1,-1,-1,-1,-1,-1,-1,-1,-1,-1,-1,-1,-1,-1,-1,-1,-1,-1,-1,-1,-1,-1,-1,-1,-1,-1,-1,-1,-1,-1,-1,-1,-1,-1,-1,-1,-1,-1,-1,-1,-1,-1,-1],"split_conditions":[5.65E1,7.1457696E-1,7.6637745E-1,3.15E1,1.45E1,8.22784E-1,5.90273E-1,8.3343804E-1,5.6298053E-1,1.05E1,9.158375E-1,4.464575E-1,2.075E2,4.462965E-1,3.815E2,2.41231E-1,1.45E1,4.868595E-1,6.65E1,8.001325E-1,6.959195E-1,9.098885E-1,3.15E1,4.0664002E-2,5.396435E-1,8.84561E-1,5.928455E-1,1.495E2,8.726985E-1,9.066545E-1,3.855E2,3.5E0,1.95E1,8.5E0,3.775E2,2.254855E-1,3.95E1,9.1200304E-1,6.65E1,9.05084E-1,7.5E0,9.58866E-1,8.69475E-1,6.309705E-1,5.6E2,1.85E1,9.7566354E-1,7.55E1,8.061015E-2,4.335E2,4.425E2,2.835E2,5.712605E-1,4.777215E-1,4.215E2,2.695E2,4.005E2,3.185E2,5.495E2,8.319165E-1,1.805E2,8.698775E-1,4.425E2,-7.319182E-3,-7.57581E-3,-8.424553E-3,-5.4635014E-3,-7.86742E-3,3.827781E-4,1.4600006E-2,8.702031E-2,-6.8883873E-3,-3.7330468E-3,8.488865E-4,9.184197E-3,2.043435E-2,3.942383E-2,1.2032573E-2,-6.200406E-4,-9.468464E-3,-7.1594114E-3,-7.3483074E-3,7.0249042E-3,-4.677116E-3,2.1633958E-2,9.996412E-3,2.193797E-2,6.523342E-3,2.6532922E-2,3.635482E-2,1.09366015E-1,2.6810503E-2,4.053791E-2,4.919134E-2,7.370751E-2,-7.666418E-3,-2.3492357E-2,-9.264811E-3,-1.9837858E-3,1.291536E-2,-8.99163E-3,1.8250635E-2,5.8649924E-2,4.02468E-2,9.45932E-3,3.1896226E-2,5.6720387E-2,-3.4241136E-2,4.6440408E-2,5.8421917E-2,1.0021134E-1,3.0739661E-3,3.4963954E-2,-5.829958E-3,3.295762E-2,3.439487E-2,9.812248E-3,5.1847633E-2,3.1206815E-2,4.5192994E-2,6.455348E-2,7.2181575E-2,9.6022844E-2,5.329437E-2,1.0269197E-1,1.04706325E-1,8.086917E-2],"split_indices":[4,5,6,4,4,5,5,6,6,4,6,6,4,5,1,5,4,5,1,6,6,5,4,6,5,5,6,1,6,6,0,4,4,4,0,6,4,6,0,5,1,5,5,6,1,4,5,4,5,0,4,1,6,6,1,0,1,0,0,5,4,5,1,0,0,0,0,0,0,0,0,0,0,0,0,0,0,0,0,0,0,0,0,0,0,0,0,0,0,0,0,0,0,0,0,0,0,0,0,0,0,0,0,0,0,0,0,0,0,0,0,0,0,0,0,0,0,0,0,0,0,0,0,0,0,0,0],"split_type":[0,0,0,0,0,0,0,0,0,0,0,0,0,0,0,0,0,0,0,0,0,0,0,0,0,0,0,0,0,0,0,0,0,0,0,0,0,0,0,0,0,0,0,0,0,0,0,0,0,0,0,0,0,0,0,0,0,0,0,0,0,0,0,0,0,0,0,0,0,0,0,0,0,0,0,0,0,0,0,0,0,0,0,0,0,0,0,0,0,0,0,0,0,0,0,0,0,0,0,0,0,0,0,0,0,0,0,0,0,0,0,0,0,0,0,0,0,0,0,0,0,0,0,0,0,0,0],"sum_hessian":[6.9362376E7,6.607484E7,3.287538E6,6.302717E7,3.04767E6,1.874844E6,1.412694E6,6.101481E7,2.012361E6,1.973896E6,1.073774E6,1.586522E6,2.88322E5,1.36476E5,1.276218E6,5.9784044E7,1.230765E6,1.833615E6,1.78746E5,1.781498E6,1.92398E5,7.36369E5,3.37405E5,7.96327E5,7.90195E5,1.7288E5,1.15442E5,4.1952E4,9.4524E4,1.043413E6,2.32805E5,4.6524924E7,1.3259121E7,1.140901E6,8.9864E4,1.769404E6,6.4211E4,1.49342E5,2.9404E4,1.596541E6,1.84957E5,1.01149E5,9.1249E4,5.13015E5,2.23354E5,1.61831E5,1.75574E5,1.2598E5,6.70347E5,1.96163E5,5.94032E5,8.1441E4,9.1439E4,2.1011E4,9.4431E4,1.2971E4,2.8981E4,5.1575E4,4.2949E4,5.56553E5,4.8686E5,4.9665E4,1.8314E5,2.5609448E7,2.0915476E7,1.2240922E7,1.018199E6,1.058374E6,8.2527E4,8.2452E4,7.412E3,1.403836E6,3.65568E5,3.3173E4,3.1038E4,1.20404E5,2.8938E4,5.862E3,2.3542E4,6.35689E5,9.60852E5,1.07031E5,7.7926E4,9.0975E4,1.0174E4,4.0098E4,5.1151E4,1.52745E5,3.6027E5,2.17516E5,5.838E3,4.0251E4,1.2158E5,1.2717E5,4.8404E4,5.342E4,7.256E4,2.121E5,4.58247E5,7.9494E4,1.16669E5,5.45173E5,4.8859E4,5.0287E4,3.1154E4,2.6381E4,6.5058E4,2.451E3,1.856E4,2.3852E4,7.0579E4,5.948E3,7.023E3,2.8407E4,5.74E2,2.479E4,2.6785E4,2.551E4,1.7439E4,2.95021E5,2.61532E5,3.24678E5,1.62182E5,2.2903E4,2.6762E4,1.65115E5,1.8025E4],"tree_param":{"num_deleted":"0","num_feature":"8","num_nodes":"127","size_leaf_vector":"0"}},{"base_weights":[-1.8801903E-2,-2.7399935E-2,1.3649882E-1,-2.9661724E-2,2.7543558E-2,3.989053E-2,2.6166824E-1,-3.0477583E-2,-1.8120749E-2,-2.421607E-2,1.2841323E-1,1.1767996E-2,2.1667416E-1,7.9983234E-2,2.821426E-1,-2.9637968E-2,-3.308302E-2,-2.5630794E-2,8.321066E-2,-3.0883431E-2,2.0732978E-2,7.2892204E-2,1.5055771E-1,-2.373572E-2,5.8226693E-2,1.432071E-1,3.3102047E-1,1.541644E-1,2.670069E-2,2.6086736E-1,3.924547E-1,-2.9084723E-2,-3.0377066E-2,-3.6756914E-2,-2.9855976E-2,-2.6869055E-2,1.62627E-2,7.592913E-2,3.3103964E-1,-3.1781953E-2,3.7689812E-2,-2.549486E-3,8.225635E-2,5.032021E-2,1.2590194E-1,1.2534903E-1,1.9523707E-1,-4.5217548E-2,-1.0285828E-2,1.2528607E-1,3.3021558E-2,3.056796E-2,1.5574716E-1,1.5368132E-2,3.504726E-1,1.07941516E-1,2.2153287E-1,-2.9166976E-2,8.735831E-2,1.9750266E-1,3.0310547E-1,3.475243E-1,4.3087757E-1,-2.886866E-2,-3.1138567E-2,-3.1606913E-2,-2.9410593E-2,-2.9539684E-2,-4.364691E-2,-3.0736506E-2,5.2360408E-2,-2.8481865E-2,-2.0101067E-2,