{"learner":{"attributes":{},"feature_names":[],"feature_types":[],"gradient_booster":{"model":{"gbtree_model_param":{"num_trees":"20","size_leaf_vector":"0"},"tree_info":[0,0,0,0,0,0,0,0,0,0,0,0,0,0,0,0,0,0,0,0],"trees":[{"base_weights":[-4.9975213E-1],"categories":[],"categories_nodes":[],"categories_segments":[],"categories_sizes":[],"default_left":[false],"id":0,"left_children":[-1],"loss_changes":[0E0],"parents":[2147483647],"right_children":[-1],"split_conditions":[-1.4992565E-1],"split_indices":[0],"split_type":[0],"sum_hessian":[9.25872E5],"tree_param":{"num_deleted":"0","num_feature":"15","num_nodes":"1","size_leaf_vector":"0"}},{"base_weights":[-3.4982663E-1],"categories":[],"categories_nodes":[],"categories_segments":[],"categories_sizes":[],"default_left":[false],"id":1,"left_children":[-1],"loss_changes":[0E0],"parents":[2147483647],"right_children":[-1],"split_conditions":[-1.0494799E-1],"split_indices":[0],"split_type":[0],"sum_hessian":[9.25872E5],"tree_param":{"num_deleted":"0","num_feature":"15","num_nodes":"1","size_leaf_vector":"0"}},{"base_weights":[-2.4487877E-1],"categories":[],"categories_nodes":[],"categories_segments":[],"categories_sizes":[],"default_left":[false],"id":2,"left_children":[-1],"loss_changes":[0E0],"parents":[2147483647],"right_children":[-1],"split_conditions":[-7.346363E-2],"split_indices":[0],"split_type":[0],"sum_hessian":[9.25872E5],"tree_param":{"num_deleted":"0","num_feature":"15","num_nodes":"1","size_leaf_vector":"0"}},{"base_weights":[-1.7141521E-1],"categories":[],"categories_nodes":[],"categories_segments":[],"categories_sizes":[],"default_left":[false],"id":3,"left_children":[-1],"loss_changes":[0E0],"parents":[2147483647],"right_children":[-1],"split_conditions":[-5.1424567E-2],"split_indices":[0],"split_type":[0],"sum_hessian":[9.25872E5],"tree_param":{"num_deleted":"0","num_feature":"15","num_nodes":"1","size_leaf_vector":"0"}},{"base_weights":[-1.1999071E-1,-1.2015889E-1,-1.1980874E-1,-1.2004729E-1,-1.1946483E-1,-1.1249336E-1,-1.1948456E-1,-7.9715595E-2,-1.17781505E-1,-1.1962824E-1,-1.18731126E-1,-1.1809106E-1,2.1590836E-2,-1.1965614E-1,-1.162223E-1,-1.1876382E-1,-8.2896896E-2,2.697916E-1,-1.1222229E-1,-1.1244481E-1,-1.20043926E-1,-1.1992502E-1,-1.1815768E-1,-1.15784906E-1,1.5982136E-1],"categories":[],"categories_nodes":[],"categories_segments":[],"categories_sizes":[],"default_left":[true,false,true,false,true,true,true,true,false,true,true,false,true,false,true,true,true,false,false,false,false,false,false,false,false],"id":4,"left_children":[1,-1,3,-1,5,7,9,11,-1,13,15,-1,17,-1,19,21,23,-1,-1,-1,-1,-1,-1,-1,-1],"loss_changes":[1.3671875E-2,0E0,2.1972656E-2,0E0,1.171875E-2,8.282471E-2,5.3710938E-3,3.0190116E-1,0E0,7.324219E-4,2.444458E-2,0E0,7.6095206E-1,0E0,4.9095154E-3,6.4086914E-3,2.5798053E-1,0E0,0E0,0E0,0E0,0E0,0E0,0E0,0E0],"parents":[2147483647,0,0,2,2,4,4,5,5,6,6,7,7,9,9,10,10,12,12,14,14,15,15,16,16],"right_children":[2,-1,4,-1,6,8,10,12,-1,14,16,-1,18,-1,20,22,24,-1,-1,-1,-1,-1,-1,-1,-1],"split_conditions":[3.23E-1,-3.6047667E-2,5.5E0,-3.6014188E-2,3.245E-1,9.5E0,2.5E0,1.6E1,-3.5334453E-2,9.19E-1,2.45E1,-3.542732E-2,1.6E1,-3.589684E-2,1.5E0,5.5E0,5.5E0,8.093748E-2,-3.366669E-2,-3.3733446E-2,-3.601318E-2,-3.597751E-2,-3.5447303E-2,-3.4735475E-2,4.7946412E-2],"split_indices":[6,0,1,0,6,8,12,1,0,6,9,0,9,0,8,0,12,0,0,0,0,0,0,0,0],"split_type":[0,0,0,0,0,0,0,0,0,0,0,0,0,0,0,0,0,0,0,0,0,0,0,0,0],"sum_hessian":[9.25872E5,4.80816E5,4.45056E5,2.62576E5,1.8248E5,5.31E2,1.81949E5,7.6E1,4.55E2,1.52674E5,2.9275E4,5.5E1,2.1E1,1.514E5,1.274E3,2.9246E4,2.9E1,7E0,1.4E1,6.56E2,6.18E2,9.963E3,1.9283E4,2.6E1,3E0],"tree_param":{"num_deleted":"0","num_feature":"15","num_nodes":"25","size_leaf_vector":"0"}},{"base_weights":[-8.399378E-2,-8.419785E-2,-8.3895326E-2,-7.845567E-2,-8.3907366E-2,-6.262276E-2,-8.322547E-2,-8.418302E-2,-8.380889E-2,-6.844641E-2,2.1337946E-1,-7.639938E-2,-8.4146895E-2,-8.3622165E-2,-8.404918E-2,-7.6934546E-2,-3.207554E-3,3.3252752E-1,-5.6327123E-2,-8.351451E-2,-4.0898386E-2,-8.369497E-2,-8.257833E-2,-6.6113986E-2,-8.380178E-2,-8.055906E-2,1.0818571E-1,-4.209525E-2,4.3670702E-1,1.8684876E-1,-8.044794E-2,-8.381175E-2,-8.298794E-2,-7.866113E-2,-8.330557E-2],"categories":[],"categories_nodes":[],"categories_segments":[],"categories_sizes":[],"default_left":[true,false,true,true,true,true,true,false,true,true,true,true,false,true,false,true,true,true,false,false,true,true,true,false,false,false,false,false,false,false,false,false,false,false,false],"id":5,"left_children":[1,-1,3,5,7,9,11,-1,13,15,17,19,-1,21,-1,23,25,27,-1,-1,29,31,33,-1,-1,-1,-1,-1,-1,-1,-1,-1,-1,-1,-1],"loss_changes":[1.171875E-2,0E0,3.4179688E-2,1.0013771E-1,9.765625E-3,5.402057E-1,2.951622E-4,0E0,1.3671875E-2,1.7750895E-1,2.4367541E-1,3.1442404E-2,0E0,1.2817383E-2,0E0,1.5562892E-2,3.3613995E-1,2.1352339E-1,0E0,0E0,2.4021405E-1,1.2939453E-2,4.1732788E-2,0E0,0E0,0E0,0E0,0E0,0E0,0E0,0E0,0E0,0E0,0E0,0E0],"parents":[2147483647,0,0,2,2,3,3,4,4,5,5,6,6,8,8,9,9,10,10,11,11,13,13,15,15,16,16,17,17,20,20,21,21,22,22],"right_children":[2,-1,4,6,8,10,12,-1,14,16,18,20,-1,22,-1,24,26,28,-1,-1,30,32,34,-1,-1,-1,-1,-1,-1,-1,-1,-1,-1,-1,-1],"split_conditions":[1.755E-1,-2.5259355E-2,1.765E-1,6.55E1,4.5E0,6.45E1,6.95E1,-2.5254907E-2,2.75E1,4.5E0,5E-1,3.1E1,-2.524407E-2,8.5E0,-2.5214756E-2,1.5E0,4.11E-1,1.965E-1,-1.6898138E-2,-2.5054354E-2,3.25E1,2.5E0,2.5E0,-1.9834196E-2,-2.5140537E-2,-2.4167718E-2,3.2455713E-2,-1.2628576E-2,1.3101211E-1,5.605463E-2,-2.4134384E-2,-2.5143526E-2,-2.4896383E-2,-2.359834E-2,-2.499167E-2],"split_indices":[5,0,5,13,0,13,13,0,13,12,9,14,0,9,0,9,6,6,0,0,14,12,10,0,0,0,0,0,0,0,0,0,0,0,0],"split_type":[0,0,0,0,0,0,0,0,0,0,0,0,0,0,0,0,0,0,0,0,0,0,0,0,0,0,0,0,0,0,0,0,0,0,0],"sum_hessian":[9.25872E5,3.0102E5,6.24852E5,1.394E3,6.23458E5,3.26E2,1.068E3,1.63875E5,4.59583E5,3.2E2,6E0,1.37E2,9.31E2,2.58812E5,2.00771E5,2.83E2,3.7E1,4E0,2E0,1.13E2,2.4E1,2.41863E5,1.6949E4,1.14E2,1.69E2,2.2E1,1.5E1,1E0,3E0,3E0,2.1E1,2.07477E5,3.4386E4,2.671E3,1.4278E4],"tree_param":{"num_deleted":"0","num_feature":"15","num_nodes":"35","size_leaf_vector":"0"}},{"base_weights":[-5.879578E-2,-5.8887407E-2,-5.864773E-2,-5.896046E-2,-5.875625E-2,-5.883309E-2,-5.8346987E-2,-5.853906E-2,-5.8961134E-2,-5.8388893E-2,-5.4743364E-2,-5.8734033E-2,-5.7881426E-2,-5.6887187E-2,-5.845641E-2,-5.664118E-2,3.7710315E-1,-5.692849E-2,-5.8750615E-2,-4.8287E-2,-5.7315767E-2,-5.868744E-2,-5.7997894E-2,-5.050096E-2,-5.771062E-2,-4.0030885E-2,5.51963E-1,-5.7007365E-2,-1.8726371E-2,-5.8915406E-2,-4.9378842E-2,-5.515285E-2,4.9292196E-2,-5.87055E-2,-5.5868644E-2,-5.887476E-2,-5.8449946E-2,-2.4844952E-2,-5.808795E-2,-5.9760284E-2,-5.6395967E-2,7.0479107E-1,-2.9674832E-2],"categories":[],"categories_nodes":[],"categories_segments":[],"categories_sizes":[],"default_left":[true,true,true,false,true,false,true,true,false,true,true,false,true,true,true,true,true,true,true,true,true,true,true,false,true,false,true,false,false,false,false,false,false,false,false,false,false,false,false,false,false,false,false],"id":6,"left_children":[1,3,5,-1,7,-1,9,11,-1,13,15,-1,17,19,21,23,25,27,29,31,33,35,37,-1,39,-1,41,-1,-1,-1,-1,-1,-1,-1,-1,-1,-1,-1,-1,-1,-1,-1,-1],"loss_changes":[9.277344E-3,1.953125E-3,1.6235352E-2,0E0,5.6762695E-3,0E0,1.7211914E-2,9.3688965E-3,0E0,1.0223389E-2,1.3080764E0,0E0,1.5563965E-2,1.8558502E-2,1.0131836E-2,7.35569E-3,5.326754E-1,3.1848907E-2,1.5487671E-2,1.9097841E-1,7.7934265E-3,3.6621094E-4,1.2667847E-1,0E0,2.002716E-4,0E0,4.653678E-1,0E0,0E0,0E0,0E0,0E0,0E0,0E0,0E0,0E0,0E0,0E0,0E0,0E0,0E0,0E0,0E0],"parents":[2147483647,0,0,1,1,2,2,4,4,6,6,7,7,9,9,10,10,12,12,13,13,14,14,15,15,16,16,17,17,18,18,19,19,20,20,21,21,22,22,24,24,26,26],"right_children":[2,4,6,-1,8,-1,10,12,-1,14,16,-1,18,20,22,24,26,28,30,32,34,36,38,-1,40,-1,42,-1,-1,-1,-1,-1,-1,-1,-1,-1,-1,-1,-1,-1,-1,-1,-1],"split_conditions":[3.875E-1,1.5E0,5.5E0,-1.7688138E-2,8E1,-1.7649928E-2,8.8E-1,5E-1,-1.7688341E-2,3.935E-1,7.5E0,-1.7620211E-2,2.635E-1,3.5E0,5.8000004E-1,5.5E0,5.2750003E-1,2.625E-1,7.7E1,9.6650004E-1,5E-1,5E-1,5.825E-1,-1.5150288E-2,5.675E-1,-1.2009266E-2,1.15E1,-1.710221E-2,-5.6179115E-3,-1.7674623E-2,-1.4813653E-2,-1.6545855E-2,1.4787659E-2,-1.761165E-2,-1.6760593E-2,-1.7662428E-2,-1.7534984E-2,-7.453486E-3,-1.7426385E-2,-1.7928086E-2,-1.6918791E-2,2.1143733E-1,-8.90245E-3],"split_indices":[5,12,0,0,13,0,5,10,0,5,0,0,5,8,5,1,6,5,13,6,12,12,5,0,6,0,1,0,0,0,0,0,0,0,0,0,0,0,0,0,0,0,0],"split_type":[0,0,0,0,0,0,0,0,0,0,0,0,0,0,0,0,0,0,0,0,0,0,0,0,0,0,0,0,0,0,0,0,0,0,0,0,0,0,0,0,0,0,0],"sum_hessian":[9.25872E5,5.71681E5,3.54191E5,3.6688E5,2.04801E5,2.19011E5,1.3518E5,9.9553E4,1.05248E5,1.33611E5,1.569E3,7.6719E4,2.2834E4,5.785E3,1.27826E5,1.563E3,6E0,1.0924E4,1.191E4,2.8E2,5.505E3,8.4914E4,4.2912E4,2.39E2,1.324E3,2E0,4E0,1.0901E4,2.3E1,1.1699E4,2.11E2,2.62E2,1.8E1,2.788E3,2.717E3,4.7334E4,3.758E4,1.17E2,4.2795E4,5E2,8.24E2,3E0,1E0],"tree_param":{"num_deleted":"0","num_feature":"15","num_nodes":"43","size_leaf_vector":"0"}},{"base_weights":[-4.1157134E-2,-4.122697E-2,-4.1042656E-2,-3.8508028E-2,-4.1082494E-2,-3.878899E-2,-2.818441E-2,-4.116928E-2,-4.072886E-2,-4.13896E-2,-3.7824046E-2,2.3398403E-2,-3.4177948E-2,-4.1202843E-2,-4.0802956E-2,-4.1214645E-2,-4.0163733E-2,-3.470435E-2,-4.0248226E-2,-3.8451582E-2,2.1856126E-1,-4.1596737E-2,-9.462501E-3,-4.122249E-2,-4.0451847E-2,-4.015382E-2,-4.1361533E-2,-4.0980224E-2,-4.1422006E-2,-4.0194932E-2,8.790829E-2,-3.7071478E-2,-1.7322501E-2,-3.6206704E-2,-4.106694E-2,4.7902206E-1,-2.7933026E-2,1.3142045E-1,-4.0419362E-2,-4.129366E-2,-4.1121464E-2,-4.067161E-2,-3.6443193E-2,-4.1128818E-2,-3.7314214E-2,-4.121691E-2,-4.0065963E-2,-4.0224735E-2,-5.203012E-3,-3.632366E-2,4.7876596E-1],"categories":[],"categories_nodes":[],"categories_segments":[],"categories_sizes":[],"default_left":[true,false,true,true,true,true,true,true,true,false,true,true,true,true,true,true,true,true,true,false,true,false,true,true,true,true,false,true,false,true,true,false,false,false,false,false,false,false,false,false,false,false,false,false,false,false,false,false,false,false,false],"id":7,"left_children":[1,-1,3,5,7,9,11,13,15,-1,17,19,21,23,25,27,29,31,33,-1,35,-1,37,39,41,43,-1,45,-1,47,49,-1,-1,-1,-1,-1,-1,-1,-1,-1,-1,-1,-1,-1,-1,-1,-1,-1,-1,-1,-1],"loss_changes":[5.7373047E-3,0E0,3.387451E-2,1.4708519E-2,8.911133E-3,1.1737347E-2,4.6555914E-2,1.739502E-3,1.7066956E-2,0E0,2.7931213E-2,2.0153715E-1,2.399309E-2,2.0751953E-3,6.816864E-3,8.392334E-5,1.2963867E-1,6.942797E-2,5.712986E-3,0E0,2.7018893E-1,0E0,1.4487334E-1,9.1552734E-5,4.2715073E-3,2.8505325E-2,0E0,2.090454E-3,0E0,3.269577E-2,4.058466E-1,0E0,0E0,0E0,0E0,0E0,0E0,0E0,0E0,0E0,0E0,0E0,0E0,0E0,0E0,0E0,0E0,0E0,0E0,0E0,0E0],"parents":[2147483647,0,0,2,2,3,3,4,4,5,5,6,6,7,7,8,8,10,10,11,11,12,12,13,13,14,14,15,15,16,16,17,17,18,18,20,20,22,22,23,23,24,24,25,25,27,27,29,29,30,30],"right_children":[2,-1,4,6,8,10,12,14,16,-1,18,20,22,24,26,28,30,32,34,-1,36,-1,38,40,42,44,-1,46,-1,48,50,-1,-1,-1,-1,-1,-1,-1,-1,-1,-1,-1,-1,-1,-1,-1,-1,-1,-1,-1,-1],"split_conditions":[3.875E-1,-1.2368091E-2,3.935E-1,7.5E0,4.5E0,4.5E0,5E-1,4.5E0,5.315E-1,-1.2416881E-2,2.5E0,7E0,1.5E0,3.5E0,1.45E1,8.5E0,7.5E0,2.5E0,3.5E0,-1.1535475E-2,1.45E1,-1.2479021E-2,1.45E1,2.5E0,2.5E0,1.35E1,-1.24084605E-2,6.5E0,-1.2426603E-2,5.5E0,5.61E-1,-1.11214435E-2,-5.1967506E-3,-1.0862011E-2,-1.2320083E-2,1.4370662E-1,-8.379908E-3,3.9426137E-2,-1.212581E-2,-1.2388098E-2,-1.2336439E-2,-1.2201483E-2,-1.0932958E-2,-1.2338646E-2,-1.11942645E-2,-1.2365074E-2,-1.201979E-2,-1.2067421E-2,-1.5609036E-3,-1.0897098E-2,1.4362979E-1],"split_indices":[6,0,6,12,9,0,4,12,5,0,9,0,9,10,8,8,12,10,4,0,8,0,0,4,12,14,0,14,0,12,6,0,0,0,0,0,0,0,0,0,0,0,0,0,0,0,0,0,0,0,0],"split_type":[0,0,0,0,0,0,0,0,0,0,0,0,0,0,0,0,0,0,0,0,0,0,0,0,0,0,0,0,0,0,0,0,0,0,0,0,0,0,0,0,0,0,0,0,0,0,0,0,0,0,0],"sum_hessian":[9.25872E5,5.7484E5,3.51032E5,5.447E3,3.45585E5,5.3E3,1.47E2,2.77394E5,6.8191E4,1.423E3,3.877E3,1.5E1,1.32E2,2.5401E5,2.3384E4,3.6631E4,3.156E4,1.702E3,2.175E3,1.2E1,3E0,1.01E2,3.1E1,2.47481E5,6.529E3,1.0849E4,1.2535E4,1.7287E4,1.9344E4,3.1553E4,7E0,1.497E3,2.05E2,3.74E2,1.801E3,1E0,2E0,5E0,2.6E1,1.44959E5,1.02522E5,6.181E3,3.48E2,8.066E3,2.783E3,1.3697E4,3.59E3,3.1526E4,2.7E1,6E0,1E0],"tree_param":{"num_deleted":"0","num_feature":"15","num_nodes":"51","size_leaf_vector":"0"}},{"base_weights":[-2.8809914E-2,-2.8854175E-2,-2.870856E-2,-2.8852811E-2,-3.1908844E-2,-2.8593041E-2,-2.8962048E-2,-2.887637E-2,-2.8720466E-2,-2.8822923E-2,-2.8183658E-2,-2.89115E-2,-2.8765714E-2,-2.8270887E-2,-2.8843924E-2,-2.8837474E-2,-2.61867E-2,-2.822158E-2,7.848597E-3,-2.8914377E-2,-2.8644372E-2,-2.839994E-2,-2.4220714E-2,-2.8723225E-2,-2.895149E-2,-2.8878225E-2,-2.8085869E-2,-2.1562878E-2,-3.0353732E-2,-2.8244527E-2,-2.0723108E-2,-1.5304502E-2,4.1685396E-1,-2.7681962E-2,-2.8931009E-2,-2.3322523E-2,-2.8660493E-2,-2.8104248E-2,-2.9003324E-2,2.6529018E-2,-2.6270196E-2,-2.8773729E-2,-2.3893647E-2,-2.8910939E-2,-2.8455751E-2,-2.8306719E-2,8.508242E-3,1.3876089E-2,-2.6761193E-2,-2.7970789E-2,-2.8774101E-2,-2.5325313E-2,4.8437542E-1,-2.9268527E-2,4.9247958E-2,5.6622165E-1,-1.5624594E-2],"categories":[],"categories_nodes":[],"categories_segments":[],"categories_sizes":[],"default_left":[true,true,true,true,false,true,false,true,true,true,true,false,true,true,true,true,true,true,true,true,true,true,true,true,false,true,true,true,false,true,true,true,true,false,false,false,false,false,false,false,false,false,false,false,false,false,false,false,false,false,false,false,false,false,false,false,false],"id":8,"left_children":[1,3,5,7,-1,9,-1,11,13,15,17,-1,19,21,23,25,27,29,31,33,35,37,39,41,-1,43,45,47,-1,49,51,53,55,-1,-1,-1,-1,-1,-1,-1,-1,-1,-1,-1,-1,-1,-1,-1,-1,-1,-1,-1,-1,-1,-1,-1,-1],"loss_changes":[3.3569336E-3,1.7700195E-3,7.4310303E-3,1.2207031E-3,0E0,1.7410278E-2,0E0,1.3122559E-3,4.5928955E-3,3.9978027E-3,9.5378876E-2,0E0,1.5487671E-3,1.0316849E-2,1.6021729E-4,2.960205E-3,1.2659401E-2,1.1386871E-2,7.071406E-1,4.119873E-4,5.5732727E-3,2.8247833E-3,6.9031924E-2,8.1272125E-3,0E0,7.8582764E-4,5.174637E-2,6.1349124E-2,0E0,9.246826E-3,5.1437336E-1,6.5441675E-2,2.6724035E-1,0E0,0E0,0E0,0E0,0E0,0E0,0E0,0E0,0E0,0E0,0E0,0E0,0E0,0E0,0E0,0E0,0E0,0E0,0E0,0E0,0E0,0E0,0E0,0E0],"parents":[2147483647,0,0,1,1,2,2,3,3,5,5,7,7,8,8,9,9,10,10,12,12,13,13,14,14,15,15,16,16,17,17,18,18,19,19,20,20,21,21,22,22,23,23,25,25,26,26,27,27,29,29,30,30,31,31,32,32],"right_children":[2,4,6,8,-1,10,-1,12,14,16,18,-1,20,22,24,26,28,30,32,34,36,38,40,42,-1,44,46,48,-1,50,52,54,56,-1,-1,-1,-1,-1,-1,-1,-1,-1,-1,-1,-1,-1,-1,-1,-1,-1,-1,-1,-1,-1,-1,-1,-1],"split_conditions":[5E-1,4.5E0,1.65E1,2.5E0,-9.572653E-3,5E-1,-8.688615E-3,2.5E0,3.5E0,9.19E-1,8.335E-1,-8.67345E-3,1.755E-1,7.5E0,2.95E1,1.25E1,7.5E0,8.05E-1,7.5E0,5E0,1.765E-1,5.5E0,4.11E-1,2.85E1,-8.685447E-3,1.55E1,8.75E-1,6.905E-1,-9.10612E-3,1.05E1,5.5E0,3.5E0,8.75E-1,-8.3045885E-3,-8.679303E-3,-6.996757E-3,-8.598148E-3,-8.431274E-3,-8.700998E-3,7.958706E-3,-7.881059E-3,-8.632119E-3,-7.168094E-3,-8.673282E-3,-8.536725E-3,-8.492016E-3,2.5524725E-3,4.162827E-3,-8.028358E-3,-8.391237E-3,-8.632231E-3,-7.597594E-3,1.4531264E-1,-8.780559E-3,1.4774388E-2,1.698665E-1,-4.687378E-3],"split_indices":[10,4,8,4,0,12,0,12,8,6,6,0,5,0,13,9,0,5,1,13,5,0,5,13,0,1,5,5,0,1,4,12,6,0,0,0,0,0,0,0,0,0,0,0,0,0,0,0,0,0,0,0,0,0,0,0,0],"split_type":[0,0,0,0,0,0,0,0,0,0,0,0,0,0,0,0,0,0,0,0,0,0,0,0,0,0,0,0,0,0,0,0,0,0,0,0,0,0,0,0,0,0,0,0,0,0,0,0,0,0,0,0,0,0,0,0,0],"sum_hessian":[9.25872E5,6.44254E5,2.81618E5,6.43977E5,2.77E2,1.93534E5,8.8084E4,5.46479E5,9.7498E4,1.23894E5,6.964E4,4.14598E5,1.31881E5,2.1055E4,7.6443E4,1.23204E5,6.9E2,6.9567E4,7.3E1,5.9162E4,7.2719E4,2.0399E4,6.56E2,3.6149E4,4.0294E4,1.16832E5,6.372E3,3.3E2,3.6E2,6.9352E4,2.15E2,7E1,3E0,8.1E2,5.8352E4,2.24E2,7.2495E4,1.3722E4,6.677E3,2.5E1,6.31E2,3.577E4,3.79E2,1.08373E5,8.459E3,6.334E3,3.8E1,4.2E1,2.88E2,4.5755E4,2.3597E4,2.14E2,1E0,5.8E1,1.2E1,2E0,1E0],"tree_param":{"num_deleted":"0","num_feature":"15","num_nodes":"57","size_leaf_vector":"0"}},{"base_weights":[-2.0166773E-2,-2.0207278E-2,-2.0100573E-2,-2.0236753E-2,-2.0074828E-2,-1.7909555E-2,-2.0120954E-2,-2.021057E-2,-2.0335771E-2,-1.9781513E-2,-2.0213686E-2,-2.086227E-2,-1.6082354E-2,-2.013706E-2,-1.9016558E-2,-2.0218052E-2,-1.993885E-2,-2.0551423E-2,-2.0278672E-2,-1.9807471E-2,5.0202007E-3,-2.0170638E-2,-2.0375988E-2,-1.7270649E-2,-1.3228375E-3,-2.016614E-2,-1.9743992E-2,1.2302531E-1,-1.929589E-2,-2.019049E-2,-2.0274514E-2,-2.0248275E-2,-1.8857596E-2,-2.0596584E-2,-1.89574E-2,-2.0010596E-2,-1.7829094E-2,4.4171268E-1,-2.0077089E-2,-2.0187942E-2,-1.4642695E-2,-2.096784E-2,-1.3494748E-2,7.119406E-2,-6.9708023E-3,-2.0227375E-2,-2.002483E-2,-2.0161467E-2,-1.8889638E-2,-2.0064065E-2,3.426754E-1,9.230406E-3,-1.9824741E-2,-2.0204986E-2,-1.8831601E-2,-2.0179855E-2,-2.0355685E-2,-2.0373894E-2,-1.443235E-2,5.1666368E-2,-2.0062238E-2,-2.0658514E-2,-1.9903699E-2,9.261829E-2,-2.069195E-2,-2.0042008E-2,-9.747818E-3,-1.3507536E-2,-2.057398E-2,-1.9673422E-2,-2.0230351E-2,-2.0218134E-2,2.4052372E-2,1.6972432E-3,-1.8160038E-2,-1.9224687E-2,3.1871897E-1,3.1862814E-2,-2.1092981E-2,-2.0186534E-2,-2.0588147E-2,-2.0070968E-2,-1.8071037E-2,-1.9486854E-2,-2.040741E-2,-6.914832E-3,-1.9582585E-2,-1.1378586E-2,4.6448624E-1,-1.7259091E-2,8.500311E-2,-2.037566E-2,-1.2140128E-2],"categories":[],"categories_nodes":[],"categories_segments":[],"categories_sizes":[],"default_left":[true,true,true,true,true,true,true,true,true,true,true,false,true,true,true,true,true,true,false,true,true,true,false,true,true,true,true,true,true,true,true,true,true,true,true,true,true,false,false,true,true,false,true,true,true,true,true,true,true,false,true,true,true,false,false,false,false,false,false,false,false,false,false,false,false,false,false,false,false,false,false,false,false,false,false,false,false,false,false,false,false,false,false,false,false,false,false,false,false,false,false,false,false],"id":9,"left_children":[1,3,5,7,9,11,13,15,17,19,21,-1,23,25,27,29,31,33,-1,35,37,39,-1,41,43,45,47,49,51,53,55,57,59,61,63,65,67,-1,-1,69,71,-1,73,75,77,79,81,83,85,-1,87,89,91,-1,-1,-1,-1,-1,-1,-1,-1,-1,-1,-1,-1,-1,-1,-1,-1,-1,-1,-1,-1,-1,-1,-1,-1,-1,-1,-1,-1,-1,-1,-1,-1,-1,-1,-1,-1,-1,-1,-1,-1],"loss_changes":[2.0751953E-3,1.8463135E-3,1.5350342E-2,8.087158E-4,3.8604736E-3,1.719892E-2,5.8135986E-3,3.5095215E-4,7.8964233E-4,2.1775246E-2,8.583069E-5,0E0,3.526491E-2,3.5247803E-3,2.0178866E-1,1.5258789E-4,2.9735565E-3,1.0824203E-3,0E0,1.3159752E-2,4.0342098E-1,5.0792694E-3,0E0,2.5711E-2,6.2341787E-2,2.3651123E-3,8.072853E-3,3.2117134E-1,7.5870395E-2,4.40979E-3,4.9972534E-4,5.39279E-3,1.9184792E-1,4.415512E-4,1.1339174E-1,9.634972E-3,3.6981225E-2,0E0,0E0,8.2588196E-4,3.9104104E-2,0E0,6.551935E-2,2.5231707E-1,7.799864E-2,2.8686523E-3,8.361816E-3,2.2416115E-3,6.455517E-2,0E0,1.7779568E-1,1.8612769E-1,2.0607233E-2,0E0,0E0,0E0,0E0,0E0,0E0,0E0,0E0,0E0,0E0,0E0,0E0,0E0,0E0,0E0,0E0,0E0,0E0,0E0,0E0,0E0,0E0,0E0,0E0,0E0,0E0,0E0,0E0,0E0,0E0,0E0,0E0,0E0,0E0,0E0,0E0,0E0,0E0,0E0,0E0],"parents":[2147483647,0,0,1,1,2,2,3,3,4,4,5,5,6,6,7,7,8,8,9,9,10,10,12,12,13,13,14,14,15,15,16,16,17,17,19,19,20,20,21,21,23,23,24,24,25,25,26,26,27,27,28,28,29,29,30,30,31,31,32,32,33,33,34,34,35,35,36,36,39,39,40,40,42,42,43,43,44,44,45,45,46,46,47,47,48,48,50,50,51,51,52,52],"right_children":[2,4,6,8,10,12,14,16,18,20,22,-1,24,26,28,30,32,34,-1,36,38,40,-1,42,44,46,48,50,52,54,56,58,60,62,64,66,68,-1,-1,70,72,-1,74,76,78,80,82,84,86,-1,88,90,92,-1,-1,-1,-1,-1,-1,-1,-1,-1,-1,-1,-1,-1,-1,-1,-1,-1,-1,-1,-1,-1,-1,-1,-1,-1,-1,-1,-1,-1,-1,-1,-1,-1,-1,-1,-1,-1,-1,-1,-1],"split_conditions":[3.9249998E-1,3.5E0,3.935E-1,1.5E0,1.45E1,3.2999998E-1,1.25E1,2.5E0,2.05E1,2.45E1,2.1450001E-1,-6.2586814E-3,1.85E1,3.5E0,1.5E0,2.175E-1,3.855E-1,1.65E1,-6.0836016E-3,1.35E1,1.75E1,2.135E-1,-6.1127967E-3,1.5E0,1.95E1,5.675E-1,4.7500002E-1,8.215E-1,3.5E0,2.135E-1,5.5E0,3.59E-1,3.935E-1,8.835E-1,1.15E1,8.835E-1,1.45E1,1.325138E-1,-6.023127E-3,1.65E1,1.05E1,-6.290352E-3,2.5E0,1.5E0,3.5799998E-1,4.5E0,8.5E0,4.5E0,4.93E-1,-6.0192198E-3,5E-1,4.5E0,7.18E-1,-6.0614957E-3,-5.6494805E-3,-6.0539567E-3,-6.106706E-3,-6.1121685E-3,-4.329705E-3,1.5499911E-2,-6.0186717E-3,-6.1975545E-3,-5.97111E-3,2.7785487E-2,-6.2075853E-3,-6.0126027E-3,-2.9243454E-3,-4.052261E-3,-6.172194E-3,-5.902027E-3,-6.0691056E-3,-6.0654404E-3,7.2157118E-3,5.0917297E-4,-5.4480117E-3,-5.767406E-3,9.561569E-2,9.558844E-3,-6.3278945E-3,-6.0559604E-3,-6.1764442E-3,-6.0212906E-3,-5.421311E-3,-5.846056E-3,-6.1222236E-3,-2.0744498E-3,-5.874776E-3,-3.413576E-3,1.3934588E-1,-5.1777274E-3,2.5500933E-2,-6.112698E-3,-3.6420384E-3],"split_indices":[5,12,5,9,8,6,9,10,13,9,5,0,14,10,10,5,6,0,0,0,1,5,0,9,14,6,6,5,10,5,0,5,6,6,1,6,0,0,0,8,12,0,9,10,6,9,9,10,6,0,12,8,5,0,0,0,0,0,0,0,0,0,0,0,0,0,0,0,0,0,0,0,0,0,0,0,0,0,0,0,0,0,0,0,0,0,0,0,0,0,0,0,0],"split_type":[0,0,0,0,0,0,0,0,0,0,0,0,0,0,0,0,0,0,0,0,0,0,0,0,0,0,0,0,0,0,0,0,0,0,0,0,0,0,0,0,0,0,0,0,0,0,0,0,0,0,0,0,0,0,0,0,0,0,0,0,0,0,0,0,0,0,0,0,0,0,0,0,0,0,0,0,0,0,0,0,0,0,0,0,0,0,0,0,0,0,0,0,0],"sum_hessian":[9.25872E5,5.74217E5,3.51655E5,4.69572E5,1.04645E5,3.249E3,3.48406E5,3.71532E5,9.804E4,3.3669E4,7.0976E4,1.238E3,2.011E3,3.43381E5,5.025E3,3.61504E5,1.0028E4,2.0449E4,7.7591E4,3.3634E4,3.5E1,5.6196E4,1.478E4,1.861E3,1.5E2,3.1968E5,2.3701E4,9E0,5.016E3,2.43166E5,1.18338E5,7.783E3,2.245E3,1.9874E4,5.75E2,3.0494E4,3.14E3,1E0,3.4E1,5.6018E4,1.78E2,9.38E2,9.23E2,1E1,1.4E2,2.22933E5,9.6747E4,1.5906E4,7.795E3,6E0,3E0,9.1E1,4.925E3,2.40586E5,2.58E3,5.4745E4,6.3593E4,7.616E3,1.67E2,3.7E1,2.208E3,1.8217E4,1.657E3,8E0,5.67E2,3.04E4,9.4E1,1.222E3,1.918E3,4.301E3,5.1717E4,1.56E2,2.2E1,2.17E2,7.06E2,8E0,2E0,3.7E1,1.03E2,2.00314E5,2.2619E4,9.4506E4,2.241E3,4.271E3,1.1635E4,4.27E2,7.368E3,1E0,2E0,6.8E1,2.3E1,4.594E3,3.31E2],"tree_param":{"num_deleted":"0","num_feature":"15","num_nodes":"93","size_leaf_vector":"0"}},{"base_weights":[1.8123474E-2,2.9567794E-3,7.97334E-2,-2.8222557E-3,3.0349081E-2,1.6332753E-2,1.19733036E-1,-6.22048E-3,5.755924E-3,6.912687E-3,4.8659917E-2,5.279498E-3,3.642142E-2,1.3280216E-1,-1.1012608E-2,-8.659322E-3,-3.7055016E-3,-2.2934E-3,1.7652959E-2,1.2610572E-3,1.7365132E-2,6.564381E-2,2.7473193E-2,-3.5217302E-3,1.1543958E-2,3.743002E-2,2.697677E-3,1.01335175E-1,2.1583112E-1,5.4191176E-2,-2.27004E-2,-9.500107E-3,-6.671849E-3,-6.914016E-3,-3.4332546E-4,-4.8745065E-3,4.9002497E-3,3.002229E-2,7.291419E-3,-4.2339806E-3,4.978452E-3,2.3927463E-2,8.360941E-3,7.050029E-2,-1.1848514E-2,3.1159485E-2,-1.9509686E-2,-3.5676593E-3,4.9243623E-1,1.1511764E-2,4.924564E-1,3.639815E-2,6.6328615E-2,8.234593E-3,-1.8623894E-2,1.3387999E-1,6.469575E-2,3.073306E-1,1.4501321E-1,5.0034553E-2,8.5594034E-1,-2.0899696E-2,-1.7829068E-1,-1.1018508E-2,-8.823421E-3,2.095264E-1,-6.6976347E-3,-8.230218E-3,-5.430356E-3,-5.592576E-3,3.6548516E-3,-7.564775E-3,-1.9223595E-3,-1.6675041E-3,7.931053E-3,2.8879628E-2,1.0187861E-1,-2.6101645E-3,9.558121E-3,-1.1572851E-2,-2.1964128E-3,1.6704393E-3,8.932245E-3,1.635982E-2,3.2662805E-2,-2.185489E-7,1.3975637E-2,6.71073E-2,1.8434213E-1,1.8583998E-2,-1.2535934E-2,2.82487E-2,9.1746606E-2,-1.1243627E-2,-1.0584705E-1,-5.8786706E-3,6.0703064E-4,9.07829E-3,1.7155208E-2,3.7741724E-2,1.2908743E-2,3.2380727E-1,6.54457E-2,5.3737117E-3,2.7352887E-1,-1.4379723E-2,-6.1804622E-2,5.9386477E-2,1.4740953E-1,2.4563929E-2,1.3538696E-1,2.682568E-1,4.532016E-1,1.0309054E-1,2.1340731E-1,2.6184753E-1,4.3775328E-2,-1.3795755E-2,-2.7524738E-2,-1.1081379E-1,-2.2364102E-1],"categories":[],"categories_nodes":[],"categories_segments":[],"categories_sizes":[],"default_left":[true,true,true,true,true,true,true,true,true,true,true,true,true,true,true,true,true,true,true,true,true,true,true,true,true,true,true,true,true,true,true,true,true,true,true,true,true,true,true,true,true,true,true,true,true,true,true,true,false,true,false,true,true,true,true,true,true,true,true,true,false,true,true,false,false,false,false,false,false,false,false,false,false,false,false,false,false,false,false,false,false,false,false,false,false,false,false,false,false,false,false,false,false,false,false,false,false,false,false,false,false,false,false,false,false,false,false,false,false,false,false,false,false,false,false,false,false,false,false,false,false],"id":10,"left_children":[1,3,5,7,9,11,13,15,17,19,21,23,25,27,29,31,33,35,37,39,41,43,45,47,49,51,53,55,57,59,61,63,65,67,69,71,73,75,77,79,81,83,85,87,89,91,93,95,-1,97,-1,99,101,103,105,107,109,111,113,115,-1,117,119,-1,-1,-1,-1,-1,-1,-1,-1,-1,-1,-1,-1,-1,-1,-1,-1,-1,-1,-1,-1,-1,-1,-1,-1,-1,-1,-1,-1,-1,-1,-1,-1,-1,-1,-1,-1,-1,-1,-1,-1,-1,-1,-1,-1,-1,-1,-1,-1,-1,-1,-1,-1,-1,-1,-1,-1,-1,-1],"loss_changes":[9.810153E2,1.3336462E2,5.2594995E2,2.028012E1,6.298625E1,1.7814491E1,2.1729211E2,3.056366E0,1.890377E1,3.8030016E0,2.964737E1,2.8535497E0,9.6847534E-1,3.0202637E2,8.808682E0,4.2267227E-1,2.646442E0,2.1861887E0,1.020956E1,8.5359305E-1,1.3347864E0,1.7212387E1,6.3505383E0,4.9198154E-1,4.6245146E-1,8.220711E-1,9.790351E-2,9.996167E1,2.0583179E2,5.812497E0,2.742238E0,1.8255997E-1,4.2068052E-1,2.4508953E-1,2.514189E0,6.881738E-1,6.188972E-1,2.9785423E0,9.7296953E-1,2.521196E-1,3.2598412E-1,8.633385E-1,4.4720167E-1,1.6611328E1,5.6674957E-2,5.9929886E0,1.9028804E0,2.0762327E-1,0E0,4.1505337E-1,0E0,8.420944E-1,1.9522667E-1,4.9793595E-1,3.0449815E-2,4.473938E1,1.1188664E2,7.8882324E1,5.1336426E1,2.3073354E0,0E0,4.5566988E-1,3.1794882E-1,0E0,0E0,0E0,0E0,0E0,0E0,0E0,0E0,0E0,0E0,0E0,0E0,0E0,0E0,0E0,0E0,0E0,0E0,0E0,0E0,0E0,0E0,0E0,0E0,0E0,0E0,0E0,0E0,0E0,0E0,0E0,0E0,0E0,0E0,0E0,0E0,0E0,0E0,0E0,0E0,0E0,0E0,0E0,0E0,0E0,0E0,0E0,0E0,0E0,0E0,0E0,0E0,0E0,0E0,0E0,0E0,0E0,0E0],"parents":[2147483647,0,0,1,1,2,2,3,3,4,4,5,5,6,6,7,7,8,8,9,9,10,10,11,11,12,12,13,13,14,14,15,15,16,16,17,17,18,18,19,19,20,20,21,21,22,22,23,23,24,24,25,25,26,26,27,27,28,28,29,29,30,30,31,31,32,32,33,33,34,34,35,35,36,36,37,37,38,38,39,39,40,40,41,41,42,42,43,43,44,44,45,45,46,46,47,47,49,49,51,51,52,52,53,53,54,54,55,55,56,56,57,57,58,58,59,59,61,61,62,62],"right_children":[2,4,6,8,10,12,14,16,18,20,22,24,26,28,30,32,34,36,38,40,42,44,46,48,50,52,54,56,58,60,62,64,66,68,70,72,74,76,78,80,82,84,86,88,90,92,94,96,-1,98,-1,100,102,104,106,108,110,112,114,116,-1,118,120,-1,-1,-1,-1,-1,-1,-1,-1,-1,-1,-1,-1,-1,-1,-1,-1,-1,-1,-1,-1,-1,-1,-1,-1,-1,-1,-1,-1,-1,-1,-1,-1,-1,-1,-1,-1,-1,-1,-1,-1,-1,-1,-1,-1,-1,-1,-1,-1,-1,-1,-1,-1,-1,-1,-1,-1,-1,-1],"split_conditions":[6.725E-1,4.025E-1,5.5E0,2.245E-1,5.5E0,2.5E0,5.55E1,4.385E-1,4.5E0,2.5E0,5E-1,5E-1,2.105E2,6.95E1,5.55E1,3.5E0,2.5E0,1.5E0,5.5E0,1.5E0,5E-1,6.825E2,7.25E1,4.166E3,1.5E1,3.5E0,3.15E1,7.5E0,5E-1,5.35E1,5.5E0,5E-1,2.5E0,5E-1,1.125E-1,1.5E0,4.305E-1,5.95E1,2.2749999E-1,5E-1,6.5E0,4.5E0,3.845E-1,2.55E1,8.5E0,2.55E1,5.5E0,3.5E0,1.4773087E-1,4.5E0,1.4773692E-1,1.5E0,1.075E-1,3.05E1,8.775E-1,9.425E-1,1.15E1,4.62E2,8.96E-1,6.8350005E-1,2.567821E-1,8.565E-1,7.5E0,-3.3055525E-3,-2.6470264E-3,6.2857926E-2,-2.0092905E-3,-2.4690654E-3,-1.6291069E-3,-1.677773E-3,1.0964555E-3,-2.2694326E-3,-5.767079E-4,-5.0025125E-4,2.379316E-3,8.663889E-3,3.0563585E-2,-7.830494E-4,2.8674363E-3,-3.4718553E-3,-6.589239E-4,5.011318E-4,2.6796735E-3,4.907946E-3,9.798842E-3,-6.556468E-8,4.1926913E-3,2.013219E-2,5.5302642E-2,5.5751996E-3,-3.7607804E-3,8.47461E-3,2.7523983E-2,-3.3730883E-3,-3.1754117E-2,-1.7636012E-3,1.821092E-4,2.723487E-3,5.1465626E-3,1.1322518E-2,3.872623E-3,9.714218E-2,1.963371E-2,1.6121136E-3,8.205867E-2,-4.313917E-3,-1.8541388E-2,1.7815944E-2,4.422286E-2,7.369179E-3,4.0616088E-2,8.0477044E-2,1.3596049E-1,3.0927163E-2,6.40222E-2,7.855426E-2,1.3132599E-2,-4.1387267E-3,-8.257422E-3,-3.3244137E-2,-6.709231E-2],"split_indices":[5,5,9,5,9,9,1,6,9,9,14,9,13,9,0,9,9,9,14,4,14,9,0,14,12,9,14,0,8,4,12,4,8,9,5,4,6,10,6,4,0,13,6,10,8,10,12,1,0,1,0,14,6,14,5,5,1,9,5,5,0,5,12,0,0,0,0,0,0,0,0,0,0,0,0,0,0,0,0,0,0,0,0,0,0,0,0,0,0,0,0,0,0,0,0,0,0,0,0,0,0,0,0,0,0,0,0,0,0,0,0,0,0,0,0,0,0,0,0,0,0],"split_type":[0,0,0,0,0,0,0,0,0,0,0,0,0,0,0,0,0,0,0,0,0,0,0,0,0,0,0,0,0,0,0,0,0,0,0,0,0,0,0,0,0,0,0,0,0,0,0,0,0,0,0,0,0,0,0,0,0,0,0,0,0,0,0,0,0,0,0,0,0,0,0,0,0,0,0,0,0,0,0,0,0,0,0,0,0,0,0,0,0,0,0,0,0,0,0,0,0,0,0,0,0,0,0,0,0,0,0,0,0,0,0,0,0,0,0,0,0,0,0,0,0],"sum_hessian":[1.049866E6,8.42473E5,2.07393E5,6.957E5,1.46773E5,8.0229E4,1.27164E5,4.983E5,1.974E5,6.4377E4,8.2396E4,5.1754E4,2.8475E4,1.15608E5,1.1556E4,2.52978E5,2.45322E5,1.1774E5,7.966E4,4.1785E4,2.2592E4,4.5733E4,3.6663E4,2.152E4,3.0234E4,2.7648E4,8.27E2,8.3837E4,3.1771E4,1.756E3,9.8E3,1.7777E5,7.5208E4,1.25529E5,1.19793E5,8.665E4,3.109E4,3.6311E4,4.3349E4,1.6861E4,2.4924E4,1.3067E4,9.525E3,4.3036E4,2.697E3,3.3996E4,2.667E3,2.1519E4,1E0,3.0233E4,1E0,2.6697E4,9.51E2,6.57E2,1.7E2,4.4398E4,3.9439E4,1.386E4,1.7911E4,1.748E3,8E0,9.689E3,1.11E2,5.4797E4,1.22973E5,8E0,7.52E4,6.6516E4,5.9013E4,5.1793E4,6.8E4,4.5335E4,4.1315E4,9.817E3,2.1273E4,3.5744E4,5.67E2,8.075E3,3.5274E4,3.663E3,1.3198E4,1.3571E4,1.1353E4,7.003E3,6.064E3,3.827E3,5.698E3,4.1792E4,1.244E3,5.9E1,2.638E3,3.2439E4,1.557E3,2.435E3,2.32E2,1.3851E4,7.668E3,2.1126E4,9.107E3,2.5252E4,1.445E3,2E0,9.49E2,6.51E2,6E0,1.56E2,1.4E1,6.825E3,3.7573E4,2.5158E4,1.4281E4,1.0934E4,2.926E3,1.1106E4,6.805E3,4.9E1,1.699E3,4.677E3,5.012E3,4.6E1,6.5E1],"tree_param":{"num_deleted":"0","num_feature":"15","num_nodes":"121","size_leaf_vector":"0"}},{"base_weights":[1.2687706E-2,2.069967E-3,5.581893E-2,-1.9754488E-3,2.124501E-2,1.1191021E-2,8.367782E-2,-4.242129E-3,4.6752756E-3,7.852069E-3,3.735687E-2,3.7014794E-3,2.505652E-2,9.247059E-2,-1.2739871E-2,-5.5413423E-3,-1.5682152E-3,-1.6533696E-3,1.3336138E-2,8.8271743E-4,1.5442474E-2,5.154756E-2,2.0457096E-2,-2.45842E-3,8.085918E-3,2.7380943E-2,1.7062431E-2,6.67721E-2,1.4143112E-1,2.6088038E-1,-1.5483413E-2,-6.433098E-3,-3.974931E-3,4.1875253E-3,-4.5548156E-3,-5.479351E-3,9.3127484E-4,2.200261E-2,6.335996E-3,-6.790929E-3,2.5026912E-3,2.7490382E-3,1.94269E-2,5.7725526E-2,-2.2869797E-3,2.431918E-2,-1.40836025E-2,-2.4974348E-3,4.1857082E-1,8.058495E-3,4.1858795E-1,-9.231761E-3,2.7893957E-2,1.765805E-2,-1.9178899E-1,9.303891E-2,2.9399393E-2,2.0470689E-1,9.273735E-2,7.5192165E-1,-2.458269E-2,-1.3839535E-2,-1.3354304E-1,-6.767555E-3,-4.055047E-3,-7.0000845E-3,-3.474255E-3,-1.7513821E-3,9.646313E-3,-3.3923632E-3,-1.0677114E-2,-8.835513E-3,-4.4853706E-3,-2.5427085E-3,3.9093397E-3,1.6118895E-2,3.8101934E-2,6.207032E-3,1.7783299E-1,1.1214108E-1,-6.920744E-3,-1.3873262E-3,4.8345663E-3,6.4397356E-3,-4.557685E-3,1.0693547E-2,2.366883E-2,5.1807825E-2,1.1576479E-1,1.0268219E-1,-8.706918E-3,7.417718E-3,3.3286344E-2,-1.0109608E-2,-8.462703E-2,-2.5404687E-3,1.3012113E-1,7.879409E-3,4.792834E-2,-2.3497557E-2,2.270325E-3,2.4815911E-2,3.5024546E-2,4.8357215E-2,1.6250173E-2,-2.2814347E-1,-7.512431E-3,1.103216E-1,6.328328E-2,-3.431324E-3,6.8880506E-2,1.8210573E-1,3.1728753E-1,1.1815772E-1,3.366689E-2,3.0393642E-1,8.088625E-1,-1.6547874E-2,-1.4900279E-1,3.982075E-2,-1.5581487E-2,2.4208946E-4,-1.4672068E-1],"categories":[],"categories_nodes":[],"categories_segments":[],"categories_sizes":[],"default_left":[true,true,true,true,true,true,true,true,true,true,true,true,true,true,true,true,true,true,true,true,true,true,true,true,true,true,true,true,true,true,true,true,true,true,true,true,true,true,true,true,true,true,true,true,true,true,true,true,false,true,false,true,true,true,true,true,true,true,true,true,true,true,true,false,false,false,false,false,false,false,false,false,false,false,false,false,false,false,false,false,false,false,false,false,false,false,false,false,false,false,false,false,false,false,false,false,false,false,false,false,false,false,false,false,false,false,false,false,false,false,false,false,false,false,false,false,false,false,false,false,false,false,false],"id":11,"left_children":[1,3,5,7,9,11,13,15,17,19,21,23,25,27,29,31,33,35,37,39,41,43,45,47,49,51,53,55,57,59,61,63,65,67,69,71,73,75,77,79,81,83,85,87,89,91,93,95,-1,97,-1,99,101,103,105,107,109,111,113,115,117,119,121,-1,-1,-1,-1,-1,-1,-1,-1,-1,-1,-1,-1,-1,-1,-1,-1,-1,-1,-1,-1,-1,-1,-1,-1,-1,-1,-1,-1,-1,-1,-1,-1,-1,-1,-1,-1,-1,-1,-1,-1,-1,-1,-1,-1,-1,-1,-1,-1,-1,-1,-1,-1,-1,-1,-1,-1,-1,-1,-1,-1],"loss_changes":[4.807929E2,6.5351616E1,2.578487E2,1.0487759E1,3.1671371E1,8.277388E0,1.0825061E2,1.8025169E0,9.692782E0,4.23999E0,1.5976669E1,1.3978033E0,5.1898193E-1,1.4722021E2,8.0153885E0,4.877491E-1,2.9166627E0,1.0104133E0,4.5293436E0,5.1946324E-1,1.9403486E0,1.2044472E1,4.0571413E0,3.5455793E-1,3.369813E-1,4.0701675E-1,7.8707826E-1,7.532901E1,1.2408002E2,1.4876945E1,2.0489476E0,1.7695141E-1,1.9184947E-1,1.8791655E0,7.949691E-1,1.3738859E-1,6.3091433E-1,3.1593742E0,9.1239417E-1,1.13235086E-1,3.1298456E-1,2.4723494E-1,1.0814972E0,1.1151619E1,2.5138507E0,4.145323E0,8.567022E-1,1.2314738E-1,0E0,2.154969E-1,0E0,4.9279273E-2,4.6788216E-1,2.7076924E-1,1.1887312E-1,2.316803E1,4.105715E1,4.45083E1,3.417679E1,7.4899673E-1,6.551343E-2,9.748956E-1,2.5566626E-1,0E0,0E0,0E0,0E0,0E0,0E0,0E0,0E0,0E0,0E0,0E0,0E0,0E0,0E0,0E0,0E0,0E0,0E0,0E0,0E0,0E0,0E0,0E0,0E0,0E0,0E0,0E0,0E0,0E0,0E0,0E0,0E0,0E0,0E0,0E0,0E0,0E0,0E0,0E0,0E0,0E0,0E0,0E0,0E0,0E0,0E0,0E0,0E0,0E0,0E0,0E0,0E0,0E0,0E0,0E0,0E0,0E0,0E0,0E0,0E0],"parents":[2147483647,0,0,1,1,2,2,3,3,4,4,5,5,6,6,7,7,8,8,9,9,10,10,11,11,12,12,13,13,14,14,15,15,16,16,17,17,18,18,19,19,20,20,21,21,22,22,23,23,24,24,25,25,26,26,27,27,28,28,29,29,30,30,31,31,32,32,33,33,34,34,35,35,36,36,37,37,38,38,39,39,40,40,41,41,42,42,43,43,44,44,45,45,46,46,47,47,49,49,51,51,52,52,53,53,54,54,55,55,56,56,57,57,58,58,59,59,60,60,61,61,62,62],"right_children":[2,4,6,8,10,12,14,16,18,20,22,24,26,28,30,32,34,36,38,40,42,44,46,48,50,52,54,56,58,60,62,64,66,68,70,72,74,76,78,80,82,84,86,88,90,92,94,96,-1,98,-1,100,102,104,106,108,110,112,114,116,118,120,122,-1,-1,-1,-1,-1,-1,-1,-1,-1,-1,-1,-1,-1,-1,-1,-1,-1,-1,-1,-1,-1,-1,-1,-1,-1,-1,-1,-1,-1,-1,-1,-1,-1,-1,-1,-1,-1,-1,-1,-1,-1,-1,-1,-1,-1,-1,-1,-1,-1,-1,-1,-1,-1,-1,-1,-1,-1,-1,-1,-1],"split_conditions":[6.725E-1,4.025E-1,4.5E0,2.405E-1,6.5E0,2.5E0,5.55E1,3.5E0,3.5E0,2.5E0,1.5E0,5E-1,4.5E0,1.05E1,6.745E-1,7.04E-1,6.5E0,1.5E0,5E-1,2.565E-1,6.5E0,5.45E1,6.8E2,4.166E3,1.5E1,1.3949999E-1,9.0199995E-1,7.5E0,5E-1,9.5E1,5.5E0,1.8849999E-1,5.85E-2,1.255E-1,5.5E0,5E-1,7.4450004E-1,1.65E1,9.685E-1,2.5E0,5E-1,2.5E0,6.395E-1,1.55E1,4.48E-1,4.3449998E-1,5.5E0,5.5E0,1.2557125E-1,3.75E1,1.2557639E-1,2.85E1,4.5E0,5E-1,1.475E2,5E-1,5E-1,4.62E2,5E-1,8.765E-1,6.5E0,6.865E-1,3.75E-1,-2.0302667E-3,-1.2165142E-3,-2.1000255E-3,-1.0422766E-3,-5.2541465E-4,2.893894E-3,-1.017709E-3,-3.2031343E-3,-2.650654E-3,-1.3456112E-3,-7.628126E-4,1.172802E-3,4.835669E-3,1.143058E-2,1.8621098E-3,5.33499E-2,3.3642326E-2,-2.0762233E-3,-4.1619787E-4,1.45037E-3,1.9319208E-3,-1.3673055E-3,3.2080642E-3,7.100649E-3,1.5542348E-2,3.472944E-2,3.0804658E-2,-2.6120755E-3,2.2253154E-3,9.985903E-3,-3.0328825E-3,-2.538811E-2,-7.6214067E-4,3.903634E-2,2.363823E-3,1.4378503E-2,-7.0492676E-3,6.8109756E-4,7.444774E-3,1.0507364E-2,1.4507165E-2,4.875052E-3,-6.8443045E-2,-2.2537294E-3,3.309648E-2,1.8984985E-2,-1.0293972E-3,2.0664152E-2,5.463172E-2,9.518626E-2,3.5447318E-2,1.0100068E-2,9.118093E-2,2.4265876E-1,-4.9643624E-3,-4.470084E-2,1.1946226E-2,-4.6744463E-3,7.262684E-5,-4.4016205E-2],"split_indices":[5,5,9,5,9,9,0,9,4,9,14,9,0,4,5,6,14,4,14,6,0,0,9,14,12,6,5,0,8,0,12,5,5,5,12,4,6,8,6,8,9,14,6,8,5,6,12,12,0,0,0,1,1,8,14,8,13,9,14,6,12,5,6,0,0,0,0,0,0,0,0,0,0,0,0,0,0,0,0,0,0,0,0,0,0,0,0,0,0,0,0,0,0,0,0,0,0,0,0,0,0,0,0,0,0,0,0,0,0,0,0,0,0,0,0,0,0,0,0,0,0,0,0],"split_type":[0,0,0,0,0,0,0,0,0,0,0,0,0,0,0,0,0,0,0,0,0,0,0,0,0,0,0,0,0,0,0,0,0,0,0,0,0,0,0,0,0,0,0,0,0,0,0,0,0,0,0,0,0,0,0,0,0,0,0,0,0,0,0,0,0,0,0,0,0,0,0,0,0,0,0,0,0,0,0,0,0,0,0,0,0,0,0,0,0,0,0,0,0,0,0,0,0,0,0,0,0,0,0,0,0,0,0,0,0,0,0,0,0,0,0,0,0,0,0,0,0,0,0],"sum_hessian":[1.049866E6,8.42473E5,2.07393E5,6.957E5,1.46773E5,7.9708E4,1.27685E5,5.18863E5,1.76837E5,8.015E4,6.6623E4,5.1754E4,2.7954E4,1.17014E5,1.0671E4,3.49194E5,1.69669E5,1.02176E5,7.4661E4,4.1785E4,3.8365E4,3.6213E4,3.041E4,2.152E4,3.0234E4,2.1655E4,6.299E3,7.6738E4,4.0276E4,1.05E2,1.0566E4,2.22514E5,1.2668E5,5.7963E4,1.11706E5,4.1195E4,6.0981E4,3.3359E4,4.1302E4,7.283E3,3.4502E4,9.166E3,2.9199E4,3.2485E4,3.728E3,2.7352E4,3.058E3,2.1519E4,1E0,3.0233E4,1E0,2.99E2,2.1356E4,6.282E3,1.7E1,4.5064E4,3.1674E4,1.7514E4,2.2762E4,3.8E1,6.7E1,1.0422E4,1.44E2,1.95076E5,2.7438E4,1.7987E4,1.08693E5,2.7761E4,3.0202E4,9.3882E4,1.7824E4,9.411E3,3.1784E4,2.8147E4,3.2834E4,2.4432E4,8.927E3,4.1272E4,3E1,7E0,7.276E3,1.2931E4,2.1571E4,6.09E3,3.076E3,9.547E3,1.9652E4,2.9481E4,3.004E3,2.14E2,3.514E3,9.482E3,1.787E4,2.896E3,1.62E2,2.1513E4,6E0,3.0099E4,1.34E2,1.33E2,1.66E2,1.492E4,6.436E3,2.74E2,6.008E3,1.4E1,3E0,2.8505E4,1.6559E4,1.7294E4,1.438E4,1.4588E4,2.926E3,1.5913E4,6.849E3,5E0,3.3E1,6.4E1,3E0,3.27E2,1.0095E4,1.3E1,1.31E2],"tree_param":{"num_deleted":"0","num_feature":"15","num_nodes":"123","size_leaf_vector":"0"}},{"base_weights":[8.882296E-3,7.9459726E-4,3.7080646E-2,-2.6589753E-3,8.799798E-3,7.181007E-3,5.6278694E-2,-3.5634248E-3,2.3354337E-4,1.1684836E-3,1.7406108E-2,2.079789E-3,1.7057788E-2,6.567895E-2,9.695427E-3,-3.6100189E-3,2.4849756E-2,-2.2812882E-3,4.136051E-3,-1.1890057E-3,6.086232E-3,2.5411703E-2,8.855824E-3,-2.0073494E-3,5.2983672E-3,1.7026963E-2,4.887997E-1,4.6956103E-2,9.029713E-2,1.8007325E-2,-1.6264461E-2,-5.0271093E-3,-2.836289E-3,5.8072016E-2,-3.7024762E-2,-4.1398983E-3,-1.0283756E-3,2.9423496E-2,3.3443903E-3,-3.246315E-3,7.976418E-4,9.38136E-3,2.0902602E-3,2.2838969E-2,6.300791E-2,-2.019298E-3,1.2273322E-2,-2.0341938E-3,3.557852E-1,5.2774427E-3,3.5579976E-1,1.7782545E-2,-2.220176E-3,6.605378E-2,5.0362847E-3,1.069333E-1,-5.8422396E-3,1.098517E-2,1.2214029E-1,-1.4711821E-2,-1.5982151E-1,-5.0392263E-3,4.810571E-2,-8.792217E-4,-4.0194364E-3,-5.2393675E-3,1.4666949E-1,-1.367168E-2,-8.804663E-2,-6.235594E-3,-3.2809349E-3,-2.9291518E-3,9.65867E-4,-9.565369E-5,6.800938E-2,4.0003704E-3,-2.5847355E-2,-6.06525E-3,-2.373472E-3,-5.7462435E-3,1.4563174E-3,9.272245E-3,1.7702647E-1,2.039432E-3,3.2476237E-1,2.5044058E-2,-6.949118E-3,7.631356E-2,-9.863247E-3,-1.313665E-2,4.095127E-4,1.3191827E-2,-2.9978242E-2,-3.4612205E-3,1.6820392E-3,6.4508365E-3,1.0699137E-3,1.811051E-2,-9.72037E-3,-6.3555357E-3,2.7755018E-2,3.9849762E-2,7.56547E-2,7.195883E-2,-2.54813E-2,1.4385663E-1,8.196357E-2,5.9408177E-2,-1.16109485E-2,-1.4281105E-2,2.02391E-2,8.7466344E-2,3.0632934E-1,-7.3997304E-2,-1.09090265E-2,-1.3605998E-1,-3.589192E-1],"categories":[],"categories_nodes":[],"categories_segments":[],"categories_sizes":[],"default_left":[true,true,true,true,true,true,true,true,true,true,true,true,true,true,true,true,true,true,true,true,true,true,true,true,true,true,false,true,true,true,true,true,true,true,true,true,true,true,true,true,true,true,true,true,true,true,true,true,false,true,false,true,true,true,true,true,true,true,true,true,true,false,false,false,false,false,false,false,false,false,false,false,false,false,false,false,false,false,false,false,false,false,false,false,false,false,false,false,false,false,false,false,false,false,false,false,false,false,false,false,false,false,false,false,false,false,false,false,false,false,false,false,false,false,false,false,false],"id":12,"left_children":[1,3,5,7,9,11,13,15,17,19,21,23,25,27,29,31,33,35,37,39,41,43,45,47,49,51,-1,53,55,57,59,61,63,65,67,69,71,73,75,77,79,81,83,85,87,89,91,93,-1,95,-1,97,99,101,103,105,107,109,111,113,115,-1,-1,-1,-1,-1,-1,-1,-1,-1,-1,-1,-1,-1,-1,-1,-1,-1,-1,-1,-1,-1,-1,-1,-1,-1,-1,-1,-1,-1,-1,-1,-1,-1,-1,-1,-1,-1,-1,-1,-1,-1,-1,-1,-1,-1,-1,-1,-1,-1,-1,-1,-1,-1,-1,-1,-1],"loss_changes":[2.3943239E2,2.2555897E1,1.3432019E2,1.4911256E0,1.6149736E1,4.610064E0,6.2400604E1,5.7492495E-1,1.3324764E0,1.5110048E0,7.9102135E0,7.937435E-1,4.4481945E-1,5.464966E1,5.1635957E0,4.7528696E-1,1.4636898E0,1.9226286E-1,1.0650365E0,3.6007628E-1,5.5607224E-1,5.7714043E0,2.0769563E0,2.5604612E-1,2.456891E-1,4.5322227E-1,0E0,5.3921326E1,8.192459E1,1.3253075E1,1.291315E0,9.880543E-2,6.4926004E-1,2.5978413E0,2.9548424E-1,5.9826553E-2,1.8695565E-1,1.8395275E0,9.8804903E-1,1.0647547E-1,1.9319591E-1,4.217608E-1,3.1239682E-1,3.6694927E0,3.7065554E0,3.6083236E-1,1.6505609E0,1.409745E-1,0E0,1.6664451E-1,0E0,2.7064037E-1,1.4619915E-1,1.1638458E1,4.305791E1,4.0246796E1,2.8452253E0,3.9708905E0,7.28582E0,1.2939553E0,2.4447918E-1,0E0,0E0,0E0,0E0,0E0,0E0,0E0,0E0,0E0,0E0,0E0,0E0,0E0,0E0,0E0,0E0,0E0,0E0,0E0,0E0,0E0,0E0,0E0,0E0,0E0,0E0,0E0,0E0,0E0,0E0,0E0,0E0,0E0,0E0,0E0,0E0,0E0,0E0,0E0,0E0,0E0,0E0,0E0,0E0,0E0,0E0,0E0,0E0,0E0,0E0,0E0,0E0,0E0,0E0,0E0,0E0],"parents":[2147483647,0,0,1,1,2,2,3,3,4,4,5,5,6,6,7,7,8,8,9,9,10,10,11,11,12,12,13,13,14,14,15,15,16,16,17,17,18,18,19,19,20,20,21,21,22,22,23,23,24,24,25,25,27,27,28,28,29,29,30,30,31,31,32,32,33,33,34,34,35,35,36,36,37,37,38,38,39,39,40,40,41,41,42,42,43,43,44,44,45,45,46,46,47,47,49,49,51,51,52,52,53,53,54,54,55,55,56,56,57,57,58,58,59,59,60,60],"right_children":[2,4,6,8,10,12,14,16,18,20,22,24,26,28,30,32,34,36,38,40,42,44,46,48,50,52,-1,54,56,58,60,62,64,66,68,70,72,74,76,78,80,82,84,86,88,90,92,94,-1,96,-1,98,100,102,104,106,108,110,112,114,116,-1,-1,-1,-1,-1,-1,-1,-1,-1,-1,-1,-1,-1,-1,-1,-1,-1,-1,-1,-1,-1,-1,-1,-1,-1,-1,-1,-1,-1,-1,-1,-1,-1,-1,-1,-1,-1,-1,-1,-1,-1,-1,-1,-1,-1,-1,-1,-1,-1,-1,-1,-1,-1,-1,-1,-1],"split_conditions":[6.135E-1,2.825E-1,5.5E0,1.855E-1,5.5E0,2.5E0,5E-1,5.905E2,4.5E0,1.5E0,1.5E0,1.5E0,1.9E1,1.15E1,6.06E2,5E-1,1.168E3,4.2799997E-1,1.875E-1,1.5E0,2.5E0,1.15E1,3.0949998E-1,4.166E3,1.3E1,9.5E0,1.4663991E-1,1.75E1,5.55E1,1.05E1,7.5E0,2.13E2,1E0,1.5E2,5.5E0,1.125E-1,1.35E1,3.85E1,9.45E1,5E-1,4.5E0,1.85E1,4.05E1,2.285E2,4.945E2,1.3049999E-1,2.4855E3,4.5E0,1.06735565E-1,3.5E0,1.0673993E-1,3.15E1,3.5E0,9.82E-1,8.8199997E-1,5E-1,6.8700004E-1,4.3150002E-1,8.265E-1,4.45E1,8.845E-1,-1.511768E-3,1.4431713E-2,-2.6376653E-4,-1.205831E-3,-1.5718103E-3,4.400085E-2,-4.101504E-3,-2.641399E-2,-1.8706783E-3,-9.842805E-4,-8.787456E-4,2.8976012E-4,-2.8696108E-5,2.0402813E-2,1.2001111E-3,-7.7542067E-3,-1.8195751E-3,-7.120416E-4,-1.7238731E-3,4.3689524E-4,2.7816736E-3,5.3107943E-2,6.1182963E-4,9.742872E-2,7.5132176E-3,-2.0847355E-3,2.289407E-2,-2.9589743E-3,-3.9409953E-3,1.2285382E-4,3.957548E-3,-8.993473E-3,-1.0383662E-3,5.046118E-4,1.935251E-3,3.2097413E-4,5.4331534E-3,-2.9161111E-3,-1.9066607E-3,8.326506E-3,1.1954929E-2,2.2696411E-2,2.1587651E-2,-7.64439E-3,4.315699E-2,2.4589071E-2,1.7822454E-2,-3.4832847E-3,-4.2843316E-3,6.07173E-3,2.6239904E-2,9.189881E-2,-2.2199191E-2,-3.272708E-3,-4.0818E-2,-1.0767577E-1],"split_indices":[5,5,9,5,9,4,14,9,9,9,14,4,12,1,9,9,9,6,5,4,14,10,6,14,12,14,0,9,1,10,12,1,14,0,12,6,0,0,0,4,0,10,12,9,9,6,13,1,0,0,0,1,9,5,5,8,6,6,5,0,5,0,0,0,0,0,0,0,0,0,0,0,0,0,0,0,0,0,0,0,0,0,0,0,0,0,0,0,0,0,0,0,0,0,0,0,0,0,0,0,0,0,0,0,0,0,0,0,0,0,0,0,0,0,0,0,0],"split_type":[0,0,0,0,0,0,0,0,0,0,0,0,0,0,0,0,0,0,0,0,0,0,0,0,0,0,0,0,0,0,0,0,0,0,0,0,0,0,0,0,0,0,0,0,0,0,0,0,0,0,0,0,0,0,0,0,0,0,0,0,0,0,0,0,0,0,0,0,0,0,0,0,0,0,0,0,0,0,0,0,0,0,0,0,0,0,0,0,0,0,0,0,0,0,0,0,0,0,0,0,0,0,0,0,0,0,0,0,0,0,0,0,0,0,0,0,0],"sum_hessian":[1.049866E6,8.15865E5,2.34001E5,5.69971E5,2.45894E5,9.1499E4,1.42502E5,4.34202E5,1.35769E5,1.3033E5,1.15564E5,6.0337E4,3.1162E4,1.18574E5,2.3928E4,4.33492E5,7.1E2,8.2564E4,5.3205E4,8.8098E4,4.2232E4,5.9682E4,5.5882E4,2.6582E4,3.3755E4,3.1161E4,1E0,6.7353E4,5.1221E4,1.8125E4,5.803E3,1.53094E5,2.80398E5,4.62E2,2.48E2,3.3245E4,4.9319E4,1.614E3,5.1591E4,4.3279E4,4.4819E4,2.3145E4,1.9087E4,5.5861E4,3.821E3,1.3362E4,4.252E4,2.6581E4,1E0,3.3754E4,1E0,2.9984E4,1.177E3,4.6272E4,2.1081E4,4.3665E4,7.556E3,1.6981E4,1.144E3,5.742E3,6.1E1,1.5306E5,3.4E1,1.05647E5,1.74751E5,2.7E2,1.92E2,1.71E2,7.7E1,9.663E3,2.3582E4,2.5251E4,2.4068E4,9.15E2,6.99E2,5.0458E4,1.133E3,1.0231E4,3.3048E4,4.098E3,4.0721E4,2.3131E4,1.4E1,1.9085E4,2E0,5.2011E4,3.85E3,3.231E3,5.9E2,2.395E3,1.0967E4,4.1616E4,9.04E2,1.9206E4,7.375E3,2.6393E4,7.361E3,2.9631E4,3.53E2,1.035E3,1.42E2,1.2409E4,3.3863E4,6.602E3,1.4479E4,1.7614E4,2.6051E4,6.13E2,6.943E3,4.552E3,1.2429E4,9.64E2,1.8E2,3.45E2,5.397E3,5.6E1,5E0],"tree_param":{"num_deleted":"0","num_feature":"15","num_nodes":"117","size_leaf_vector":"0"}},{"base_weights":[6.2182243E-3,-3.3511088E-4,2.3880554E-2,-1.8612236E-3,4.10789E-3,8.546289E-3,3.888977E-2,-3.2015254E-3,-6.807198E-4,2.918619E-3,2.5857557E-2,1.6468557E-3,1.5767522E-2,4.4827916E-2,-8.0069695E-3,-3.5882678E-3,-1.7810329E-3,-8.970276E-4,7.275873E-2,-1.1838609E-3,5.849855E-3,6.0455073E-2,5.334978E-3,-1.0793413E-3,3.6387667E-3,8.5065095E-3,2.1456916E-2,3.363859E-2,7.113868E-2,-7.313333E-3,-1.4541934E-1,-3.3471454E-3,-5.4877186E-3,1.8000253E-2,-2.40506E-3,-1.1648062E-3,8.6216265E-3,2.9361764E-1,-2.3384053E-2,-3.219484E-3,5.5869983E-5,5.7772617E-3,2.512122E-1,1.9125352E-2,9.395328E-2,-2.6565006E-2,1.3210627E-2,-1.098665E-3,1.4576538E-1,3.6159477E-3,2.3962493E-1,3.0979656E-3,1.3537998E-2,1.3839545E-2,3.1248566E-2,5.9230756E-2,2.3981536E-2,3.764054E-2,1.04371615E-1,1.0678339E-1,-7.91282E-3,-6.180364E-2,-1.96025E-1,-3.3920824E-3,1.2986088E-2,-6.3255155E-3,2.062585E-3,-9.088616E-3,5.0525166E-2,-2.6831408E-3,9.930854E-3,-2.3460302E-3,4.2219638E-4,1.6101796E-2,-6.1267857E-3,1.0241191E-1,3.244944E-1,-4.8495654E-2,-1.8756492E-2,-3.253277E-3,4.9311978E-1,-2.9665257E-3,1.292178E-3,-9.542963E-4,7.9553025E-3,1.287393E-1,7.6047164E-1,7.489006E-2,4.3792077E-3,1.3872615E-1,3.722973E-2,-8.121938E-3,-3.11586E-2,1.3367036E-1,3.808833E-3,-7.215978E-4,-8.28265E-3,3.024174E-1,-7.2577675E-3,4.104363E-3,-4.590894E-3,-8.710599E-3,4.9231577E-1,2.4869647E-2,2.0000364E-3,1.4496214E-2,-7.3682874E-2,1.1938848E-2,1.8047748E-2,-4.6152216E-3,3.502326E-2,9.066067E-3,6.58664E-2,1.1239447E-2,3.617219E-2,2.5037631E-2,8.598285E-2,4.169803E-1,9.136827E-2,3.404013E-1,-2.2586072E-2,-7.025095E-3,-6.633216E-2,-8.607654E-2,2.1774635E-2,-2.1916041E-1,-1.0449948E-1],"categories":[],"categories_nodes":[],"categories_segments":[],"categories_sizes":[],"default_left":[true,true,true,true,true,true,true,true,true,true,true,true,true,true,true,true,true,true,true,true,true,true,true,true,true,true,true,true,true,true,true,true,true,true,true,true,true,true,true,true,true,true,true,true,true,true,true,true,true,true,true,true,true,true,true,true,true,true,true,true,true,true,true,false,false,false,false,false,false,false,false,false,false,false,false,false,false,false,false,false,false,false,false,false,false,false,false,false,false,false,false,false,false,false,false,false,false,false,false,false,false,false,false,false,false,false,false,false,false,false,false,false,false,false,false,false,false,false,false,false,false,false,false,false,false,false,false],"id":13,"left_children":[1,3,5,7,9,11,13,15,17,19,21,23,25,27,29,31,33,35,37,39,41,43,45,47,49,51,53,55,57,59,61,63,65,67,69,71,73,75,77,79,81,83,85,87,89,91,93,95,97,99,101,103,105,107,109,111,113,115,117,119,121,123,125,-1,-1,-1,-1,-1,-1,-1,-1,-1,-1,-1,-1,-1,-1,-1,-1,-1,-1,-1,-1,-1,-1,-1,-1,-1,-1,-1,-1,-1,-1,-1,-1,-1,-1,-1,-1,-1,-1,-1,-1,-1,-1,-1,-1,-1,-1,-1,-1,-1,-1,-1,-1,-1,-1,-1,-1,-1,-1,-1,-1,-1,-1,-1,-1],"loss_changes":[1.2151915E2,5.192184E0,6.539116E1,9.018254E-1,5.0639677E0,7.0019665E0,3.998474E1,1.4663005E-1,4.814221E0,2.232258E0,7.206485E0,3.9029345E-1,2.836544E0,3.751709E1,1.5371169E0,9.6069574E-2,7.051606E-1,7.701935E-1,1.8905117E1,1.952278E-1,1.9270222E0,5.2301226E0,1.6012082E0,8.626364E-2,2.2276628E-1,8.209479E-1,2.8711529E0,2.2098038E1,4.2328186E1,1.0992048E0,3.3063066E-1,1.3668537E-1,1.4949381E-1,1.5396764E0,1.8998742E-1,5.5094194E-1,9.122296E-1,1.5607986E0,7.1253985E-2,4.927284E-1,1.7966014E-1,1.5869651E0,1.8979533E0,1.3918504E0,5.2951393E0,1.06663585E-1,5.7878904E0,8.218308E-2,9.808041E-2,1.664694E-1,2.5529683E-1,3.475349E-1,1.3072834E0,1.7300034E-1,2.280552E0,8.153847E0,1.008437E1,1.1536505E1,7.755382E1,2.546422E0,8.280028E-1,6.679227E-2,8.297193E-2,0E0,0E0,0E0,0E0,0E0,0E0,0E0,0E0,0E0,0E0,0E0,0E0,0E0,0E0,0E0,0E0,0E0,0E0,0E0,0E0,0E0,0E0,0E0,0E0,0E0,0E0,0E0,0E0,0E0,0E0,0E0,0E0,0E0,0E0,0E0,0E0,0E0,0E0,0E0,0E0,0E0,0E0,0E0,0E0,0E0,0E0,0E0,0E0,0E0,0E0,0E0,0E0,0E0,0E0,0E0,0E0,0E0,0E0,0E0,0E0,0E0,0E0,0E0,0E0],"parents":[2147483647,0,0,1,1,2,2,3,3,4,4,5,5,6,6,7,7,8,8,9,9,10,10,11,11,12,12,13,13,14,14,15,15,16,16,17,17,18,18,19,19,20,20,21,21,22,22,23,23,24,24,25,25,26,26,27,27,28,28,29,29,30,30,31,31,32,32,33,33,34,34,35,35,36,36,37,37,38,38,39,39,40,40,41,41,42,42,43,43,44,44,45,45,46,46,47,47,48,48,49,49,50,50,51,51,52,52,53,53,54,54,55,55,56,56,57,57,58,58,59,59,60,60,61,61,62,62],"right_children":[2,4,6,8,10,12,14,16,18,20,22,24,26,28,30,32,34,36,38,40,42,44,46,48,50,52,54,56,58,60,62,64,66,68,70,72,74,76,78,80,82,84,86,88,90,92,94,96,98,100,102,104,106,108,110,112,114,116,118,120,122,124,126,-1,-1,-1,-1,-1,-1,-1,-1,-1,-1,-1,-1,-1,-1,-1,-1,-1,-1,-1,-1,-1,-1,-1,-1,-1,-1,-1,-1,-1,-1,-1,-1,-1,-1,-1,-1,-1,-1,-1,-1,-1,-1,-1,-1,-1,-1,-1,-1,-1,-1,-1,-1,-1,-1,-1,-1,-1,-1,-1,-1,-1,-1,-1,-1],"split_conditions":[5.065E-1,2.825E-1,7.5E0,1.125E-1,4.35E1,2.5E0,5.55E1,7.75E1,1.54E2,1.5E0,5.45E1,1.5E0,9.7650003E-1,1.35E1,1.55E1,6.45E1,7.85E1,2.55E1,1.695E2,5.5E0,3.15E1,4.75E1,6.15E1,4.201E3,1.2938E4,6.5E0,4.5E0,7.5E0,8.96E-1,5.08E-1,5.7850003E-1,5.3035E3,9.55E-2,6.3999996E-2,1.08500004E-1,7.135E-1,1.5E0,4.335E-1,1.049E4,8.5E0,3.675E-1,4.385E-1,4.975E-1,4.45E1,4.15E1,6.5E0,6.25E1,1.25E1,1.295E2,1.25E1,8.45E1,5E-1,8.77E-1,4.5E0,4.4300002E-1,8.62E-1,2.5E0,8.5E0,9.045E-1,6.75E1,5.5E0,8.627E3,6.455E2,-1.0176247E-3,3.8958266E-3,-1.8976547E-3,6.187755E-4,-2.726585E-3,1.5157551E-2,-8.049423E-4,2.9792562E-3,-7.038091E-4,1.2665892E-4,4.830539E-3,-1.8380358E-3,3.0723574E-2,9.7348325E-2,-1.4548697E-2,-5.6269476E-3,-9.759831E-4,1.4793594E-1,-8.8995777E-4,3.8765345E-4,-2.862889E-4,2.386591E-3,3.862179E-2,2.281415E-1,2.2467019E-2,1.3137624E-3,4.1617844E-2,1.11689195E-2,-2.4365815E-3,-9.34758E-3,4.010111E-2,1.1426499E-3,-2.1647936E-4,-2.4847952E-3,9.072522E-2,-2.1773304E-3,1.2313089E-3,-1.3772682E-3,-2.6131796E-3,1.4769474E-1,7.4608945E-3,6.00011E-4,4.3488643E-3,-2.2104863E-2,3.5816545E-3,5.414325E-3,-1.3845665E-3,1.0506978E-2,2.71982E-3,1.9759921E-2,3.371834E-3,1.0851657E-2,7.51129E-3,2.5794856E-2,1.250941E-1,2.7410483E-2,1.0212039E-1,-6.775822E-3,-2.1075287E-3,-1.989965E-2,-2.5822964E-2,6.5323906E-3,-6.5748125E-2,-3.1349845E-2],"split_indices":[5,5,9,5,0,9,0,0,0,9,0,4,5,4,12,0,0,10,0,0,4,0,0,14,13,0,0,0,5,5,6,14,5,5,5,6,12,6,13,12,6,6,5,0,8,9,0,0,0,14,0,8,5,1,6,5,13,10,5,0,12,13,9,0,0,0,0,0,0,0,0,0,0,0,0,0,0,0,0,0,0,0,0,0,0,0,0,0,0,0,0,0,0,0,0,0,0,0,0,0,0,0,0,0,0,0,0,0,0,0,0,0,0,0,0,0,0,0,0,0,0,0,0,0,0,0,0],"split_type":[0,0,0,0,0,0,0,0,0,0,0,0,0,0,0,0,0,0,0,0,0,0,0,0,0,0,0,0,0,0,0,0,0,0,0,0,0,0,0,0,0,0,0,0,0,0,0,0,0,0,0,0,0,0,0,0,0,0,0,0,0,0,0,0,0,0,0,0,0,0,0,0,0,0,0,0,0,0,0,0,0,0,0,0,0,0,0,0,0,0,0,0,0,0,0,0,0,0,0,0,0,0,0,0,0,0,0,0,0,0,0,0,0,0,0,0,0,0,0,0,0,0,0,0,0,0,0],"sum_hessian":[1.049866E6,7.65748E5,2.84118E5,5.69971E5,1.95777E5,1.40538E5,1.4358E5,2.66919E5,3.03052E5,1.85628E5,1.0149E4,7.1871E4,6.8667E4,1.27443E5,1.6137E4,2.09798E5,5.7121E4,3.02163E5,8.89E2,7.7359E4,1.08269E5,3.778E3,6.371E3,3.0343E4,4.1528E4,3.0168E4,3.8499E4,8.9418E4,3.8025E4,1.6057E4,8E1,1.86168E5,2.363E4,1.746E3,5.5375E4,2.93896E5,8.267E3,2.69E2,6.2E2,2.928E4,4.8079E4,1.08238E5,3.1E1,1.692E3,2.086E3,1.261E3,5.11E3,3.034E4,3E0,4.1525E4,3E0,1.454E4,1.5628E4,2.1655E4,1.6844E4,2.4496E4,6.4922E4,1.8938E4,1.9087E4,8.3E1,1.5974E4,3.1E1,4.9E1,1.85658E5,5.1E2,2.127E4,2.36E3,9.53E2,7.93E2,5.4155E4,1.22E3,1.68488E5,1.25408E5,5.485E3,2.782E3,3.8E1,2.31E2,9.5E1,5.25E2,2.9279E4,1E0,1.3957E4,3.4122E4,2.646E4,8.1778E4,2.6E1,5E0,3.53E2,1.339E3,1.165E3,9.21E2,2.52E2,1.009E3,3.69E2,4.741E3,2.8828E4,1.512E3,1E0,2E0,3.9193E4,2.332E3,2E0,1E0,6.97E2,1.3843E4,1.5459E4,1.69E2,1.492E4,6.735E3,1.604E3,1.524E4,2.862E3,2.1634E4,3.1744E4,3.3178E4,1.5023E4,3.915E3,7.61E2,1.8326E4,2.9E1,5.4E1,1.5736E4,2.38E2,2.4E1,7E0,3.8E1,1.1E1],"tree_param":{"num_deleted":"0","num_feature":"15","num_nodes":"127","size_leaf_vector":"0"}},{"base_weights":[4.353773E-3,3.602975E-4,1.8651098E-2,-8.361197E-4,7.021855E-3,6.304084E-3,3.0840278E-2,-1.6556281E-3,1.9024863E-3,3.6386342E-3,1.4082946E-2,9.4428216E-4,1.2447347E-2,3.7767086E-2,-1.8277693E-3,-3.3670187E-3,-1.3057922E-3,6.722628E-3,-9.711415E-4,5.151607E-2,3.4182463E-3,1.8831886E-2,-2.071493E-3,-3.8402603E-4,4.1171596E-3,8.407146E-3,1.7069582E-2,2.4668712E-2,5.0168287E-2,3.675619E-3,-3.5444513E-2,-3.40736E-3,1.0871396E-2,-1.8398439E-3,-2.8081908E-4,4.2137713E-3,1.5745709E-2,9.366249E-5,-7.885261E-3,4.267009E-2,2.4153627E-1,3.5307219E-3,-5.7119954E-2,1.557808E-2,5.9177157E-2,-2.5611691E-2,5.220162E-3,7.579596E-2,-4.2313023E-4,-1.3532749E-3,1.0164702E-2,9.109533E-3,-4.443956E-3,2.4685943E-2,9.102348E-3,4.4781882E-2,-7.3627423E-4,6.445328E-2,1.25836935E-2,-2.0902943E-2,9.914171E-3,-2.6971327E-2,-1.5615627E-1,-3.5193984E-3,-1.639667E-4,7.5610414E-2,3.2420756E-4,-1.8429264E-3,8.8439554E-2,-1.9205105E-2,-7.722765E-5,4.0208343E-3,1.0218427E-1,8.742574E-3,5.6376893E-2,-2.6518556E-3,3.3685304E-3,-1.8288515E-3,-4.0855255E-2,4.999642E-2,-1.0378496E-1,3.5287303E-1,3.2073308E-2,-3.9576753E-3,4.353972E-3,2.58504E-1,-6.289756E-2,8.6426604E-5,2.0400884E-2,3.197823E-2,1.5102197E-1,-2.976208E-2,9.962158E-2,1.6554901E-1,2.5503538E-3,-1.3323418E-2,2.0600435E-1,-2.0884045E-3,9.123282E-4,-1.4079775E-3,2.570548E-1,9.9081835E-3,1.6538386E-1,1.1083989E-1,9.033355E-3,-6.8984856E-3,2.6222136E-2,2.527055E-2,-4.608639E-2,-3.177139E-3,1.38959475E-2,5.241624E-2,3.168145E-2,4.927221E-2,-2.1368176E-2,5.5266693E-2,3.195583E-1,-4.3618668E-2,2.9462183E-2,-2.9819101E-2,1.2467611E-2,1.970485E-2,-8.618942E-3,-1.567065E-1,-2.0604622E-2,-1.0645136E-2,-1.8981351E-1],"categories":[],"categories_nodes":[],"categories_segments":[],"categories_sizes":[],"default_left":[true,true,true,true,true,true,true,true,true,true,true,true,true,true,true,true,true,true,true,true,true,true,true,true,true,true,true,true,true,true,true,true,true,true,true,true,true,true,true,true,true,true,true,true,true,true,true,true,true,true,true,true,true,true,true,true,true,true,true,true,true,true,true,false,false,false,false,false,false,false,false,false,false,false,false,false,false,false,false,false,false,false,false,false,false,false,false,false,false,false,false,false,false,false,false,false,false,false,false,false,false,false,false,false,false,false,false,false,false,false,false,false,false,false,false,false,false,false,false,false,false,false,false,false,false,false,false],"id":14,"left_children":[1,3,5,7,9,11,13,15,17,19,21,23,25,27,29,31,33,35,37,39,41,43,45,47,49,51,53,55,57,59,61,63,65,67,69,71,73,75,77,79,81,83,85,87,89,91,93,95,97,99,101,103,105,107,109,111,113,115,117,119,121,123,125,-1,-1,-1,-1,-1,-1,-1,-1,-1,-1,-1,-1,-1,-1,-1,-1,-1,-1,-1,-1,-1,-1,-1,-1,-1,-1,-1,-1,-1,-1,-1,-1,-1,-1,-1,-1,-1,-1,-1,-1,-1,-1,-1,-1,-1,-1,-1,-1,-1,-1,-1,-1,-1,-1,-1,-1,-1,-1,-1,-1,-1,-1,-1,-1],"loss_changes":[5.9943214E1,6.5405726E0,3.4497406E1,1.5613723E0,2.984861E0,3.7494802E0,2.6101395E1,3.2058275E-1,2.2194686E0,8.9117146E-1,3.1050615E0,2.563142E-1,9.9072075E-1,1.5457428E1,3.733551E0,5.2238464E-2,2.4336195E-1,1.3547497E0,7.3907554E-1,6.40208E-1,5.7277036E-1,4.1052513E0,1.5785997E0,1.2773998E-1,5.937487E-1,2.556157E-1,1.5013952E0,2.3650501E1,2.6244804E1,2.6593366E0,2.8995543E0,3.293085E-2,1.7545885E-1,8.150309E-2,5.8677185E-1,8.847583E-1,3.7042918E0,7.8217214E-1,2.6750352E0,4.0326375E-1,3.8513792E-1,5.174556E-1,3.007334E-1,2.1626463E0,5.8256903E0,1.1334575E0,3.0053263E0,2.580347E-1,9.5293984E-2,1.3357583E-1,3.3775848E-1,2.070539E-1,1.10678464E-1,5.245857E-1,7.120503E-1,2.5819855E0,2.1103848E1,8.299306E1,1.2773382E1,1.0450245E0,2.5100107E0,2.1889372E0,9.0891504E-1,0E0,0E0,0E0,0E0,0E0,0E0,0E0,0E0,0E0,0E0,0E0,0E0,0E0,0E0,0E0,0E0,0E0,0E0,0E0,0E0,0E0,0E0,0E0,0E0,0E0,0E0,0E0,0E0,0E0,0E0,0E0,0E0,0E0,0E0,0E0,0E0,0E0,0E0,0E0,0E0,0E0,0E0,0E0,0E0,0E0,0E0,0E0,0E0,0E0,0E0,0E0,0E0,0E0,0E0,0E0,0E0,0E0,0E0,0E0,0E0,0E0,0E0,0E0,0E0],"parents":[2147483647,0,0,1,1,2,2,3,3,4,4,5,5,6,6,7,7,8,8,9,9,10,10,11,11,12,12,13,13,14,14,15,15,16,16,17,17,18,18,19,19,20,20,21,21,22,22,23,23,24,24,25,25,26,26,27,27,28,28,29,29,30,30,31,31,32,32,33,33,34,34,35,35,36,36,37,37,38,38,39,39,40,40,41,41,42,42,43,43,44,44,45,45,46,46,47,47,48,48,49,49,50,50,51,51,52,52,53,53,54,54,55,55,56,56,57,57,58,58,59,59,60,60,61,61,62,62],"right_children":[2,4,6,8,10,12,14,16,18,20,22,24,26,28,30,32,34,36,38,40,42,44,46,48,50,52,54,56,58,60,62,64,66,68,70,72,74,76,78,80,82,84,86,88,90,92,94,96,98,100,102,104,106,108,110,112,114,116,118,120,122,124,126,-1,-1,-1,-1,-1,-1,-1,-1,-1,-1,-1,-1,-1,-1,-1,-1,-1,-1,-1,-1,-1,-1,-1,-1,-1,-1,-1,-1,-1,-1,-1,-1,-1,-1,-1,-1,-1,-1,-1,-1,-1,-1,-1,-1,-1,-1,-1,-1,-1,-1,-1,-1,-1,-1,-1,-1,-1,-1,-1,-1,-1,-1,-1,-1],"split_conditions":[6.235E-1,4.025E-1,6.5E0,8.5E0,1.45E1,2.5E0,5E-1,1.175E-1,5.5E0,5E-1,2.115E2,4.5E0,3.5E0,1.15E1,8.7549996E-1,3.15E1,2.5E0,3.075E-1,5.5E0,1.35E1,3.65E1,1.85E1,4.35E1,6.285E-1,3.745E-1,3.5E0,5E-1,1.75E1,3.35E1,4.335E-1,5E-1,9.25E1,3.35E1,2.41E2,3.5E0,4.04E2,2.35E1,5E-1,3.5750002E-1,2.45E1,5.82E-1,2.265E-1,1.5E0,8.5E0,3.95E1,3.15E1,2.545E2,2.25E1,1.5E0,4.32E3,4.5E0,6.335E-1,8.7E-1,5.5E0,5E-1,5E-1,8.8199997E-1,4.62E2,3.95E1,1.155E2,3.69E2,1.15E1,7.5E0,-1.0558196E-3,-4.9190014E-5,2.2683125E-2,9.726227E-5,-5.5287796E-4,2.6531868E-2,-5.7615316E-3,-2.3168295E-5,1.2062504E-3,3.0655283E-2,2.6227722E-3,1.691307E-2,-7.955567E-4,1.0105592E-3,-5.4865546E-4,-1.2256577E-2,1.4998927E-2,-3.113549E-2,1.0586191E-1,9.621993E-3,-1.1873026E-3,1.3061917E-3,7.75512E-2,-1.886927E-2,2.5927982E-5,6.1202655E-3,9.59347E-3,4.5306593E-2,-8.928624E-3,2.9886475E-2,4.9664706E-2,7.651062E-4,-3.9970255E-3,6.1801307E-2,-6.2652136E-4,2.7369848E-4,-4.223933E-4,7.7116445E-2,2.9724552E-3,4.961516E-2,3.3251967E-2,2.7100067E-3,-2.0695457E-3,7.8666415E-3,7.581165E-3,-1.3825918E-2,-9.531417E-4,4.1687842E-3,1.5724873E-2,9.504435E-3,1.4781663E-2,-6.410453E-3,1.6580008E-2,9.586749E-2,-1.3085601E-2,8.838655E-3,-8.9457305E-3,3.7402834E-3,5.9114555E-3,-2.5856828E-3,-4.7011953E-2,-6.1813868E-3,-3.193541E-3,-5.6944054E-2],"split_indices":[5,5,9,9,0,9,14,6,14,8,9,1,9,1,5,10,9,5,12,0,9,4,0,5,6,14,8,9,0,6,12,1,10,1,8,10,8,10,6,9,5,6,8,9,0,4,9,0,4,14,12,5,5,0,13,8,5,9,1,14,9,1,14,0,0,0,0,0,0,0,0,0,0,0,0,0,0,0,0,0,0,0,0,0,0,0,0,0,0,0,0,0,0,0,0,0,0,0,0,0,0,0,0,0,0,0,0,0,0,0,0,0,0,0,0,0,0,0,0,0,0,0,0,0,0,0,0],"split_type":[0,0,0,0,0,0,0,0,0,0,0,0,0,0,0,0,0,0,0,0,0,0,0,0,0,0,0,0,0,0,0,0,0,0,0,0,0,0,0,0,0,0,0,0,0,0,0,0,0,0,0,0,0,0,0,0,0,0,0,0,0,0,0,0,0,0,0,0,0,0,0,0,0,0,0,0,0,0,0,0,0,0,0,0,0,0,0,0,0,0,0,0,0,0,0,0,0,0,0,0,0,0,0,0,0,0,0,0,0,0,0,0,0,0,0,0,0,0,0,0,0,0,0,0,0,0,0],"sum_hessian":[1.049866E6,8.20647E5,2.29219E5,6.957E5,1.24947E5,1.13873E5,1.15346E5,5.35466E5,1.60234E5,8.4474E4,4.0473E4,6.0815E4,5.3058E4,9.5167E4,2.0179E4,9.0879E4,4.44587E5,5.9847E4,1.00387E5,3.86E2,8.4088E4,3.1278E4,9.195E3,4.2869E4,1.7946E4,2.8313E4,2.4745E4,4.6284E4,4.8883E4,1.7341E4,2.838E3,9.0623E4,2.56E2,2.92291E5,1.52296E5,4.6828E4,1.3019E4,8.6991E4,1.3396E4,3.7E2,1.6E1,8.3933E4,1.55E2,2.8945E4,2.333E3,2.174E3,7.021E3,2.1E1,4.2848E4,9.423E3,8.523E3,2.6846E4,1.467E3,1.265E4,1.2095E4,2.5832E4,2.0452E4,3.542E4,1.3463E4,3.51E3,1.3831E4,2.653E3,1.85E2,8.7597E4,3.026E3,3.5E1,2.21E2,2.92282E5,9E0,1.62E3,1.50676E5,4.6737E4,9.1E1,1.1106E4,1.913E3,4.732E4,3.9671E4,1.1318E4,2.078E3,3.53E2,1.7E1,1E1,6E0,8.313E3,7.562E4,2E0,1.53E2,6.872E3,2.2073E4,1.801E3,5.32E2,2.105E3,6.9E1,1.14E2,6.907E3,1.3E1,8E0,1.9069E4,2.3779E4,9.422E3,1E0,8.51E3,1.3E1,1.9E1,2.6827E4,1.359E3,1.08E2,1.2547E4,1.03E2,3.396E3,8.699E3,1.6319E4,9.513E3,5.973E3,1.4479E4,3.419E4,1.23E3,3.109E3,1.0354E4,2.77E3,7.4E2,9.05E3,4.781E3,1.23E2,2.53E3,3.5E1,1.5E2],"tree_param":{"num_deleted":"0","num_feature":"15","num_nodes":"127","size_leaf_vector":"0"}},{"base_weights":[3.0482346E-3,-2.038036E-4,1.1813019E-2,-1.4426146E-3,1.5784192E-3,2.422195E-3,1.780141E-2,-1.0905986E-3,-3.2909638E-3,9.961155E-4,1.5752412E-2,7.7711476E-4,5.472497E-3,2.2648726E-2,2.4366911E-4,-1.2801063E-3,8.6914515E-3,-2.6741552E-3,-1.0820004E-2,-1.896944E-3,2.2804963E-3,1.9558914E-2,-2.295092E-2,7.659933E-4,2.0040487E-1,6.1209574E-3,-8.960675E-3,2.5217304E-2,-1.1014014E-2,2.557157E-3,-2.4733644E-2,-1.2083222E-3,-1.1216362E-2,2.3345866E-3,8.449117E-2,-2.7151136E-3,5.0984927E-2,-3.5398784E-3,-3.1011125E-2,-1.3272646E-3,-1.31613435E-2,5.2375972E-2,2.1378638E-3,1.7085556E-2,8.4609404E-2,1.09507464E-1,-2.4865426E-2,-9.2497336E-5,2.7713606E-3,-1.1763811E-2,4.1845545E-1,5.9887622E-3,7.697132E-2,-9.505451E-3,9.245528E-2,2.4130063E-2,3.090092E-1,2.3140914E-5,-1.6069304E-2,2.3169406E-3,2.7731967E-1,-4.2528942E-2,2.6601865E-3,-1.2686732E-3,2.8998328E-2,-1.4101981E-2,-5.7664462E-3,1.0661335E-1,-3.088212E-3,1.858579E-1,-1.6094044E-2,-2.539128E-3,-9.687225E-3,4.9693376E-1,3.2127276E-2,-3.755719E-3,9.314236E-2,-1.0526944E-2,-6.795738E-2,-2.4234557E-3,-5.451571E-4,-1.4369952E-2,3.6187015E-2,-7.955052E-3,1.2264441E-1,-2.246849E-4,4.4572125E-3,1.6756788E-2,5.248914E-1,1.94329E-1,4.006282E-2,3.1484914E-1,-1.2452313E-2,-4.298513E-2,-1.791065E-2,1.0306472E-4,-6.359154E-3,-1.1505593E-3,6.999821E-3,5.966599E-3,4.1329235E-1,1.628301E-1,-1.1086641E-2,-7.1126604E-3,-3.0699126E-2,-1.8323729E-2,4.8934367E-1,1.6048245E-2,3.750716E-2,-6.5476045E-2,4.6560445E-1,-5.5244453E-3,5.7410187E-1,-4.0985204E-2,-1.4221071E-2,-4.586687E-3,1.101176E-2,5.912559E-1,3.518126E-2,-1.2540636E-2,-6.1553262E-2,6.544324E-2,-2.5544511E-2],"categories":[],"categories_nodes":[],"categories_segments":[],"categories_sizes":[],"default_left":[true,true,true,true,true,true,true,true,true,true,true,true,true,true,true,true,true,true,true,true,true,true,true,true,true,true,true,true,true,true,true,true,true,true,true,true,true,true,true,true,true,true,true,true,true,true,true,true,true,false,false,true,true,true,true,true,true,true,true,true,true,true,true,false,false,false,false,false,false,false,false,false,false,false,false,false,false,false,false,false,false,false,false,false,false,false,false,false,false,false,false,false,false,false,false,false,false,false,false,false,false,false,false,false,false,false,false,false,false,false,false,false,false,false,false,false,false,false,false,false,false,false,false],"id":15,"left_children":[1,3,5,7,9,11,13,15,17,19,21,23,25,27,29,31,33,35,37,39,41,43,45,47,49,51,53,55,57,59,61,63,65,67,69,71,73,75,77,79,81,83,85,87,89,91,93,95,97,-1,-1,99,101,103,105,107,109,111,113,115,117,119,121,-1,-1,-1,-1,-1,-1,-1,-1,-1,-1,-1,-1,-1,-1,-1,-1,-1,-1,-1,-1,-1,-1,-1,-1,-1,-1,-1,-1,-1,-1,-1,-1,-1,-1,-1,-1,-1,-1,-1,-1,-1,-1,-1,-1,-1,-1,-1,-1,-1,-1,-1,-1,-1,-1,-1,-1,-1,-1,-1,-1],"loss_changes":[2.9924797E1,1.6906514E0,1.59776535E1,2.9392356E-1,2.5916462E0,5.551462E-1,1.4765198E1,7.034735E-1,3.3559132E-1,1.1207422E0,1.8259444E0,1.5941325E-1,3.6283207E-1,1.1755592E1,2.1690123E0,2.6550978E-1,3.4748945E0,1.46949E-1,8.0424076E-1,5.950656E-1,1.4923996E0,1.8137512E0,2.8421038E-1,1.23729154E-1,1.8997665E-1,3.4697402E-1,9.2978835E-2,3.896736E1,5.378183E-1,2.2668073E0,1.5512787E0,6.7381155E-1,4.1908115E-2,3.763617E0,5.692357E0,8.187589E-2,4.1292185E-1,8.4301606E-2,1.0966645E0,7.567686E-2,2.6676553E-1,2.5149202E0,1.1413414E0,1.8059497E0,2.010807E0,4.046154E-1,1.3722038E-1,6.1676186E-2,3.5728693E-1,0E0,0E0,3.317747E-1,5.234831E-1,8.3912894E-2,4.0466875E-1,1.3603577E1,2.8296223E1,9.649783E0,3.0385625E-1,2.0604358E0,2.2596796E0,1.0997362E0,2.2222261E0,0E0,0E0,0E0,0E0,0E0,0E0,0E0,0E0,0E0,0E0,0E0,0E0,0E0,0E0,0E0,0E0,0E0,0E0,0E0,0E0,0E0,0E0,0E0,0E0,0E0,0E0,0E0,0E0,0E0,0E0,0E0,0E0,0E0,0E0,0E0,0E0,0E0,0E0,0E0,0E0,0E0,0E0,0E0,0E0,0E0,0E0,0E0,0E0,0E0,0E0,0E0,0E0,0E0,0E0,0E0,0E0,0E0,0E0,0E0,0E0],"parents":[2147483647,0,0,1,1,2,2,3,3,4,4,5,5,6,6,7,7,8,8,9,9,10,10,11,11,12,12,13,13,14,14,15,15,16,16,17,17,18,18,19,19,20,20,21,21,22,22,23,23,24,24,25,25,26,26,27,27,28,28,29,29,30,30,31,31,32,32,33,33,34,34,35,35,36,36,37,37,38,38,39,39,40,40,41,41,42,42,43,43,44,44,45,45,46,46,47,47,48,48,51,51,52,52,53,53,54,54,55,55,56,56,57,57,58,58,59,59,60,60,61,61,62,62],"right_children":[2,4,6,8,10,12,14,16,18,20,22,24,26,28,30,32,34,36,38,40,42,44,46,48,50,52,54,56,58,60,62,64,66,68,70,72,74,76,78,80,82,84,86,88,90,92,94,96,98,-1,-1,100,102,104,106,108,110,112,114,116,118,120,122,-1,-1,-1,-1,-1,-1,-1,-1,-1,-1,-1,-1,-1,-1,-1,-1,-1,-1,-1,-1,-1,-1,-1,-1,-1,-1,-1,-1,-1,-1,-1,-1,-1,-1,-1,-1,-1,-1,-1,-1,-1,-1,-1,-1,-1,-1,-1,-1,-1,-1,-1,-1,-1,-1,-1,-1,-1,-1,-1,-1],"split_conditions":[5.065E-1,1.9549999E-1,5.5E0,1.5E0,1.35E1,2.5E0,5E-1,1.465E2,4.95E1,4.285E-1,8.25E1,1.625E2,2.15E1,5.55E1,8.725E-1,1.665E2,1.25E-1,2.125E2,3.475E-1,4.45E1,1.965E-1,1.895E2,2.0899999E-1,4.5E0,2.4E1,2.15E1,1.535E2,5.45E1,6.865E-1,8.715E-1,9.285E-1,1.335E2,6.365E2,1.475E2,1.695E2,1.855E-1,2.15E2,3.455E-1,5.5E0,1.9549999E-1,3.45E1,2.95E1,3.05E1,9.625E-1,1E0,1.05E2,1.45E1,1.25E1,3.745E-1,-3.5291435E-3,1.2553664E-1,1.9E1,6.0800004E-1,2.891E3,7.5E0,1.15E1,8.96E-1,6.8350005E-1,5.4E1,1.75E1,1.05E1,8.885E-1,2.65E1,-3.80602E-4,8.699499E-3,-4.2305947E-3,-1.7299339E-3,3.198401E-2,-9.264637E-4,5.5757374E-2,-4.8282132E-3,-7.6173845E-4,-2.9061676E-3,1.4908013E-1,9.638183E-3,-1.1267157E-3,2.794271E-2,-3.1580834E-3,-2.0387214E-2,-7.2703674E-4,-1.6354714E-4,-4.3109856E-3,1.0856105E-2,-2.3865157E-3,3.6793325E-2,-6.7405475E-5,1.3371638E-3,5.0270366E-3,1.5746742E-1,5.82987E-2,1.2018846E-2,9.445474E-2,-3.7356939E-3,-1.2895539E-2,-5.3731953E-3,3.091942E-5,-1.9077462E-3,-3.451678E-4,2.0999464E-3,1.7899798E-3,1.2398771E-1,4.884903E-2,-3.3259925E-3,-2.1337983E-3,-9.209738E-3,-5.497119E-3,1.4680311E-1,4.814474E-3,1.1252149E-2,-1.9642815E-2,1.3968134E-1,-1.6573337E-3,1.7223057E-1,-1.2295562E-2,-4.2663217E-3,-1.376006E-3,3.303528E-3,1.7737678E-1,1.0554379E-2,-3.762191E-3,-1.8465979E-2,1.9632973E-2,-7.663354E-3],"split_indices":[5,5,9,12,10,9,14,0,9,6,0,0,8,0,5,9,5,10,6,9,5,10,5,1,1,0,1,0,5,5,5,9,14,0,0,5,10,6,12,6,4,0,13,6,14,14,14,8,6,0,0,12,5,13,0,1,5,5,1,0,4,5,4,0,0,0,0,0,0,0,0,0,0,0,0,0,0,0,0,0,0,0,0,0,0,0,0,0,0,0,0,0,0,0,0,0,0,0,0,0,0,0,0,0,0,0,0,0,0,0,0,0,0,0,0,0,0,0,0,0,0,0,0],"split_type":[0,0,0,0,0,0,0,0,0,0,0,0,0,0,0,0,0,0,0,0,0,0,0,0,0,0,0,0,0,0,0,0,0,0,0,0,0,0,0,0,0,0,0,0,0,0,0,0,0,0,0,0,0,0,0,0,0,0,0,0,0,0,0,0,0,0,0,0,0,0,0,0,0,0,0,0,0,0,0,0,0,0,0,0,0,0,0,0,0,0,0,0,0,0,0,0,0,0,0,0,0,0,0,0,0,0,0,0,0,0,0,0,0,0,0,0,0,0,0,0,0,0,0],"sum_hessian":[1.049866E6,7.65748E5,2.84118E5,4.51744E5,3.14004E5,1.10631E5,1.73487E5,3.79475E5,7.2269E4,3.01614E5,1.239E4,7.1871E4,3.876E4,1.35953E5,3.7534E4,3.72264E5,7.211E3,6.6798E4,5.471E3,9.2733E4,2.08881E5,1.1281E4,1.109E3,7.1868E4,3E0,3.7094E4,1.666E3,1.26315E5,9.638E3,3.4353E4,3.181E3,3.69595E5,2.669E3,6.654E3,5.57E2,6.6748E4,5E1,4.022E3,1.449E3,8.827E4,4.463E3,5.92E2,2.08289E5,1.0869E4,4.12E2,1.5E1,1.094E3,5.0325E4,2.1543E4,2E0,1E0,3.7026E4,6.8E1,1.658E3,8E0,1.25834E5,4.81E2,3.028E3,6.61E3,3.4324E4,2.9E1,1.928E3,1.253E3,3.68859E5,7.36E2,1.744E3,9.25E2,3.28E2,6.326E3,2.77E2,2.8E2,6.5106E4,1.642E3,1E0,4.9E1,4.014E3,8E0,9.33E2,5.16E2,3.6754E4,5.1516E4,4.357E3,1.06E2,3.19E2,2.73E2,1.03184E5,1.05105E5,1.0863E4,6E0,1.18E2,2.94E2,5E0,1E1,3.02E2,7.92E2,4.8803E4,1.522E3,1.1177E4,1.0366E4,3.7025E4,1E0,3.4E1,3.4E1,1.491E3,1.67E2,7E0,1E0,7.8444E4,4.739E4,1.42E2,3.39E2,3E3,2.8E1,4.55E2,6.155E3,1.9133E4,1.5191E4,1.2E1,1.7E1,7.49E2,1.179E3,3.88E2,8.65E2],"tree_param":{"num_deleted":"0","num_feature":"15","num_nodes":"123","size_leaf_vector":"0"}},{"base_weights":[2.1351757E-3,1.37770865E-2,8.381196E-4,7.3336833E-3,4.229531E-2,-5.465425E-4,4.403941E-3,6.2551736E-3,1.0111343E-1,7.2962955E-2,1.0381154E-2,-4.5675688E-4,-1.0871138E-2,-5.339297E-3,7.502756E-3,9.81723E-3,-1.3780352E-2,5.108754E-2,1.434629E-1,4.9963325E-2,2.024026E-1,2.3560895E-1,-5.495772E-3,-4.5942655E-4,5.999635E-1,-4.625452E-3,-2.7708357E-2,-2.7408965E-3,-7.536733E-2,-2.9395835E-3,1.1432491E-2,3.8573542E-3,3.0631041E-2,-2.6552917E-2,-6.767054E-3,-7.662453E-3,6.502738E-2,-6.695896E-2,1.5493664E-1,1.8678038E-1,4.508289E-2,2.0019002E-1,6.4318746E-1,-2.4563981E-2,3.326571E-1,-6.1690018E-2,5.032138E-2,-1.0163033E-3,1.4474879E-3,-8.927269E-3,2.2561112E-2,4.1228676E-1,-2.8245736E-2,-3.512984E-3,1.3328345E-1,-1.2603474E-1,-1.0451935E-2,-5.7551963E-4,-1.3062606E-2,8.12482E-3,3.4213178E-2,1.330381E-3,1.2538104E-2,2.0843713E-2,4.4520587E-2,-8.0205165E-2,-2.402373E-2,1.0226831E-1,-8.208456E-3,5.9083668E-3,-3.972893E-2,4.752536E-1,6.258131E-2,1.7764652E-1,-1.0341747E-1,2.054177E-1,1.2930897E-1,9.5700435E-2,3.5282207E-1,1.4928958E-2,5.468737E-2,2.0076086E-1,-9.04274E-3,3.7564233E-1,-8.9296326E-2,4.708427E-1,2.620155E-1,-1.744215E-2,-2.5712836E-1,2.598023E-1,-1.8583741E-2,-3.6557582E-3,-8.5729116E-4,-5.800908E-4,3.9951885E-3,-2.4028901E-2,-4.951463E-3,1.7335469E-1,2.0608967E-3,-5.197861E-2,-2.4665335E-2,-5.8712205E-4,-3.232756E-2,7.814391E-2,3.9573187E-1,-1.4926532E-1,2.6661973E-2,2.0169263E-1,-1.5425247E-2,-6.2456663E-4,1.8104848E-1,-4.1768286E-2,-9.033354E-3,1.054894E-2,-7.4749943E-3,1.9378196E-1,2.391852E-2],"categories":[],"categories_nodes":[],"categories_segments":[],"categories_sizes":[],"default_left":[true,true,true,true,true,true,true,true,true,true,true,true,true,true,true,true,true,true,true,true,true,true,true,true,false,true,true,true,true,true,true,true,true,true,true,true,true,true,true,true,true,true,false,true,true,true,true,true,true,true,true,false,true,true,true,true,true,true,true,true,true,false,false,false,false,false,false,false,false,false,false,false,false,false,false,false,false,false,false,false,false,false,false,false,false,false,false,false,false,false,false,false,false,false,false,false,false,false,false,false,false,false,false,false,false,false,false,false,false,false,false,false,false,false,false,false,false],"id":16,"left_children":[1,3,5,7,9,11,13,15,17,19,21,23,25,27,29,31,33,35,37,39,41,43,45,47,-1,49,51,53,55,57,59,61,63,65,67,69,71,73,75,77,79,81,-1,83,85,87,89,91,93,95,97,-1,99,101,103,105,107,109,111,113,115,-1,-1,-1,-1,-1,-1,-1,-1,-1,-1,-1,-1,-1,-1,-1,-1,-1,-1,-1,-1,-1,-1,-1,-1,-1,-1,-1,-1,-1,-1,-1,-1,-1,-1,-1,-1,-1,-1,-1,-1,-1,-1,-1,-1,-1,-1,-1,-1,-1,-1,-1,-1,-1,-1,-1,-1],"loss_changes":[1.5853205E1,1.9338558E1,4.664048E0,8.68224E0,1.8982727E1,6.3073725E-1,7.9773207E0,6.0573235E0,2.0603952E0,2.9436031E1,3.3994038E1,1.0815179E0,6.167403E-1,1.1600893E1,8.225993E0,8.93901E0,1.1474912E0,3.6821377E-1,1.2851391E0,5.600485E0,1.3263512E0,1.58142395E1,2.7859272E1,7.163118E-1,0E0,5.0075436E-1,3.868816E-1,6.456844E0,7.501108E0,1.3117241E0,1.0974447E1,1.2288833E0,2.1797094E0,6.1427116E-1,1.3008988E0,3.8094383E-2,3.3450842E-1,2.6807445E-1,6.215868E-1,4.3368015E0,2.3485222E0,1.792984E-1,0E0,4.4635196E0,4.3279457E0,3.827037E1,6.4324104E1,2.1911746E-1,7.875801E-1,2.2179314E-1,1.8080537E0,0E0,1.3348544E-1,5.153696E0,4.990612E0,4.547983E0,1.0592273E0,3.9595383E-1,1.1998515E0,4.8096085E0,3.0329569E1,0E0,0E0,0E0,0E0,0E0,0E0,0E0,0E0,0E0,0E0,0E0,0E0,0E0,0E0,0E0,0E0,0E0,0E0,0E0,0E0,0E0,0E0,0E0,0E0,0E0,0E0,0E0,0E0,0E0,0E0,0E0,0E0,0E0,0E0,0E0,0E0,0E0,0E0,0E0,0E0,0E0,0E0,0E0,0E0,0E0,0E0,0E0,0E0,0E0,0E0,0E0,0E0,0E0,0E0,0E0,0E0],"parents":[2147483647,0,0,1,1,2,2,3,3,4,4,5,5,6,6,7,7,8,8,9,9,10,10,11,11,12,12,13,13,14,14,15,15,16,16,17,17,18,18,19,19,20,20,21,21,22,22,23,23,25,25,26,26,27,27,28,28,29,29,30,30,31,31,32,32,33,33,34,34,35,35,36,36,37,37,38,38,39,39,40,40,41,41,43,43,44,44,45,45,46,46,47,47,48,48,49,49,50,50,52,52,53,53,54,54,55,55,56,56,57,57,58,58,59,59,60,60],"right_children":[2,4,6,8,10,12,14,16,18,20,22,24,26,28,30,32,34,36,38,40,42,44,46,48,-1,50,52,54,56,58,60,62,64,66,68,70,72,74,76,78,80,82,-1,84,86,88,90,92,94,96,98,-1,100,102,104,106,108,110,112,114,116,-1,-1,-1,-1,-1,-1,-1,-1,-1,-1,-1,-1,-1,-1,-1,-1,-1,-1,-1,-1,-1,-1,-1,-1,-1,-1,-1,-1,-1,-1,-1,-1,-1,-1,-1,-1,-1,-1,-1,-1,-1,-1,-1,-1,-1,-1,-1,-1,-1,-1,-1,-1,-1,-1,-1,-1],"split_conditions":[5E-1,1.15E1,3.965E-1,4.5E0,1.63E2,3.425E2,2.5E0,1.75E1,1.35E1,1.355E2,9.3649995E-1,3.405E2,3.135E-1,3.62E2,4.245E-1,6.5E0,2.55E1,4.5E0,5.91E-1,5.45E1,1.585E2,8.26E-1,4.61E2,8.5E0,1.7998905E-1,1.815E2,5E0,2.65E1,4.85E1,2.95E1,8.9849997E-1,3.5E0,1.15E1,9.82E-1,9.505E-1,6.5E0,3.01E-1,1.45E1,7.475E-1,9.015E-1,6.55E1,1.545E2,1.9295625E-1,2.095E2,3E1,2.95E1,3.25E1,4.5E0,1.8650001E-1,7.45E1,7.855E2,1.2368603E-1,5.35E1,4.25E1,9.9E-1,2.7E1,4.95E1,1.85E1,2.65E1,3.765E2,9.095E-1,3.9911433E-4,3.7614314E-3,6.253114E-3,1.3356176E-2,-2.4061551E-2,-7.2071194E-3,3.0680494E-2,-2.462537E-3,1.7725101E-3,-1.1918679E-2,1.4257608E-1,1.8774394E-2,5.329396E-2,-3.1025242E-2,6.162531E-2,3.8792692E-2,2.8710132E-2,1.0584662E-1,4.478688E-3,1.6406212E-2,6.022826E-2,-2.712822E-3,1.1269271E-1,-2.67889E-2,1.4125282E-1,7.860465E-2,-5.232645E-3,-7.713851E-2,7.7940695E-2,-5.5751223E-3,-1.0967276E-3,-2.5718735E-4,-1.7402724E-4,1.1985566E-3,-7.2086705E-3,-1.485439E-3,5.200641E-2,6.18269E-4,-1.5593584E-2,-7.399601E-3,-1.7613661E-4,-9.698268E-3,2.3443174E-2,1.1871956E-1,-4.47796E-2,7.998592E-3,6.050779E-2,-4.6275742E-3,-1.8737E-4,5.4314546E-2,-1.2530486E-2,-2.7100062E-3,3.164682E-3,-2.2424983E-3,5.813459E-2,7.1755564E-3],"split_indices":[8,0,5,10,9,9,13,9,9,9,5,9,5,9,6,9,9,9,5,9,9,5,9,9,0,10,8,1,0,1,5,9,9,5,5,10,5,9,5,5,9,9,0,9,10,0,0,8,5,0,13,0,0,9,5,10,0,4,8,9,5,0,0,0,0,0,0,0,0,0,0,0,0,0,0,0,0,0,0,0,0,0,0,0,0,0,0,0,0,0,0,0,0,0,0,0,0,0,0,0,0,0,0,0,0,0,0,0,0,0,0,0,0,0,0,0,0],"split_type":[0,0,0,0,0,0,0,0,0,0,0,0,0,0,0,0,0,0,0,0,0,0,0,0,0,0,0,0,0,0,0,0,0,0,0,0,0,0,0,0,0,0,0,0,0,0,0,0,0,0,0,0,0,0,0,0,0,0,0,0,0,0,0,0,0,0,0,0,0,0,0,0,0,0,0,0,0,0,0,0,0,0,0,0,0,0,0,0,0,0,0,0,0,0,0,0,0,0,0,0,0,0,0,0,0,0,0,0,0,0,0,0,0,0,0,0,0],"sum_hessian":[1.049866E6,1.05242E5,9.44624E5,8.5847E4,1.9395E4,6.80411E5,2.64213E5,8.4872E4,9.75E2,9.89E3,9.505E3,6.74546E5,5.865E3,6.3755E4,2.00458E5,7.2061E4,1.2811E4,4.48E2,5.27E2,8.399E3,1.491E3,6.25E2,8.88E3,6.74544E5,2E0,4.279E3,1.586E3,6.1475E4,2.28E3,5.4811E4,1.45647E5,5.6021E4,1.604E4,4.54E3,8.271E3,8.6E1,3.62E2,2.7E1,5E2,2.88E2,8.111E3,1.485E3,6E0,1.7E2,4.55E2,4.425E3,4.455E3,5.22081E5,1.52463E5,3.695E3,5.84E2,1E0,1.585E3,6.1129E4,3.46E2,1.28E3,1E3,4.4435E4,1.0376E4,1.27182E5,1.8465E4,4.3391E4,1.263E4,9.411E3,6.629E3,2.03E2,4.337E3,1.07E2,8.164E3,6.1E1,2.5E1,1E0,3.61E2,3E0,2.4E1,1.66E2,3.34E2,1.87E2,1.01E2,1.96E3,6.151E3,1.481E3,4E0,2.3E1,1.47E2,1.52E2,3.03E2,3.609E3,8.16E2,1.102E3,3.353E3,2.9664E4,4.92417E5,8.4898E4,6.7565E4,7.69E2,2.926E3,6.9E1,5.15E2,2.06E2,1.379E3,5.5495E4,5.634E3,2.87E2,5.9E1,1.111E3,1.69E2,2.2E1,9.78E2,4.4424E4,1.1E1,1.276E3,9.1E3,1.10077E5,1.7105E4,1.118E3,1.7347E4],"tree_param":{"num_deleted":"0","num_feature":"15","num_nodes":"117","size_leaf_vector":"0"}},{"base_weights":[1.4961256E-3,1.7684465E-4,7.7756755E-3,3.3189483E-2,1.1882944E-4,3.7830407E-3,1.6664023E-2,-8.896802E-3,6.021239E-2,1.8630885E-4,-2.3963394E-2,5.3236578E-3,-1.9871965E-2,2.5246894E-2,-4.4275844E-3,-1.2535225E-3,-5.5469483E-2,6.7894846E-2,-1.1184347E-1,1.1494708E-4,2.56565E-2,-7.808767E-2,-1.2558253E-2,2.2225387E-3,1.7182285E-2,-2.5816645E-2,9.050998E-3,1.6821E-2,1.0502272E-1,-1.4633158E-1,1.04731135E-2,-1.1631851E-2,2.867373E-3,6.24147E-2,5.961875E-1,-1.8804084E-1,2.7688207E-2,1.3886676E-4,-5.7405215E-2,7.872657E-2,2.6809904E-3,-9.9300504E-2,-3.8697124E-2,1.5424258E-1,-1.8241093E-2,3.438088E-2,2.0265433E-3,-4.9656842E-2,1.8529717E-2,-5.8905978E-2,-2.0504659E-2,5.4578748E-2,-6.867281E-3,2.5216183E-2,-8.3618574E-2,3.7295437E-1,7.699618E-2,-7.849177E-2,-1.7149241E-1,1.0584265E-1,-5.6336643E-3,-2.2453453E-2,-5.026673E-4,8.770542E-4,8.497473E-3,8.039058E-2,8.121638E-3,6.6826713E-1,2.2927251E-1,4.2555064E-1,-3.1127013E-2,-5.8972277E-4,2.0596667E-3,3.7276632E-1,-7.3401816E-2,3.7775002E-2,1.9553116E-1,1.430051E-2,-5.7469424E-2,-2.5948988E-2,-1.0316526E-1,1.494989E-1,-4.4919763E-2,5.7160443E-1,-2.6639976E-2,-7.0884754E-3,-4.4412397E-2,3.1215128E-2,6.1913747E-1,2.3858165E-3,-1.9709526E-2,-1.3528721E-1,-4.035482E-2,6.4157136E-2,1.701226E-2,1.6987875E-2,-8.430617E-2,-2.0816268E-2,4.1277298E-1,-4.74325E-2,7.616628E-2,-1.60743E-2,8.95081E-2,1.4402093E-2,9.2422895E-2,-1.01088665E-1,3.217759E-1,4.6028832E-1,1.3541447E-1,3.77401E-2,2.816361E-1,-8.953963E-2,8.645064E-2,-1.7780207E-1,-9.461637E-2,-1.0483269E-1,1.8588263E-1,-1.4809972E-1,5.1441016E-3],"categories":[],"categories_nodes":[],"categories_segments":[],"categories_sizes":[],"default_left":[true,true,true,true,true,true,true,true,true,true,true,true,true,true,true,true,false,true,true,true,true,true,true,true,true,true,true,true,true,true,true,true,true,true,true,false,true,true,true,true,true,true,true,true,true,true,true,true,true,true,true,true,true,true,true,true,true,true,true,true,true,false,false,false,false,false,false,false,false,false,false,false,false,false,false,false,false,false,false,false,false,false,false,false,false,false,false,false,false,false,false,false,false,false,false,false,false,false,false,false,false,false,false,false,false,false,false,false,false,false,false,false,false,false,false,false,false,false,false],"id":17,"left_children":[1,3,5,7,9,11,13,15,17,19,21,23,25,27,29,31,-1,33,35,37,39,41,43,45,47,49,51,53,55,57,59,61,63,65,67,-1,69,71,73,75,77,79,81,83,85,87,89,91,93,95,97,99,101,103,105,107,109,111,113,115,117,-1,-1,-1,-1,-1,-1,-1,-1,-1,-1,-1,-1,-1,-1,-1,-1,-1,-1,-1,-1,-1,-1,-1,-1,-1,-1,-1,-1,-1,-1,-1,-1,-1,-1,-1,-1,-1,-1,-1,-1,-1,-1,-1,-1,-1,-1,-1,-1,-1,-1,-1,-1,-1,-1,-1,-1,-1,-1],"loss_changes":[8.697611E0,1.6616427E0,6.468463E0,1.7314967E0,1.40742E0,4.583836E0,1.022775E1,2.1208742E-1,1.232913E0,1.569773E0,1.4928734E0,4.342613E0,1.3226066E0,2.6991072E1,3.4556175E1,2.197334E-2,0E0,2.5336566E0,4.3048435E-1,1.1849602E0,2.941988E0,3.4793878E-1,1.8986185E0,5.899374E-1,2.2055259E0,1.1202054E0,9.512119E-1,3.062912E1,2.8776566E1,2.6373672E0,2.2719456E1,1.7572312E-2,4.1162428E-3,8.581972E-1,8.480859E-2,0E0,3.642516E-1,1.204788E0,2.490861E0,3.4796624E0,1.1785003E0,7.471466E-2,1.8120584E-1,4.9977975E0,5.644702E-1,1.0303013E0,7.266375E-1,3.8006365E-1,1.6603336E0,1.7016797E0,7.510314E-1,7.5235105E-1,8.648109E-1,2.436104E1,1.9877075E1,7.468216E0,2.7897263E1,7.767348E-1,5.322685E-1,3.6054543E1,1.9430546E1,0E0,0E0,0E0,0E0,0E0,0E0,0E0,0E0,0E0,0E0,0E0,0E0,0E0,0E0,0E0,0E0,0E0,0E0,0E0,0E0,0E0,0E0,0E0,0E0,0E0,0E0,0E0,0E0,0E0,0E0,0E0,0E0,0E0,0E0,0E0,0E0,0E0,0E0,0E0,0E0,0E0,0E0,0E0,0E0,0E0,0E0,0E0,0E0,0E0,0E0,0E0,0E0,0E0,0E0,0E0,0E0,0E0,0E0],"parents":[2147483647,0,0,1,1,2,2,3,3,4,4,5,5,6,6,7,7,8,8,9,9,10,10,11,11,12,12,13,13,14,14,15,15,17,17,18,18,19,19,20,20,21,21,22,22,23,23,24,24,25,25,26,26,27,27,28,28,29,29,30,30,31,31,32,32,33,33,34,34,36,36,37,37,38,38,39,39,40,40,41,41,42,42,43,43,44,44,45,45,46,46,47,47,48,48,49,49,50,50,51,51,52,52,53,53,54,54,55,55,56,56,57,57,58,58,59,59,60,60],"right_children":[2,4,6,8,10,12,14,16,18,20,22,24,26,28,30,32,-1,34,36,38,40,42,44,46,48,50,52,54,56,58,60,62,64,66,68,-1,70,72,74,76,78,80,82,84,86,88,90,92,94,96,98,100,102,104,106,108,110,112,114,116,118,-1,-1,-1,-1,-1,-1,-1,-1,-1,-1,-1,-1,-1,-1,-1,-1,-1,-1,-1,-1,-1,-1,-1,-1,-1,-1,-1,-1,-1,-1,-1,-1,-1,-1,-1,-1,-1,-1,-1,-1,-1,-1,-1,-1,-1,-1,-1,-1,-1,-1,-1,-1,-1,-1,-1,-1,-1,-1],"split_conditions":[7.645E-1,5E-1,7.5E0,6.5E0,7.5049996E-1,1.75E1,3.93E2,7.165E-1,3.04E2,7.415E-1,7.525E-1,9.5E0,1.15E1,2.805E2,3.05E1,6.335E-1,-1.6640846E-2,2.835E2,2.87E2,7.3749995E-1,7.4549997E-1,9.5E0,7.535E-1,7.9649997E-1,2.2749999E-1,9.23E-1,5.5E0,2.095E2,2.65E1,9.225E-1,3.55E1,4.5E0,4.5E0,4.05E1,3.15E1,-5.6412254E-2,4.5E1,8.5E0,1.95E1,3.4E1,3.195E2,6.3E1,1.05E1,4.5E0,7.75E1,7.9550004E-1,6.5E0,1.25E1,7.895E-1,8.84E-1,3E0,4.795E-1,6.625E-1,1.215E2,3.15E1,2.75E1,1.05E1,2.75E1,3.35E1,9.92E-1,4.15E1,-6.7360364E-3,-1.5080019E-4,2.6311626E-4,2.549242E-3,2.4117175E-2,2.4364914E-3,2.0048015E-1,6.8781756E-2,1.2766519E-1,-9.338104E-3,-1.7691683E-4,6.1790005E-4,1.118299E-1,-2.2020545E-2,1.1332501E-2,5.865935E-2,4.2901533E-3,-1.7240828E-2,-7.7846968E-3,-3.094958E-2,4.484967E-2,-1.3475929E-2,1.7148134E-1,-7.991993E-3,-2.1265426E-3,-1.332372E-2,9.364539E-3,1.8574125E-1,7.15745E-4,-5.912858E-3,-4.0586166E-2,-1.21064475E-2,1.924714E-2,5.1036784E-3,5.096363E-3,-2.5291853E-2,-6.2448806E-3,1.238319E-1,-1.4229751E-2,2.2849884E-2,-4.82229E-3,2.685243E-2,4.320628E-3,2.772687E-2,-3.0326601E-2,9.653278E-2,1.380865E-1,4.0624343E-2,1.1322031E-2,8.449083E-2,-2.6861891E-2,2.5935192E-2,-5.3340625E-2,-2.838491E-2,-3.1449806E-2,5.576479E-2,-4.4429917E-2,1.5432305E-3],"split_indices":[5,8,4,0,5,9,9,5,9,5,5,9,1,9,4,5,0,9,10,5,5,8,5,5,6,6,8,9,0,5,0,10,0,9,0,0,0,9,0,4,9,9,8,8,9,5,0,8,5,5,14,6,6,9,0,1,10,10,1,5,1,0,0,0,0,0,0,0,0,0,0,0,0,0,0,0,0,0,0,0,0,0,0,0,0,0,0,0,0,0,0,0,0,0,0,0,0,0,0,0,0,0,0,0,0,0,0,0,0,0,0,0,0,0,0,0,0,0,0],"split_type":[0,0,0,0,0,0,0,0,0,0,0,0,0,0,0,0,0,0,0,0,0,0,0,0,0,0,0,0,0,0,0,0,0,0,0,0,0,0,0,0,0,0,0,0,0,0,0,0,0,0,0,0,0,0,0,0,0,0,0,0,0,0,0,0,0,0,0,0,0,0,0,0,0,0,0,0,0,0,0,0,0,0,0,0,0,0,0,0,0,0,0,0,0,0,0,0,0,0,0,0,0,0,0,0,0,0,0,0,0,0,0,0,0,0,0,0,0,0,0],"sum_hessian":[1.049866E6,8.67593E5,1.82273E5,1.521E3,8.66072E5,1.25776E5,5.6497E4,5.95E2,9.26E2,8.63653E5,2.419E3,1.18086E5,7.69E3,4.0156E4,1.6341E4,5.12E2,8.3E1,8.87E2,3.9E1,8.61241E5,2.412E3,4.2E2,1.999E3,9.3608E4,2.4478E4,6.379E3,1.311E3,3.6321E4,3.835E3,1.552E3,1.4789E4,1.45E2,3.67E2,8.79E2,8E0,2.5E1,1.4E1,8.60884E5,3.57E2,7.28E2,1.684E3,2.72E2,1.48E2,6.5E1,1.934E3,5.66E2,9.3042E4,4.83E2,2.3995E4,8.81E2,5.498E3,3.39E2,9.72E2,3.352E4,2.801E3,3.62E2,3.473E3,4.21E2,1.131E3,2.136E3,1.2653E4,7.3E1,7.2E1,2.72E2,9.5E1,6.6E2,2.19E2,6E0,2E0,1E0,1.3E1,6.24139E5,2.36745E5,1.2E1,3.45E2,5.4E2,1.88E2,1.412E3,2.72E2,1.4E1,2.58E2,4E0,1.44E2,1.9E1,4.6E1,1.357E3,5.77E2,5.64E2,2E0,9.153E4,1.512E3,4.6E1,4.37E2,7.71E2,2.3224E4,2.21E2,6.6E2,5.495E3,3E0,5.9E1,2.8E2,8.88E2,8.4E1,2.8875E4,4.645E3,2.686E3,1.15E2,2.64E2,9.8E1,2.915E3,5.58E2,3.95E2,2.6E1,1.044E3,8.7E1,5.88E2,1.548E3,8.89E2,1.1764E4],"tree_param":{"num_deleted":"0","num_feature":"15","num_nodes":"119","size_leaf_vector":"0"}},{"base_weights":[1.0484178E-3,2.2132095E-4,6.2835915E-3,4.01872E-4,-4.9022518E-2,3.8610508E-3,2.3284147E-2,4.427445E-2,1.9325569E-4,-1.3682893E-1,-1.8218387E-2,-2.7927192E-4,6.2220492E-3,5.1570453E-2,3.7209503E-3,2.7527772E-2,1.9280379E-1,2.8049832E-4,-1.8701937E-2,-8.715474E-2,-2.5633192E-1,-1.379686E-1,-5.766512E-3,-8.5189805E-4,5.222914E-3,7.078818E-3,-2.2448191E-2,3.2679632E-2,1.1074748E-1,-6.6205144E-2,2.6563711E-2,3.018353E-2,-2.2572303E-1,2.9484937E-1,7.6807275E-2,1.692984E-4,9.352231E-2,-8.7550744E-2,-4.727685E-4,-1.15892515E-1,2.8449833E-1,-1.5941873E-1,-3.0214053E-1,2.2607219E-1,-1.4537932E-1,1.4147462E-1,-1.6033081E-2,-2.4449134E-3,3.1830993E-4,6.3015427E-3,-2.0038098E-2,4.9206144E-3,2.0980716E-2,3.6800813E-3,-3.449324E-2,-1.5035519E-1,3.4273695E-2,-8.849368E-2,1.23388164E-1,-3.660396E-2,-1.7780778E-1,1.4238697E-1,1.895395E-3,6.1150696E-3,5.437564E-2,-2.5006044E-1,3.6171803E-1,3.0282262E-1,-2.313437E-1,-3.4027767E-1,1.1170966E-1,1.964885E-4,-2.3127086E-1,2.2236248E-2,4.4195288E-1,-1.4950736E-1,-3.6127664E-2,4.0738117E-2,-3.3732813E-2,-1.3140121E-1,-6.9098234E-2,1.7377922E-1,6.957638E-1,-1.962609E-1,-1.2058275E-1,2.8388664E-1,-2.5927913E-3,-7.6213785E-2,-1.9109881E-1,-1.3212634E-2,2.571833E-1,-1.5263528E-1,-6.0157715E-3,-1.8267481E-3,-4.7520674E-3,-5.46533E-3,7.1105844E-4,6.083046E-3,2.2944978E-1,-1.7123114E-2,-3.215081E-2,9.190859E-3,-1.2176972E-2,-3.8095223E-4,3.3094715E-2,-8.8039795E-3,1.4471177E-2,-5.5993687E-2,-1.1577952E-2,-2.3720225E-2,-1.6788113E-1,1.7512482E-1,2.9986234E-2,-1.6479625E-1,3.85395E-1,1.1869853E-1,6.303966E-1,-9.035159E-2,-5.627833E-3,-1.3589254E-1,-2.2223443E-1,-1.1981189E-2,1.935604E-1,-1.0952874E-1,2.8928675E-2],"categories":[],"categories_nodes":[],"categories_segments":[],"categories_sizes":[],"default_left":[true,true,true,true,true,true,true,true,true,true,true,true,true,true,true,true,true,true,true,true,true,true,true,true,true,true,true,true,true,true,true,true,true,true,true,true,true,true,true,true,true,true,false,true,true,true,true,true,true,true,true,true,true,true,true,true,true,true,true,true,true,true,true,false,false,false,false,false,false,false,false,false,false,false,false,false,false,false,false,false,false,false,false,false,false,false,false,false,false,false,false,false,false,false,false,false,false,false,false,false,false,false,false,false,false,false,false,false,false,false,false,false,false,false,false,false,false,false,false,false,false,false,false,false,false],"id":18,"left_children":[1,3,5,7,9,11,13,15,17,19,21,23,25,27,29,31,33,35,37,39,41,43,45,47,49,51,53,55,57,59,61,63,65,67,69,71,73,75,77,79,81,83,-1,85,87,89,91,93,95,97,99,101,103,105,107,109,111,113,115,117,119,121,123,-1,-1,-1,-1,-1,-1,-1,-1,-1,-1,-1,-1,-1,-1,-1,-1,-1,-1,-1,-1,-1,-1,-1,-1,-1,-1,-1,-1,-1,-1,-1,-1,-1,-1,-1,-1,-1,-1,-1,-1,-1,-1,-1,-1,-1,-1,-1,-1,-1,-1,-1,-1,-1,-1,-1,-1,-1,-1,-1,-1,-1,-1],"loss_changes":[4.545918E0,8.0609E0,5.8990602E0,8.267659E0,8.955807E0,1.2255596E0,9.885774E0,1.0628211E1,1.4820524E0,5.0828037E0,3.6569085E0,1.4345875E-1,1.9614043E0,8.161543E0,1.6872494E1,2.591511E0,5.102745E0,9.278895E0,5.1858525E0,6.537384E0,1.0705776E0,6.5605974E-1,3.362691E0,7.6878704E-2,1.1707149E-1,2.3259492E0,7.293246E-1,1.6209688E0,4.4611855E0,8.586079E0,2.2748478E1,2.2146103E0,6.62323E-1,1.0350113E0,3.0076938E0,5.6249385E0,2.646774E1,2.7504883E0,4.480743E0,4.0167713E-1,1.8826292E0,9.5090866E-2,0E0,6.6836745E-2,7.0325756E-1,2.5987039E0,2.8439574E0,2.4899937E-2,5.401145E-2,1.9933723E-1,5.6637526E-3,4.899873E0,2.6959333E0,9.874003E-2,7.8075635E-1,1.0254896E-1,3.3107276E0,3.8963575E0,3.8768826E0,3.4241772E0,9.8467445E-1,1.1045887E1,1.9778E1,0E0,0E0,0E0,0E0,0E0,0E0,0E0,0E0,0E0,0E0,0E0,0E0,0E0,0E0,0E0,0E0,0E0,0E0,0E0,0E0,0E0,0E0,0E0,0E0,0E0,0E0,0E0,0E0,0E0,0E0,0E0,0E0,0E0,0E0,0E0,0E0,0E0,0E0,0E0,0E0,0E0,0E0,0E0,0E0,0E0,0E0,0E0,0E0,0E0,0E0,0E0,0E0,0E0,0E0,0E0,0E0,0E0,0E0,0E0,0E0,0E0,0E0],"parents":[2147483647,0,0,1,1,2,2,3,3,4,4,5,5,6,6,7,7,8,8,9,9,10,10,11,11,12,12,13,13,14,14,15,15,16,16,17,17,18,18,19,19,20,20,21,21,22,22,23,23,24,24,25,25,26,26,27,27,28,28,29,29,30,30,31,31,32,32,33,33,34,34,35,35,36,36,37,37,38,38,39,39,40,40,41,41,43,43,44,44,45,45,46,46,47,47,48,48,49,49,50,50,51,51,52,52,53,53,54,54,55,55,56,56,57,57,58,58,59,59,60,60,61,61,62,62],"right_children":[2,4,6,8,10,12,14,16,18,20,22,24,26,28,30,32,34,36,38,40,42,44,46,48,50,52,54,56,58,60,62,64,66,68,70,72,74,76,78,80,82,84,-1,86,88,90,92,94,96,98,100,102,104,106,108,110,112,114,116,118,120,122,124,-1,-1,-1,-1,-1,-1,-1,-1,-1,-1,-1,-1,-1,-1,-1,-1,-1,-1,-1,-1,-1,-1,-1,-1,-1,-1,-1,-1,-1,-1,-1,-1,-1,-1,-1,-1,-1,-1,-1,-1,-1,-1,-1,-1,-1,-1,-1,-1,-1,-1,-1,-1,-1,-1,-1,-1,-1,-1,-1,-1,-1,-1],"split_conditions":[9.96E-1,9.525E-1,1.35E1,5E-1,9.575E-1,3.5E0,1.95E1,3.705E2,9.095E-1,3.5E0,1.15E1,1.15E1,1.55E1,1.75E1,2.55E1,3.255E2,3.35E1,9.03E-1,1.15E1,2.5E0,9.555E-1,9.63E-1,1.25E1,2.5E0,5.95E1,1.15E1,4.5E0,2.7850002E-1,5.6299996E-1,2.35E1,2.85E1,1.15E1,3.6E1,4.535E2,9.55E1,9.005E-1,4.05E1,9.3200004E-1,3.245E2,5E-1,1.8E1,1.65E1,-9.064216E-2,5.8E1,9.68E-1,9.75E-1,7.7E1,4.5E0,3.59E-1,6.15E1,4.16E-1,7.5E0,4.745E-1,1.695E-1,2.3550001E-1,4.35E1,4.7149998E-1,2.15E1,6.75E1,2.05E1,2.45E1,7.47E-1,3.15E1,1.834521E-3,1.6312692E-2,-7.501814E-2,1.0851541E-1,9.084679E-2,-6.940311E-2,-1.020833E-1,3.35129E-2,5.8946553E-5,-6.938126E-2,6.670875E-3,1.3258587E-1,-4.485221E-2,-1.08383E-2,1.2221436E-2,-1.0119844E-2,-3.9420366E-2,-2.0729471E-2,5.213377E-2,2.0872916E-1,-5.8878273E-2,-3.6174826E-2,8.516599E-2,-7.778374E-4,-2.2864137E-2,-5.7329644E-2,-3.9637904E-3,7.7154994E-2,-4.5790583E-2,-1.8047316E-3,-5.480245E-4,-1.4256203E-3,-1.6395991E-3,2.1331754E-4,1.8249139E-3,6.883494E-2,-5.1369346E-3,-9.645243E-3,2.7572578E-3,-3.6530916E-3,-1.1428567E-4,9.928415E-3,-2.641194E-3,4.341353E-3,-1.6798107E-2,-3.4733857E-3,-7.1160677E-3,-5.036434E-2,5.253745E-2,8.995871E-3,-4.9438875E-2,1.15618505E-1,3.5609562E-2,1.89119E-1,-2.7105479E-2,-1.6883499E-3,-4.0767763E-2,-6.667033E-2,-3.5943568E-3,5.8068123E-2,-3.2858625E-2,8.678603E-3],"split_indices":[5,5,0,8,5,0,0,9,5,10,1,1,8,0,1,9,0,5,1,10,6,5,0,0,8,1,0,6,6,0,0,9,0,9,10,5,4,5,9,14,1,8,0,0,6,5,9,1,6,1,6,0,6,6,6,1,6,8,1,0,0,6,0,0,0,0,0,0,0,0,0,0,0,0,0,0,0,0,0,0,0,0,0,0,0,0,0,0,0,0,0,0,0,0,0,0,0,0,0,0,0,0,0,0,0,0,0,0,0,0,0,0,0,0,0,0,0,0,0,0,0,0,0,0,0],"split_type":[0,0,0,0,0,0,0,0,0,0,0,0,0,0,0,0,0,0,0,0,0,0,0,0,0,0,0,0,0,0,0,0,0,0,0,0,0,0,0,0,0,0,0,0,0,0,0,0,0,0,0,0,0,0,0,0,0,0,0,0,0,0,0,0,0,0,0,0,0,0,0,0,0,0,0,0,0,0,0,0,0,0,0,0,0,0,0,0,0,0,0,0,0,0,0,0,0,0,0,0,0,0,0,0,0,0,0,0,0,0,0,0,0,0,0,0,0,0,0,0,0,0,0,0,0],"sum_hessian":[1.049866E6,9.0663E5,1.43236E5,9.03319E5,3.311E3,1.25372E5,1.7864E4,4.274E3,8.99045E5,8.59E2,2.452E3,4.553E4,7.9842E4,7.303E3,1.0561E4,3.842E3,4.32E2,8.94914E5,4.131E3,6.08E2,2.51E2,2.3E2,2.222E3,4.1239E4,4.291E3,7.7526E4,2.316E3,5.537E3,1.766E3,2.6E3,7.961E3,3.803E3,3.9E1,2.29E2,2.03E2,8.93849E5,1.065E3,8.64E2,3.267E3,5.65E2,4.3E1,8.2E1,1.69E2,4E0,2.26E2,1.44E2,2.078E3,1.7464E4,2.3775E4,4.116E3,1.75E2,6.7109E4,1.0417E4,7.31E2,1.585E3,4.7E1,5.49E3,1.05E2,1.661E3,2.056E3,5.44E2,1.397E3,6.564E3,1.907E3,1.896E3,3.8E1,1E0,2.26E2,3E0,1.5E1,1.88E2,8.93745E5,1.04E2,8.85E2,1.8E2,3.91E2,4.73E2,1.459E3,1.808E3,4.23E2,1.42E2,3.5E1,8E0,4E1,4.2E1,3E0,1E0,9.1E1,1.35E2,6.2E1,8.2E1,1.41E2,1.937E3,1.3775E4,3.689E3,1.511E3,2.2264E4,4.113E3,3E0,1.43E2,3.2E1,5.3698E4,1.3411E4,3.77E3,6.647E3,3.39E2,3.92E2,8.17E2,7.68E2,6E0,4.1E1,1.61E2,5.329E3,9.1E1,1.4E1,1.647E3,1.4E1,7.51E2,1.305E3,2.82E2,2.62E2,3.48E2,1.049E3,1.281E3,5.283E3],"tree_param":{"num_deleted":"0","num_feature":"15","num_nodes":"125","size_leaf_vector":"0"}},{"base_weights":[7.3417614E-4,-2.731224E-4,3.4490144E-3,-4.251445E-4,4.3501123E-3,3.8131934E-3,-3.6780767E-2,-1.321954E-4,-5.2270656E-3,3.262529E-3,5.1114235E-2,2.814149E-3,1.8919677E-2,-2.9064968E-2,-7.8284286E-2,-5.633263E-4,1.8994451E-3,-3.7867647E-2,-4.078415E-3,9.13675E-3,-2.7850952E-3,1.3726063E-1,5.1101384E-4,3.6189624E-3,-1.1212162E-2,2.998245E-2,-1.7640118E-2,-2.5874136E-2,-9.357321E-2,-2.6388789E-2,-1.1514379E-1,-1.2128658E-3,-1.4061609E-4,-1.9130329E-4,5.2095097E-3,-2.559077E-2,-5.475925E-2,-6.2834756E-3,5.309869E-3,1.05193965E-2,-3.407041E-2,4.5741123E-1,-2.8632625E-3,4.371784E-2,3.573663E-1,4.3999276E-1,-5.8413553E-3,3.1731322E-3,1.2885496E-1,-3.3109404E-2,-5.8807763E-3,1.8304493E-2,1.1616162E-1,-1.1169047E-1,4.9511488E-3,-1.5225419E-3,-3.1609047E-2,-4.4556115E-2,-1.5358213E-1,-1.4911585E-2,-5.7173397E-2,-9.689018E-2,-2.2283566E-1,-1.217068E-3,7.8462295E-2,-4.533453E-5,-4.489718E-3,-5.43344E-4,2.4521269E-2,-1.2410374E-3,6.383495E-3,-2.7567271E-2,7.183307E-2,-7.162916E-2,-4.1815314E-2,-5.379046E-3,-2.4922496E-2,2.4083765E-2,-9.978303E-3,1.0100334E-2,1.9150643E-1,4.1849227E-3,-7.380385E-2,5.8816597E-2,-3.0791794E-3,1.5174629E-1,-2.596013E-2,1.24334395E-1,6.102175E-1,6.507122E-2,-3.140259E-2,2.4658185E-3,3.532151E-2,-4.9888967E-3,2.733929E-1,-2.1573274E-1,-2.1691557E-2,2.7759623E-2,-8.832248E-3,2.0680701E-2,-7.4842095E-2,1.9778179E-1,9.144841E-2,-1.552593E-1,-9.975844E-4,7.712519E-2,5.3186348E-5,-8.987277E-3,7.9957075E-2,-3.5488058E-2,2.1307074E-2,-6.1581764E-2,4.1622613E-2,-2.0167135E-1,-1.0310108E-1,-1.1633236E-2,-2.5619078E-2,-7.760655E-2,6.4836085E-2,-3.6261626E-2,-1.13160856E-1,-1.8583897E-1,-2.7993459E-1],"categories":[],"categories_nodes":[],"categories_segments":[],"categories_sizes":[],"default_left":[true,true,true,true,true,true,true,true,true,true,true,true,true,true,true,true,true,true,true,true,true,true,true,true,true,true,true,true,true,true,true,true,true,true,true,true,true,true,true,true,true,false,true,true,true,false,true,true,true,true,true,true,true,true,true,true,true,true,true,true,true,true,true,false,false,false,false,false,false,false,false,false,false,false,false,false,false,false,false,false,false,false,false,false,false,false,false,false,false,false,false,false,false,false,false,false,false,false,false,false,false,false,false,false,false,false,false,false,false,false,false,false,false,false,false,false,false,false,false,false,false,false,false],"id":19,"left_children":[1,3,5,7,9,11,13,15,17,19,21,23,25,27,29,31,33,35,37,39,41,43,45,47,49,51,53,55,57,59,61,63,65,67,69,71,73,75,77,79,81,-1,83,85,87,-1,89,91,93,95,97,99,101,103,105,107,109,111,113,115,117,119,121,-1,-1,-1,-1,-1,-1,-1,-1,-1,-1,-1,-1,-1,-1,-1,-1,-1,-1,-1,-1,-1,-1,-1,-1,-1,-1,-1,-1,-1,-1,-1,-1,-1,-1,-1,-1,-1,-1,-1,-1,-1,-1,-1,-1,-1,-1,-1,-1,-1,-1,-1,-1,-1,-1,-1,-1,-1,-1,-1,-1],"loss_changes":[2.8710227E0,5.3819627E-1,4.162724E0,1.042901E0,1.2396953E0,4.2494297E0,8.13998E-1,6.1203384E-1,1.5980809E0,8.4641063E-1,2.414974E0,2.981418E0,7.0646996E0,4.403299E-1,7.601857E-1,1.5826683E-1,8.46532E-1,2.990868E-1,8.525308E-1,7.223784E-1,4.2362526E-1,4.205183E0,9.796828E-1,1.3945529E1,1.672961E0,1.3492645E1,8.622652E0,2.8638268E-1,2.902447E-1,5.8152102E-2,4.364326E-1,7.618013E-2,1.4469746E-1,6.5223974E-1,3.586049E-1,1.6392183E-1,1.2998784E-1,5.6203604E-1,2.2484565E0,8.8636196E-1,5.703149E-1,0E0,1.565178E-1,1.0953838E0,3.518396E0,0E0,6.292076E-1,5.659418E0,1.714149E1,5.8462954E0,1.1447457E0,2.615522E0,3.2092686E0,3.790535E0,1.1570202E0,2.3914231E-1,3.4149122E-1,8.619638E-2,8.844912E-2,4.0196218E-3,1.1721845E-1,1.9417655E-1,1.768887E-2,0E0,0E0,0E0,0E0,0E0,0E0,0E0,0E0,0E0,0E0,0E0,0E0,0E0,0E0,0E0,0E0,0E0,0E0,0E0,0E0,0E0,0E0,0E0,0E0,0E0,0E0,0E0,0E0,0E0,0E0,0E0,0E0,0E0,0E0,0E0,0E0,0E0,0E0,0E0,0E0,0E0,0E0,0E0,0E0,0E0,0E0,0E0,0E0,0E0,0E0,0E0,0E0,0E0,0E0,0E0,0E0,0E0,0E0,0E0,0E0],"parents":[2147483647,0,0,1,1,2,2,3,3,4,4,5,5,6,6,7,7,8,8,9,9,10,10,11,11,12,12,13,13,14,14,15,15,16,16,17,17,18,18,19,19,20,20,21,21,22,22,23,23,24,24,25,25,26,26,27,27,28,28,29,29,30,30,31,31,32,32,33,33,34,34,35,35,36,36,37,37,38,38,39,39,40,40,42,42,43,43,44,44,46,46,47,47,48,48,49,49,50,50,51,51,52,52,53,53,54,54,55,55,56,56,57,57,58,58,59,59,60,60,61,61,62,62],"right_children":[2,4,6,8,10,12,14,16,18,20,22,24,26,28,30,32,34,36,38,40,42,44,46,48,50,52,54,56,58,60,62,64,66,68,70,72,74,76,78,80,82,-1,84,86,88,-1,90,92,94,96,98,100,102,104,106,108,110,112,114,116,118,120,122,-1,-1,-1,-1,-1,-1,-1,-1,-1,-1,-1,-1,-1,-1,-1,-1,-1,-1,-1,-1,-1,-1,-1,-1,-1,-1,-1,-1,-1,-1,-1,-1,-1,-1,-1,-1,-1,-1,-1,-1,-1,-1,-1,-1,-1,-1,-1,-1,-1,-1,-1,-1,-1,-1,-1,-1,-1,-1,-1,-1],"split_conditions":[5.065E-1,2.35E1,2.7015E3,4.35E1,4.745E-1,2.5E0,8.865E-1,8.5E0,1.95E1,5E-1,4.855E-1,4.75E1,4.49E2,1.05E1,7.5E0,5E-1,8.355E-1,4.75E1,3.975E-1,4.485E-1,3.5E0,4.8250002E-1,1.25E1,4.4E1,6.15E1,2.815E2,4.55E1,3.5E0,5.64E-1,4.5E0,8.5150003E-1,6.5E0,4.9449998E-1,3.85E1,1.95E1,4.65E1,2.5E0,5.5E0,4.505E-1,4.4550002E-1,1.225E2,1.3722338E-1,2.45E1,4.795E-1,4.25E1,1.3199784E-1,2.35E1,3.05E1,8.94E-1,5.5E0,3.6E1,2.47E2,3.145E2,5.15E1,5E-1,2.5E0,8.21E-1,1.52E2,6.76E-1,3.1599998E-1,1.6E2,8.95E-1,5E-1,-3.6512042E-4,2.353869E-2,-1.360036E-5,-1.3469155E-3,-1.630032E-4,7.356381E-3,-3.7231125E-4,1.9150486E-3,-8.270182E-3,2.1549921E-2,-2.1488748E-2,-1.2544595E-2,-1.6137138E-3,-7.476749E-3,7.2251298E-3,-2.993491E-3,3.0301004E-3,5.745193E-2,1.2554768E-3,-2.2141155E-2,1.7644979E-2,-9.237539E-4,4.552389E-2,-7.7880393E-3,3.730032E-2,1.8306527E-1,1.9521367E-2,-9.420778E-3,7.397456E-4,1.0596454E-2,-1.496669E-3,8.201787E-2,-6.4719826E-2,-6.5074675E-3,8.327887E-3,-2.6496744E-3,6.2042107E-3,-2.245263E-2,5.933454E-2,2.7434524E-2,-4.657779E-2,-2.9927533E-4,2.3137558E-2,1.5955906E-5,-2.696183E-3,2.3987124E-2,-1.0646418E-2,6.3921222E-3,-1.847453E-2,1.2486785E-2,-6.0501408E-2,-3.0930325E-2,-3.489971E-3,-7.6857237E-3,-2.3281965E-2,1.9450827E-2,-1.0878488E-2,-3.3948258E-2,-5.5751693E-2,-8.398038E-2],"split_indices":[5,10,13,9,5,10,5,9,0,12,5,1,9,12,0,9,6,9,5,5,8,5,1,4,1,9,1,4,6,0,6,4,5,9,13,9,14,12,5,5,9,0,13,5,0,0,0,4,5,8,4,9,9,0,8,12,5,1,5,6,1,5,12,0,0,0,0,0,0,0,0,0,0,0,0,0,0,0,0,0,0,0,0,0,0,0,0,0,0,0,0,0,0,0,0,0,0,0,0,0,0,0,0,0,0,0,0,0,0,0,0,0,0,0,0,0,0,0,0,0,0,0,0],"split_type":[0,0,0,0,0,0,0,0,0,0,0,0,0,0,0,0,0,0,0,0,0,0,0,0,0,0,0,0,0,0,0,0,0,0,0,0,0,0,0,0,0,0,0,0,0,0,0,0,0,0,0,0,0,0,0,0,0,0,0,0,0,0,0,0,0,0,0,0,0,0,0,0,0,0,0,0,0,0,0,0,0,0,0,0,0,0,0,0,0,0,0,0,0,0,0,0,0,0,0,0,0,0,0,0,0,0,0,0,0,0,0,0,0,0,0,0,0,0,0,0,0,0,0],"sum_hessian":[1.049866E6,7.65748E5,2.84118E5,7.41371E5,2.4377E4,2.8157E5,2.548E3,6.98744E5,4.2627E4,2.3824E4,5.53E2,2.64105E5,1.7465E4,2.15E3,3.98E2,5.76423E5,1.22321E5,1.448E3,4.1179E4,1.2085E4,1.1739E4,2.04E2,3.49E2,2.49774E5,1.4331E4,1.3408E4,4.057E3,2.05E3,1E2,1.66E2,2.32E2,2.27241E5,3.49182E5,7.4969E4,4.7352E4,8.4E2,6.08E2,3.3347E4,7.832E3,1.1711E4,3.74E2,1E0,1.1738E4,1.44E2,6E1,4E0,3.45E2,2.48889E5,8.85E2,2.805E3,1.1526E4,1.1809E4,1.599E3,7.85E2,3.272E3,3.91E2,1.659E3,5.6E1,4.4E1,1.22E2,4.4E1,2E2,3.2E1,2.2723E5,1.1E1,3.41697E5,7.485E3,7.3917E4,1.052E3,7.291E3,4.0061E4,8.24E2,1.6E1,2.62E2,3.46E2,3.1805E4,1.542E3,3.515E3,4.317E3,1.1685E4,2.6E1,1.91E2,1.83E2,4E1,1.1698E4,5.6E1,8.8E1,3.2E1,2.8E1,9.1E1,2.54E2,2.43532E5,5.357E3,4.6E2,4.25E2,1.64E2,2.641E3,9.29E2,1.0597E4,1.1516E4,2.93E2,3.7E2,1.229E3,5.63E2,2.22E2,2.07E2,3.065E3,3.59E2,3.2E1,1.546E3,1.13E2,4.7E1,9E0,2.1E1,2.3E1,9.5E1,2.7E1,3.8E1,6E0,4.3E1,1.57E2,2.2E1,1E1],"tree_param":{"num_deleted":"0","num_feature":"15","num_nodes":"123","size_leaf_vector":"0"}}]},"name":"gbtree"},"learner_model_param":{"base_score":"5E-1","num_class":"0","num_feature":"15"},"objective":{"name":"reg:squarederror","reg_loss_param":{"scale_pos_weight":"1"}}},"version":[1,6,0]}