{"learner":{"attributes":{},"feature_names":[],"feature_types":[],"gradient_booster":{"model":{"gbtree_model_param":{"num_trees":"30","size_leaf_vector":"0"},"tree_info":[0,0,0,0,0,0,0,0,0,0,0,0,0,0,0,0,0,0,0,0,0,0,0,0,0,0,0,0,0,0],"trees":[{"base_weights":[-4.634113E-1,-4.8782134E-1,-4.3376458E-1,-4.9299344E-1,-4.8165256E-1,-4.6411505E-1,-3.652983E-1,-4.9496982E-1,-4.8990175E-1,-4.895085E-1,-4.721204E-1,-4.8245096E-1,-4.3807945E-1,-4.329152E-1,-2.8412104E-1,-4.9684712E-1,-4.9403605E-1,-4.917762E-1,-4.8583788E-1,-4.9191484E-1,-4.8514712E-1,-4.8135293E-1,-4.5667377E-1,-4.9004978E-1,-4.724574E-1,-4.7624496E-1,-4.1453356E-1,-4.6787626E-1,-4.01225E-1,-2.7168804E-1,-4.9993062E-1,-4.9487072E-1,-4.9265733E-1,-4.939428E-1,-4.902753E-1,-4.8909932E-1,-4.7832122E-1,-4.9411732E-1,-4.9042463E-1,-4.879496E-1,-4.7778523E-1,-4.890598E-1,-4.7684184E-1,-4.6347567E-1,-4.5158625E-1,-4.93203E-1,-4.857214E-1,-4.829786E-1,-4.558352E-1,-4.8574993E-1,-4.6198025E-1,-4.051432E-1,-4.8355886E-1,-4.8130608E-1,-4.5083174E-1,-3.903207E-1,-4.828394E-1,-3.0621162E-1,-1.7842354E-1,-4.9419382E-1,-4.9076316E-1,-4.933299E-1,-4.8898122E-1,-4.9243098E-1,-4.8725298E-1,-0E0,-4.783621E-1,-4.9335325E-1,-4.8922208E-1,-4.9131238E-1,-4.850696E-1,2.5E-1,-4.778198E-1,-4.9015945E-1,-4.8445278E-1,-4.3930635E-1,-4.7690615E-1,-4.7284225E-1,-4.5676616E-1,-4.583537E-1,-4.489198E-1,-4.9457857E-1,-4.9117106E-1,-4.9041653E-1,-4.7874713E-1,-4.9142203E-1,-4.7766545E-1,-8.571429E-2,-4.5602888E-1,-4.90757E-1,-4.80044E-1,3.125E-2,-4.621596E-1,-4.2284277E-1,-3.8569704E-1,-3.8490567E-1,-4.8759583E-1,-4.9064565E-1,-4.7502965E-1,-8.695652E-2,-4.5106965E-1,-4.0826795E-1,-3.6764026E-1,-2.9666665E-1,-4.8567736E-1,-3.3889663E-1,-2.7616566E-1,-2.1507987E-1,-7.575587E-2],"categories":[],"categories_nodes":[],"categories_segments":[],"categories_sizes":[],"default_left":[true,true,true,true,true,true,true,true,true,true,true,true,true,true,true,false,true,true,true,true,true,true,true,true,true,true,true,true,true,true,false,false,true,false,true,true,true,false,true,true,true,true,true,true,true,true,true,true,true,true,true,true,true,true,true,true,true,true,true,false,false,false,false,false,false,false,false,false,false,false,false,false,false,false,false,false,false,false,false,false,false,false,false,false,false,false,false,false,false,false,false,false,false,false,false,false,false,false,false,false,false,false,false,false,false,false,false,false,false],"id":0,"left_children":[1,3,5,7,9,11,13,15,17,19,21,23,25,27,29,-1,31,33,35,37,39,41,43,45,47,49,51,53,55,57,-1,-1,59,-1,61,63,65,-1,67,69,71,73,75,77,79,81,83,85,87,89,91,93,95,97,99,101,103,105,107,-1,-1,-1,-1,-1,-1,-1,-1,-1,-1,-1,-1,-1,-1,-1,-1,-1,-1,-1,-1,-1,-1,-1,-1,-1,-1,-1,-1,-1,-1,-1,-1,-1,-1,-1,-1,-1,-1,-1,-1,-1,-1,-1,-1,-1,-1,-1,-1,-1,-1],"loss_changes":[1.5193438E3,3.65E1,1.9701094E3,3.578125E0,3.9101562E1,3.1340625E2,1.5983984E3,4.296875E-1,1.6210938E0,2.7890625E0,3.3628906E1,2.9039062E1,2.4377344E2,1.7583984E2,3.549668E2,0E0,5.078125E-2,2.96875E-1,1.6582031E0,3.671875E-1,1.8808594E0,4.9296875E0,2.8652344E0,2.75E0,2.8902344E1,1.38203125E1,1.0863672E2,1.7072266E1,7.398535E1,4.028672E2,0E0,0E0,3.7109375E-2,0E0,1.5039062E-1,9.082031E-2,4.5751953E-1,0E0,1.5039062E-1,4.7851562E-1,8.310547E-1,4.0039062E-2,1.5625E-2,2.1694336E0,7.109375E-1,1.11328125E-1,2.7890625E0,4.3398438E0,4.588867E0,1.5400391E0,3.6796875E0,5.0710938E1,7.8183594E0,2.2421875E0,2.84375E0,2.9779297E1,5.043701E0,8.959668E1,1.27224976E2,0E0,0E0,0E0,0E0,0E0,0E0,0E0,0E0,0E0,0E0,0E0,0E0,0E0,0E0,0E0,0E0,0E0,0E0,0E0,0E0,0E0,0E0,0E0,0E0,0E0,0E0,0E0,0E0,0E0,0E0,0E0,0E0,0E0,0E0,0E0,0E0,0E0,0E0,0E0,0E0,0E0,0E0,0E0,0E0,0E0,0E0,0E0,0E0,0E0,0E0],"parents":[2147483647,0,0,1,1,2,2,3,3,4,4,5,5,6,6,7,7,8,8,9,9,10,10,11,11,12,12,13,13,14,14,16,16,17,17,18,18,19,19,20,20,21,21,22,22,23,23,24,24,25,25,26,26,27,27,28,28,29,29,32,32,34,34,35,35,36,36,38,38,39,39,40,40,41,41,42,42,43,43,44,44,45,45,46,46,47,47,48,48,49,49,50,50,51,51,52,52,53,53,54,54,55,55,56,56,57,57,58,58],"right_children":[2,4,6,8,10,12,14,16,18,20,22,24,26,28,30,-1,32,34,36,38,40,42,44,46,48,50,52,54,56,58,-1,-1,60,-1,62,64,66,-1,68,70,72,74,76,78,80,82,84,86,88,90,92,94,96,98,100,102,104,106,108,-1,-1,-1,-1,-1,-1,-1,-1,-1,-1,-1,-1,-1,-1,-1,-1,-1,-1,-1,-1,-1,-1,-1,-1,-1,-1,-1,-1,-1,-1,-1,-1,-1,-1,-1,-1,-1,-1,-1,-1,-1,-1,-1,-1,-1,-1,-1,-1,-1,-1],"split_conditions":[3.5E0,3.67292E-1,9.00306E-1,4.2836797E-1,4.051785E-1,4.02837E-1,9.00306E-1,5E-1,2.14555E-1,2.19769E-1,2.5E0,4.37327E-1,4.276455E-1,3.96874E-1,5.85E1,-1.4905414E-1,1.93874E-1,1.5E0,2.5E0,1.5E0,2.5E0,1.5E0,8.72324E-1,1.889115E-1,2.4148151E-1,2.4148151E-1,5.45E1,2.245045E-1,5.45E1,1.25E1,-1.4997919E-1,-1.4846122E-1,1.928905E-1,-1.4818284E-1,8.252165E-2,7.5E0,2.146925E-1,-1.482352E-1,8.252165E-2,1.5E0,3.67618E-1,4.5E0,4.09804E-1,8.704295E-1,6.013345E-1,1.889115E-1,2.245045E-1,1.13083005E-1,2.416065E-1,1.379465E-1,2.416065E-1,7.5E0,4.4882601E-1,1.13083005E-1,2.2455451E-1,7.5E0,9.0482E-1,5.5E0,3.05E1,-1.4825815E-1,-1.4722896E-1,-1.4799897E-1,-1.4669438E-1,-1.477293E-1,-1.461759E-1,-0E0,-1.4350864E-1,-1.4800598E-1,-1.4676663E-1,-1.4739372E-1,-1.4552088E-1,7.5E-2,-1.4334595E-1,-1.4704785E-1,-1.4533584E-1,-1.317919E-1,-1.4307185E-1,-1.4185268E-1,-1.3702986E-1,-1.3750611E-1,-1.3467595E-1,-1.4837357E-1,-1.4735132E-1,-1.4712496E-1,-1.4362414E-1,-1.4742662E-1,-1.4329964E-1,-2.5714288E-2,-1.3680866E-1,-1.4722711E-1,-1.4401321E-1,9.375E-3,-1.3864788E-1,-1.2685284E-1,-1.1570912E-1,-1.15471706E-1,-1.4627875E-1,-1.471937E-1,-1.425089E-1,-2.6086958E-2,-1.353209E-1,-1.22480385E-1,-1.10292085E-1,-8.9E-2,-1.4570321E-1,-1.0166899E-1,-8.2849704E-2,-6.4523965E-2,-2.2726763E-2],"split_indices":[4,5,5,6,6,5,6,4,5,6,4,6,6,6,0,0,5,4,4,4,4,4,5,5,5,6,0,6,1,4,0,0,6,0,5,0,5,0,6,4,5,1,6,6,6,6,6,5,5,6,6,4,5,6,6,4,5,4,4,0,0,0,0,0,0,0,0,0,0,0,0,0,0,0,0,0,0,0,0,0,0,0,0,0,0,0,0,0,0,0,0,0,0,0,0,0,0,0,0,0,0,0,0,0,0,0,0,0,0],"split_type":[0,0,0,0,0,0,0,0,0,0,0,0,0,0,0,0,0,0,0,0,0,0,0,0,0,0,0,0,0,0,0,0,0,0,0,0,0,0,0,0,0,0,0,0,0,0,0,0,0,0,0,0,0,0,0,0,0,0,0,0,0,0,0,0,0,0,0,0,0,0,0,0,0,0,0,0,0,0,0,0,0,0,0,0,0,0,0,0,0,0,0,0,0,0,0,0,0,0,0,0,0,0,0,0,0,0,0,0,0],"sum_hessian":[2.099732E6,1.151562E6,9.4817E5,6.2634E5,5.25222E5,6.56946E5,2.91224E5,3.81992E5,2.44348E5,2.87899E5,2.37323E5,3.85462E5,2.71484E5,1.5888E5,1.32344E5,1.26709E5,2.55283E5,1.67136E5,7.7212E4,1.85462E5,1.02437E5,1.48521E5,8.8802E4,2.18939E5,1.66523E5,1.03577E5,1.67907E5,7.5535E4,8.3345E4,1.25137E5,7.207E3,1.58793E5,9.649E4,6.8265E4,9.8871E4,5.3803E4,2.3409E4,7.471E4,1.10752E5,7.4146E4,2.8291E4,5.4797E4,9.3724E4,3.796E4,5.0842E4,1.26599E5,9.234E4,1.01959E5,6.4564E4,6.2139E4,4.1438E4,1.47806E5,2.0101E4,4.2232E4,3.3303E4,7.3527E4,9.818E3,9.1328E4,3.3809E4,5.3132E4,4.3358E4,2.9309E4,6.9562E4,1.909E4,3.4713E4,2E0,2.3407E4,3.212E4,7.8632E4,3.4128E4,4.0018E4,1E0,2.829E4,4.4153E4,1.0644E4,1.72E2,9.3552E4,1.5814E4,2.2146E4,1.4322E4,3.652E4,7.5348E4,5.1251E4,5.5146E4,3.7194E4,3.9344E4,6.2615E4,3.4E1,6.453E4,3.3051E4,2.9088E4,1.5E1,4.1423E4,7.7367E4,7.0439E4,7.94E2,1.9307E4,1.6943E4,2.5289E4,2.2E1,3.3281E4,4.1037E4,3.249E4,1.49E2,9.669E3,4.3738E4,4.759E4,2.4913E4,8.896E3],"tree_param":{"num_deleted":"0","num_feature":"7","num_nodes":"109","size_leaf_vector":"0"}},{"base_weights":[-3.243911E-1,-3.383197E-1,-2.9825836E-1,-3.4147787E-1,-3.2164484E-1,-3.2284504E-1,-2.4360543E-1,-3.4489635E-1,-3.367643E-1,-3.3464143E-1,-2.9036602E-1,-3.3825755E-1,-3.0465275E-1,-2.9468173E-1,-1.8716659E-1,-3.4616816E-1,-3.418355E-1,-3.4296829E-1,-3.3028126E-1,-3.4164366E-1,-3.207704E-1,-3.1983334E-1,-2.5245184E-1,-3.4318304E-1,-3.3148634E-1,-3.2820645E-1,-2.8503388E-1,-3.2423162E-1,-2.7220628E-1,-1.7528905E-1,-3.5002762E-1,-3.4789392E-1,-3.4546798E-1,-3.450373E-1,-3.3964992E-1,-3.4413412E-1,-3.3975393E-1,-3.3675653E-1,-3.1944144E-1,-3.4507123E-1,-3.3812624E-1,-3.3771762E-1,-3.063113E-1,-3.356104E-1,-3.0322692E-1,-2.4766743E-1,-2.8406432E-1,-3.4565797E-1,-3.407023E-1,-3.408635E-1,-3.241728E-1,-3.34851E-1,-3.1227693E-1,-2.7531475E-1,-3.465247E-1,-3.308748E-1,-3.0134615E-1,-2.612849E-1,-3.3945283E-1,-1.8718691E-1,-5.3031653E-2,-3.4655553E-1,-3.4450278E-1,-3.419815E-1,-3.343041E-1,-3.4593594E-1,-3.4306648E-1,-3.4326503E-1,-3.358334E-1,-3.4228703E-1,-3.335204E-1,-3.2408038E-1,-3.1599358E-1,-3.4628543E-1,-3.4307894E-1,-3.4317392E-1,-3.3137435E-1,-1.1351237E-1,-3.3787313E-1,-3.1725737E-1,-3.0055314E-1,-3.3923194E-1,-3.214644E-1,4.245391E-1,-3.03334E-1,-2.520607E-1,-2.9531956E-1,-3.4568167E-1,-2.493818E-1,-3.4405026E-1,-3.3743396E-1,9.8083295E-2,-3.4088293E-1,-3.2599595E-1,-3.0827576E-1,-3.4447038E-1,-3.3044234E-1,-3.1635234E-1,-2.8212562E-1,-2.905164E-1,-2.5872585E-1,-3.243645E-1,-3.525727E-1,-3.4347847E-1,-3.2616127E-1,2.89681E-1,-3.0244622E-1,-2.7587014E-1,-2.4321957E-1,-3.0185902E-1,-3.5282382E-1,-1.8293265E-1,-3.5126838E-1,1.5532434E-1,-1.3139057E-1],"categories":[],"categories_nodes":[],"categories_segments":[],"categories_sizes":[],"default_left":[true,true,true,true,true,true,true,true,true,true,true,true,true,true,true,true,true,true,true,true,true,true,true,true,true,true,true,true,true,true,false,false,true,false,true,true,true,true,true,true,true,true,true,true,true,false,true,true,true,true,true,true,true,true,true,true,true,true,true,true,true,false,false,false,false,false,false,false,false,false,false,false,false,false,false,false,false,false,false,false,false,false,false,false,false,false,false,false,false,false,false,false,false,false,false,false,false,false,false,false,false,false,false,false,false,false,false,false,false,false,false,false,false,false,false],"id":1,"left_children":[1,3,5,7,9,11,13,15,17,19,21,23,25,27,29,31,33,35,37,39,41,43,45,47,49,51,53,55,57,59,-1,-1,61,-1,63,65,67,69,71,73,75,77,79,81,83,-1,85,87,89,91,93,95,97,99,101,103,105,107,109,111,113,-1,-1,-1,-1,-1,-1,-1,-1,-1,-1,-1,-1,-1,-1,-1,-1,-1,-1,-1,-1,-1,-1,-1,-1,-1,-1,-1,-1,-1,-1,-1,-1,-1,-1,-1,-1,-1,-1,-1,-1,-1,-1,-1,-1,-1,-1,-1,-1,-1,-1,-1,-1,-1,-1],"loss_changes":[7.641875E2,7.2015625E1,9.8091016E2,1.84375E1,8.857422E1,1.4107812E2,6.529453E2,2.4765625E0,1.9359375E1,1.4857422E1,7.1461914E1,8.9765625E0,1.06625E2,7.888574E1,2.0810986E2,4.4921875E-1,1.2539062E0,8.0859375E-1,1.6511719E1,1.1171875E0,1.2566895E1,9.3376465E0,4.1660156E0,8.515625E-1,7.7626953E0,1.100293E1,7.520996E1,7.7094727E0,4.9519043E1,1.4589087E2,0E0,0E0,2.34375E-1,0E0,1.3388672E0,2.3046875E-1,7.9248047E-1,2.5390625E0,1.3134766E0,6.8359375E-3,1.6098633E0,7.915039E-1,1.6638184E0,8.371582E-1,1.4970703E0,0E0,1.2493286E0,9.375E-2,7.470703E-1,4.6191406E-1,1.7700195E0,3.0253906E0,3.708252E0,2.7365234E1,2.1899414E0,2.2524414E0,7.6081543E0,1.5244873E1,4.63562E0,6.3742188E1,1.4527773E2,0E0,0E0,0E0,0E0,0E0,0E0,0E0,0E0,0E0,0E0,0E0,0E0,0E0,0E0,0E0,0E0,0E0,0E0,0E0,0E0,0E0,0E0,0E0,0E0,0E0,0E0,0E0,0E0,0E0,0E0,0E0,0E0,0E0,0E0,0E0,0E0,0E0,0E0,0E0,0E0,0E0,0E0,0E0,0E0,0E0,0E0,0E0,0E0,0E0,0E0,0E0,0E0,0E0,0E0],"parents":[2147483647,0,0,1,1,2,2,3,3,4,4,5,5,6,6,7,7,8,8,9,9,10,10,11,11,12,12,13,13,14,14,15,15,16,16,17,17,18,18,19,19,20,20,21,21,22,22,23,23,24,24,25,25,26,26,27,27,28,28,29,29,32,32,34,34,35,35,36,36,37,37,38,38,39,39,40,40,41,41,42,42,43,43,44,44,46,46,47,47,48,48,49,49,50,50,51,51,52,52,53,53,54,54,55,55,56,56,57,57,58,58,59,59,60,60],"right_children":[2,4,6,8,10,12,14,16,18,20,22,24,26,28,30,32,34,36,38,40,42,44,46,48,50,52,54,56,58,60,-1,-1,62,-1,64,66,68,70,72,74,76,78,80,82,84,-1,86,88,90,92,94,96,98,100,102,104,106,108,110,112,114,-1,-1,-1,-1,-1,-1,-1,-1,-1,-1,-1,-1,-1,-1,-1,-1,-1,-1,-1,-1,-1,-1,-1,-1,-1,-1,-1,-1,-1,-1,-1,-1,-1,-1,-1,-1,-1,-1,-1,-1,-1,-1,-1,-1,-1,-1,-1,-1,-1,-1,-1,-1,-1,-1],"split_conditions":[4.5E0,3.5E0,9.00306E-1,4.051785E-1,9.905845E-1,5.07426E-1,8.969165E-1,6.94281E-1,3.747815E-1,6.699865E-1,6.77747E-1,2.408005E-1,4.02837E-1,3.96874E-1,5.85E1,5E-1,1.5E0,2.5E0,2.5E0,2.3348999E-1,2.8671598E-1,2.91823E-1,5.5E0,2.306065E-1,2.7572852E-1,2.829255E-1,4.15E1,3.0830097E-1,3.55E1,3.05E1,-1.0500829E-1,-1.0436818E-1,1.9437E-1,-1.035112E-1,2.5268948E-1,1.12278506E-1,1.76163E-1,1.5E0,8.72324E-1,1.4209649E-1,3.416025E-1,6.7386353E-1,4.4248098E-1,2.291565E-1,2.92127E-1,-7.430023E-2,7.31174E-1,7.65E1,1.3065651E-1,2.40943E-1,4.85E1,1.13083005E-1,4.75E1,6.240495E-1,6.75E1,1.13083005E-1,3.0831748E-1,6.253205E-1,6.45E1,2.85E1,3.25E1,-1.0396666E-1,-1.0335084E-1,-1.0259446E-1,-1.0029123E-1,-1.0378078E-1,-1.0291995E-1,-1.0297951E-1,-1.0075002E-1,-1.02686115E-1,-1.0005613E-1,-9.722412E-2,-9.479808E-2,-1.03885636E-1,-1.02923684E-1,-1.0295218E-1,-9.941231E-2,-3.4053713E-2,-1.01361945E-1,-9.517722E-2,-9.016594E-2,-1.0176959E-1,-9.6439324E-2,1.2736173E-1,-9.10002E-2,-7.5618215E-2,-8.859587E-2,-1.03704505E-1,-7.481454E-2,-1.0321508E-1,-1.012302E-1,2.942499E-2,-1.0226488E-1,-9.779879E-2,-9.248273E-2,-1.0334112E-1,-9.913271E-2,-9.4905704E-2,-8.463769E-2,-8.7154925E-2,-7.761776E-2,-9.730936E-2,-1.0577182E-1,-1.0304355E-1,-9.7848386E-2,8.69043E-2,-9.073387E-2,-8.276105E-2,-7.2965875E-2,-9.055771E-2,-1.0584715E-1,-5.4879796E-2,-1.0538052E-1,4.6597302E-2,-3.9417174E-2],"split_indices":[4,4,6,5,6,5,5,6,6,5,5,5,6,5,0,4,4,4,4,5,6,5,0,6,6,6,4,5,4,4,0,0,6,0,5,6,6,4,6,5,6,5,6,5,5,0,5,4,5,5,0,6,1,6,1,5,5,5,0,4,0,0,0,0,0,0,0,0,0,0,0,0,0,0,0,0,0,0,0,0,0,0,0,0,0,0,0,0,0,0,0,0,0,0,0,0,0,0,0,0,0,0,0,0,0,0,0,0,0,0,0,0,0,0,0],"split_type":[0,0,0,0,0,0,0,0,0,0,0,0,0,0,0,0,0,0,0,0,0,0,0,0,0,0,0,0,0,0,0,0,0,0,0,0,0,0,0,0,0,0,0,0,0,0,0,0,0,0,0,0,0,0,0,0,0,0,0,0,0,0,0,0,0,0,0,0,0,0,0,0,0,0,0,0,0,0,0,0,0,0,0,0,0,0,0,0,0,0,0,0,0,0,0,0,0,0,0,0,0,0,0,0,0,0,0,0,0,0,0,0,0,0,0],"sum_hessian":[2.099732E6,1.369686E6,7.30046E5,1.151562E6,2.18124E5,5.03522E5,2.26524E5,6.67438E5,4.84124E5,1.54089E5,6.4035E4,2.72577E5,2.30945E5,1.18909E5,1.07615E5,4.71439E5,1.95999E5,2.4736E5,2.36764E5,1.02382E5,5.1707E4,3.6027E4,2.8008E4,1.57766E5,1.14811E5,1.04941E5,1.26004E5,5.1364E4,6.7545E4,1.00302E5,7.313E3,1.35924E5,3.35515E5,7.945E4,1.16549E5,1.81444E5,6.5916E4,1.48203E5,8.8561E4,5.1804E4,5.0578E4,2.3795E4,2.7912E4,1.8465E4,1.7562E4,2.4334E4,3.674E3,7.8906E4,7.886E4,5.0288E4,6.4523E4,7.4038E4,3.0903E4,1.08811E5,1.7193E4,3.9798E4,1.1566E4,5.8112E4,9.433E3,9.1406E4,8.896E3,1.57591E5,1.77924E5,8.111E4,3.5439E4,6.739E4,1.14054E5,3.4728E4,3.1188E4,5.4669E4,9.3534E4,3.7719E4,5.0842E4,3.208E4,1.9724E4,2.8913E4,2.1665E4,1.7E1,2.3778E4,9.603E3,1.8309E4,1.4683E4,3.782E3,2E0,1.756E4,9.62E2,2.712E3,7.8884E4,2.2E1,3.8904E4,3.9956E4,2E0,5.0286E4,5.7867E4,6.656E3,2.3244E4,5.0794E4,2.7215E4,3.688E3,5.6771E4,5.204E4,3.698E3,1.3495E4,1.0813E4,2.8985E4,2.1E1,1.1545E4,3.2145E4,2.5967E4,2.481E3,6.952E3,8.9098E4,2.308E3,2.431E3,6.465E3],"tree_param":{"num_deleted":"0","num_feature":"7","num_nodes":"115","size_leaf_vector":"0"}},{"base_weights":[-2.2707604E-1,-2.3690915E-1,-2.0891991E-1,-2.3963615E-1,-2.2762774E-1,-2.3535115E-1,-1.8519984E-1,-2.4179399E-1,-2.3643549E-1,-2.3701172E-1,-2.1665077E-1,-2.3858325E-1,-2.2795619E-1,-2.1218008E-1,-1.4752886E-1,-2.4276961E-1,-2.4034438E-1,-2.4015808E-1,-2.318971E-1,-2.4070211E-1,-2.3306265E-1,-2.2876914E-1,-2.042843E-1,-2.4075402E-1,-2.3571204E-1,-2.3455909E-1,-2.1985821E-1,-2.2878242E-1,-1.9550359E-1,-1.4012675E-1,-2.4621917E-1,-2.4402755E-1,-2.4247947E-1,-2.4084799E-1,-2.3305447E-1,-2.4054764E-1,-2.2440508E-1,-2.3766531E-1,-2.2458476E-1,-2.4087927E-1,-1.8684891E-1,-2.3550831E-1,-2.2290961E-1,-2.3669179E-1,-2.2325635E-1,-1.9922234E-1,-2.4470615E-1,-2.4242319E-1,-2.3989137E-1,-2.4033016E-1,-2.3315163E-1,-2.4024025E-1,-2.3099443E-1,2.9887098E-1,-2.1989712E-1,-2.3820911E-1,-2.215245E-1,-1.8858834E-1,-2.4064271E-1,-1.6873121E-1,-1.1020117E-1,-2.4404038E-1,4.2391077E-2,-1.0579945E-1,-2.4249211E-1,-2.4206497E-1,-2.3920314E-1,-2.0626122E-1,-2.3688318E-1,-2.4189416E-1,-2.3905672E-1,-2.2955331E-1,3.6263354E-2,1.5461954E-1,-2.3769248E-1,-4.56411E-2,-2.2492671E-1,-2.4226885E-1,-2.3824364E-1,2.237732E-1,-2.0248064E-1,-2.3956771E-1,-2.3360999E-1,-2.2082232E-1,-2.592033E-1,-2.4058828E-1,-2.3393744E-1,-2.320606E-1,-2.1891874E-1,-2.1133362E-1,-1.887678E-1,-8.082751E-2,-2.4606405E-1,-2.4558403E-1,-2.4199294E-1,-2.410183E-1,-2.3860167E-1,-2.4140637E-1,-2.3599666E-1,-2.3331465E-1,-1.8542969E-1,-2.446717E-1,-2.3937133E-1,-2.4030237E-1,-2.2894554E-1,-2.2046988E-1,-2.0950547E-1,-2.3933776E-1,-2.1625352E-1,-1.2062891E-1,-2.2210316E-1,-1.9558209E-1,-1.6296542E-1,-2.1984427E-1,-2.4814485E-1,-1.9480006E-1,-1.637363E-1,1.37196E-1,-1.1406566E-1],"categories":[],"categories_nodes":[],"categories_segments":[],"categories_sizes":[],"default_left":[true,true,true,true,true,true,true,true,true,true,true,true,true,true,true,true,true,true,true,true,true,true,true,true,true,true,true,true,true,true,false,true,true,true,true,true,true,true,true,true,true,true,true,true,true,true,true,true,true,true,true,true,true,false,true,true,true,true,true,true,true,false,false,false,false,false,false,false,false,false,false,false,false,false,false,false,false,false,false,false,false,false,false,false,false,false,false,false,false,false,false,false,false,false,false,false,false,false,false,false,false,false,false,false,false,false,false,false,false,false,false,false,false,false,false,false,false,false,false],"id":2,"left_children":[1,3,5,7,9,11,13,15,17,19,21,23,25,27,29,31,33,35,37,39,41,43,45,47,49,51,53,55,57,59,-1,61,63,65,67,69,71,73,75,77,79,81,83,85,87,89,91,93,95,97,99,101,103,-1,105,107,109,111,113,115,117,-1,-1,-1,-1,-1,-1,-1,-1,-1,-1,-1,-1,-1,-1,-1,-1,-1,-1,-1,-1,-1,-1,-1,-1,-1,-1,-1,-1,-1,-1,-1,-1,-1,-1,-1,-1,-1,-1,-1,-1,-1,-1,-1,-1,-1,-1,-1,-1,-1,-1,-1,-1,-1,-1,-1,-1,-1,-1],"loss_changes":[3.748203E2,3.4421875E1,4.6244727E2,7.2109375E0,3.18125E1,8.285156E0,3.9512012E2,8.3203125E-1,7.107422E0,2.3740234E0,2.1319824E1,1.4570312E0,5.623535E0,6.267578E1,1.1849243E2,7.8125E-2,8.730469E-1,1.3759766E0,8.005859E0,7.7734375E-1,1.9487305E0,3.0917969E0,1.4391846E1,1.40625E-1,1.1806641E0,1.1281738E0,1.027832E0,7.713379E0,3.5233887E1,1.2918091E2,0E0,2.685547E-1,5.019531E-1,4.1601562E-1,1.6316528E0,3.984375E-1,7.5703735E0,1.1748047E0,5.1464844E0,2.5683594E-1,1.8874884E0,4.4433594E-1,1.1292114E0,2.6062012E-1,1.5712891E0,7.9020996E0,1.7269897E0,4.3945312E-3,7.519531E-2,1.1669922E-1,4.802246E-1,2.8076172E-2,6.303711E-1,0E0,2.3754883E-1,1.1716309E0,3.71875E0,1.7532227E1,2.2876587E0,1.0016357E1,7.054065E1,0E0,0E0,0E0,0E0,0E0,0E0,0E0,0E0,0E0,0E0,0E0,0E0,0E0,0E0,0E0,0E0,0E0,0E0,0E0,0E0,0E0,0E0,0E0,0E0,0E0,0E0,0E0,0E0,0E0,0E0,0E0,0E0,0E0,0E0,0E0,0E0,0E0,0E0,0E0,0E0,0E0,0E0,0E0,0E0,0E0,0E0,0E0,0E0,0E0,0E0,0E0,0E0,0E0,0E0,0E0,0E0,0E0,0E0],"parents":[2147483647,0,0,1,1,2,2,3,3,4,4,5,5,6,6,7,7,8,8,9,9,10,10,11,11,12,12,13,13,14,14,15,15,16,16,17,17,18,18,19,19,20,20,21,21,22,22,23,23,24,24,25,25,26,26,27,27,28,28,29,29,31,31,32,32,33,33,34,34,35,35,36,36,37,37,38,38,39,39,40,40,41,41,42,42,43,43,44,44,45,45,46,46,47,47,48,48,49,49,50,50,51,51,52,52,54,54,55,55,56,56,57,57,58,58,59,59,60,60],"right_children":[2,4,6,8,10,12,14,16,18,20,22,24,26,28,30,32,34,36,38,40,42,44,46,48,50,52,54,56,58,60,-1,62,64,66,68,70,72,74,76,78,80,82,84,86,88,90,92,94,96,98,100,102,104,-1,106,108,110,112,114,116,118,-1,-1,-1,-1,-1,-1,-1,-1,-1,-1,-1,-1,-1,-1,-1,-1,-1,-1,-1,-1,-1,-1,-1,-1,-1,-1,-1,-1,-1,-1,-1,-1,-1,-1,-1,-1,-1,-1,-1,-1,-1,-1,-1,-1,-1,-1,-1,-1,-1,-1,-1,-1,-1,-1,-1,-1,-1,-1],"split_conditions":[6.7277896E-1,4.02837E-1,3.5E0,4.37327E-1,5.368035E-1,2.5E0,9.00306E-1,1.7888549E-1,1.95667E-1,2.265775E-1,4.5E0,3.786415E-1,5.583875E-1,4.2456E-1,5.85E1,4.0630303E-2,1.15E1,1.465E2,3.5E0,3.45E1,8.5E0,6.5E0,3.35E1,1.082475E-1,2.5E0,1.69943E-1,5.58577E-1,1.858895E-1,4.25E1,7.5E0,-7.386576E-2,7.6E1,4.06642E-2,1.97007E-1,2.65E1,1.12609E-1,1.601205E-1,1.9569051E-1,1.960455E-1,4.5E0,7.9E1,6.5E0,8.25E1,4.5E0,2.5E0,9.8882747E-1,4.45E1,4.116155E-2,1.5E0,5.5E0,3.75E1,5.8898948E-2,7.5E0,8.96613E-2,7.5E0,1.465E2,1.870055E-1,7.645995E-1,5.75E1,9.86111E-1,9.0437996E-1,-7.321212E-2,1.2717323E-2,-3.173984E-2,-7.274763E-2,-7.261949E-2,-7.1760945E-2,-6.187837E-2,-7.106496E-2,-7.256825E-2,-7.171702E-2,-6.8866E-2,1.0879006E-2,4.6385866E-2,-7.130775E-2,-1.369233E-2,-6.7478016E-2,-7.268066E-2,-7.147309E-2,6.713196E-2,-6.0744196E-2,-7.187032E-2,-7.0083E-2,-6.6246696E-2,-7.7760994E-2,-7.2176486E-2,-7.0181236E-2,-6.961818E-2,-6.567562E-2,-6.340009E-2,-5.6630343E-2,-2.4248255E-2,-7.381922E-2,-7.367521E-2,-7.259788E-2,-7.230549E-2,-7.158051E-2,-7.2421916E-2,-7.0799E-2,-6.99944E-2,-5.562891E-2,-7.340151E-2,-7.18114E-2,-7.2090715E-2,-6.868366E-2,-6.6140965E-2,-6.2851645E-2,-7.180133E-2,-6.487606E-2,-3.6188673E-2,-6.663095E-2,-5.867463E-2,-4.8889626E-2,-6.5953285E-2,-7.444346E-2,-5.8440022E-2,-4.912089E-2,4.1158803E-2,-3.42197E-2],"split_indices":[6,6,4,5,5,4,5,6,6,5,4,5,5,5,0,6,4,1,4,4,4,1,4,5,1,5,5,5,1,4,0,4,6,5,0,6,6,6,6,4,0,1,0,1,4,5,1,5,4,0,1,5,0,0,0,0,5,5,1,6,5,0,0,0,0,0,0,0,0,0,0,0,0,0,0,0,0,0,0,0,0,0,0,0,0,0,0,0,0,0,0,0,0,0,0,0,0,0,0,0,0,0,0,0,0,0,0,0,0,0,0,0,0,0,0,0,0,0,0],"split_type":[0,0,0,0,0,0,0,0,0,0,0,0,0,0,0,0,0,0,0,0,0,0,0,0,0,0,0,0,0,0,0,0,0,0,0,0,0,0,0,0,0,0,0,0,0,0,0,0,0,0,0,0,0,0,0,0,0,0,0,0,0,0,0,0,0,0,0,0,0,0,0,0,0,0,0,0,0,0,0,0,0,0,0,0,0,0,0,0,0,0,0,0,0,0,0,0,0,0,0,0,0,0,0,0,0,0,0,0,0,0,0,0,0,0,0,0,0,0,0],"sum_hessian":[2.099732E6,1.362051E6,7.37681E5,1.052722E6,3.09329E5,3.48897E5,3.88784E5,6.28753E5,4.23969E5,1.66754E5,1.42575E5,2.42762E5,1.06135E5,2.26534E5,1.6225E5,3.7572E5,2.53033E5,2.3289E5,1.91079E5,8.6169E4,8.0585E4,7.2001E4,7.0574E4,1.38196E5,1.04566E5,5.8449E4,4.7686E4,1.13513E5,1.13021E5,1.50932E5,1.1318E4,7.0258E4,3.05462E5,2.36652E5,1.6381E4,2.27256E5,5.634E3,1.068E5,8.4279E4,8.5883E4,2.86E2,6.4924E4,1.5661E4,2.9526E4,4.2475E4,6.2725E4,7.849E3,4.6992E4,9.1204E4,3.7263E4,6.7303E4,2.2509E4,3.594E4,3E0,4.7683E4,4.9365E4,6.4148E4,9.8011E4,1.501E4,7.7167E4,7.3765E4,7.0255E4,3E0,2.9E1,3.05433E5,1.35933E5,1.00719E5,2.055E3,1.4326E4,1.19326E5,1.0793E5,5.525E3,1.09E2,7E0,1.06793E5,1.61E2,8.4118E4,5.6175E4,2.9708E4,1E1,2.76E2,2.0647E4,4.4277E4,1.4816E4,8.45E2,1.2192E4,1.7334E4,1.4002E4,2.8473E4,2.9051E4,3.3674E4,6.5E1,7.784E3,5.562E3,4.143E4,4.8574E4,4.263E4,2.9806E4,7.457E3,6.707E4,2.33E2,3.644E3,1.8865E4,6.463E3,2.9477E4,4.5173E4,2.51E3,4.6942E4,2.423E3,3.67E2,6.3781E4,7.699E4,2.1021E4,3.987E3,1.1023E4,1.2402E4,6.4765E4,1.134E3,7.2631E4],"tree_param":{"num_deleted":"0","num_feature":"7","num_nodes":"119","size_leaf_vector":"0"}},{"base_weights":[-1.5895475E-1,-1.659855E-1,-1.4576373E-1,-1.6857967E-1,-1.6165982E-1,-1.585669E-1,-1.1730396E-1,-1.6978075E-1,-1.6702202E-1,-1.6582337E-1,-1.5192653E-1,-1.6504277E-1,-1.4784451E-1,-1.43039E-1,-8.8867E-2,-1.708429E-1,-1.693193E-1,-1.6816169E-1,-1.6483063E-1,-1.6829026E-1,-1.597589E-1,-1.6086513E-1,-1.4197052E-1,-1.6800879E-1,-1.6112974E-1,-1.6317016E-1,-1.4001356E-1,-1.6229752E-1,-1.3315539E-1,2.1224387E-1,-9.1456816E-2,-1.7063174E-1,-1.7340279E-1,-1.698148E-1,-1.6861767E-1,-1.7031361E-1,-1.6749266E-1,-1.6759035E-1,-1.6293317E-1,-1.6954558E-1,-1.667142E-1,-1.6564696E-1,-1.5390615E-1,-1.6586259E-1,-1.5501596E-1,-1.528519E-1,-1.2833619E-1,-1.6646369E-1,-1.6938971E-1,-1.6442873E-1,-1.5343685E-1,2.103095E-1,-1.6321422E-1,-1.3440919E-1,-1.7427437E-1,-1.5896496E-1,-1.7204206E-1,-1.2871598E-1,-1.7501868E-1,-3.1735745E-1,2.825086E-1,-8.488454E-2,-1.7679305E-1,-1.7064908E-1,-1.5254973E-1,-1.7363317E-1,-1.55448E-1,-1.6977228E-1,-1.759916E-1,-1.1335253E-1,-1.6862953E-1,-1.7234911E-1,-1.7005473E-1,-1.6896003E-1,-1.6624942E-1,-1.6957358E-1,-1.6687554E-1,-1.6303271E-1,-1.13075495E-1,-1.702707E-1,-1.6872524E-1,-1.6921383E-1,-1.6492365E-1,-1.6828747E-1,-1.6336542E-1,-1.6042347E-1,-1.5170226E-1,-1.6822033E-1,-1.6320288E-1,-1.57419E-1,-1.4438884E-1,-1.5394261E-1,-1.4217463E-1,-1.24251366E-1,-1.407721E-1,-1.6696602E-1,-1.3869226E-1,-1.6964683E-1,-1.6290379E-1,-1.6502582E-1,-1.3155779E-1,-1.5155886E-1,-1.7969018E-1,-1.4605604E-1,4.5334005E-1,-1.6030897E-1,-1.6895771E-1,-1.3944384E-1,-1.11245446E-1,-2.4346675E-1,-1.7314833E-1,-1.672056E-1,-1.5572126E-1,-1.7265405E-1,-1.2904534E-1,2.3829001E-1,-1.2897259E-1,-1.4778614E-1,-1.7687196E-1,-3.4810644E-1,-1.3228309E-1,1.9435698E-1,3.5457408E-1,-8.741471E-2,1.702974E-1,-3.697872E-1,-1.7036647E-1],"categories":[],"categories_nodes":[],"categories_segments":[],"categories_sizes":[],"default_left":[true,true,true,true,true,true,true,true,true,true,true,true,true,true,true,true,true,true,true,true,true,true,true,true,true,true,true,true,true,true,true,true,true,true,true,true,true,true,true,true,true,true,true,true,true,true,true,true,true,true,true,true,true,true,true,true,true,true,true,true,true,true,true,false,false,false,false,false,false,false,false,false,false,false,false,false,false,false,false,false,false,false,false,false,false,false,false,false,false,false,false,false,false,false,false,false,false,false,false,false,false,false,false,false,false,false,false,false,false,false,false,false,false,false,false,false,false,false,false,false,false,false,false,false,false,false,false],"id":3,"left_children":[1,3,5,7,9,11,13,15,17,19,21,23,25,27,29,31,33,35,37,39,41,43,45,47,49,51,53,55,57,59,61,63,65,67,69,71,73,75,77,79,81,83,85,87,89,91,93,95,97,99,101,103,105,107,109,111,113,115,117,119,121,123,125,-1,-1,-1,-1,-1,-1,-1,-1,-1,-1,-1,-1,-1,-1,-1,-1,-1,-1,-1,-1,-1,-1,-1,-1,-1,-1,-1,-1,-1,-1,-1,-1,-1,-1,-1,-1,-1,-1,-1,-1,-1,-1,-1,-1,-1,-1,-1,-1,-1,-1,-1,-1,-1,-1,-1,-1,-1,-1,-1,-1,-1,-1,-1,-1],"loss_changes":[1.9471094E2,1.534375E1,2.659922E2,1.5742188E0,2.0783203E1,3.4939453E1,1.657644E2,2.0800781E-1,9.033203E-1,5.3535156E0,1.3669434E1,3.616211E0,2.2732422E1,2.261206E1,8.3940796E1,4.9804688E-2,8.7890625E-2,3.2421875E-1,6.4086914E-1,4.7753906E-1,3.558838E0,2.3439941E0,1.07803955E1,3.5302734E-1,3.4104004E0,1.0894775E0,2.4072754E1,1.2821045E0,1.4582764E1,3.425055E1,5.9827454E1,1.6357422E-2,1.8859863E-2,2.1972656E-2,7.2509766E-2,1.3427734E-3,3.1298828E-1,4.5288086E-2,3.569336E-1,5.5908203E-2,4.7973633E-1,2.8479004E-1,7.2509766E-1,2.4658203E-1,9.3151855E-1,4.4952393E-1,1.6241455E0,1.1530762E0,1.2963867E-1,1.8376465E0,1.9766846E0,7.590747E-1,1.0426025E0,1.2562744E1,1.3321533E0,7.7752686E-1,2.4780273E-1,6.7227783E0,3.5398865E-1,5.685625E-1,5.0831146E0,6.3980408E1,9.3992E0,0E0,0E0,0E0,0E0,0E0,0E0,0E0,0E0,0E0,0E0,0E0,0E0,0E0,0E0,0E0,0E0,0E0,0E0,0E0,0E0,0E0,0E0,0E0,0E0,0E0,0E0,0E0,0E0,0E0,0E0,0E0,0E0,0E0,0E0,0E0,0E0,0E0,0E0,0E0,0E0,0E0,0E0,0E0,0E0,0E0,0E0,0E0,0E0,0E0,0E0,0E0,0E0,0E0,0E0,0E0,0E0,0E0,0E0,0E0,0E0,0E0,0E0,0E0,0E0],"parents":[2147483647,0,0,1,1,2,2,3,3,4,4,5,5,6,6,7,7,8,8,9,9,10,10,11,11,12,12,13,13,14,14,15,15,16,16,17,17,18,18,19,19,20,20,21,21,22,22,23,23,24,24,25,25,26,26,27,27,28,28,29,29,30,30,31,31,32,32,33,33,34,34,35,35,36,36,37,37,38,38,39,39,40,40,41,41,42,42,43,43,44,44,45,45,46,46,47,47,48,48,49,49,50,50,51,51,52,52,53,53,54,54,55,55,56,56,57,57,58,58,59,59,60,60,61,61,62,62],"right_children":[2,4,6,8,10,12,14,16,18,20,22,24,26,28,30,32,34,36,38,40,42,44,46,48,50,52,54,56,58,60,62,64,66,68,70,72,74,76,78,80,82,84,86,88,90,92,94,96,98,100,102,104,106,108,110,112,114,116,118,120,122,124,126,-1,-1,-1,-1,-1,-1,-1,-1,-1,-1,-1,-1,-1,-1,-1,-1,-1,-1,-1,-1,-1,-1,-1,-1,-1,-1,-1,-1,-1,-1,-1,-1,-1,-1,-1,-1,-1,-1,-1,-1,-1,-1,-1,-1,-1,-1,-1,-1,-1,-1,-1,-1,-1,-1,-1,-1,-1,-1,-1,-1,-1,-1,-1,-1],"split_conditions":[4.5E0,2.5E0,9.00306E-1,1.5E0,9.905845E-1,6.2335503E-1,8.969165E-1,5E-1,6.8659246E-1,8.4379053E-1,5.377495E-1,2.80652E-1,3.0830097E-1,3.1265402E-1,9.0437996E-1,3.7994E-1,4.39477E-1,1.09511E-1,2.775985E-1,2.88107E-1,2.9075348E-1,2.542565E-1,4.5E0,2.35E1,5.24626E-1,6.236545E-1,3.55E1,9.5E0,7.25E1,3.1E1,4.75E1,8.4993553E-1,8.4993553E-1,4.226495E-1,4.3975002E-1,4.208595E-2,3.92507E-1,8.560465E-2,3.75E1,1.4209649E-1,2.26634E-1,1.379465E-1,6.5E0,1.379465E-1,1.55E1,6.5E0,5.5E0,1.65E1,1.54E2,3.45E1,5.75E1,5.7E1,1.05E1,1.65E1,4.45E1,1.12247005E-1,3.08174E-1,3.135795E-1,1.85E1,3.5E1,9.91465E-1,4.55E1,5.15E1,-5.1194727E-2,-4.576492E-2,-5.2089956E-2,-4.6634402E-2,-5.093169E-2,-5.279748E-2,-3.400576E-2,-5.058886E-2,-5.1704735E-2,-5.1016424E-2,-5.0688013E-2,-4.987483E-2,-5.0872076E-2,-5.0062664E-2,-4.8909817E-2,-3.392265E-2,-5.108121E-2,-5.0617572E-2,-5.076415E-2,-4.9477097E-2,-5.0486244E-2,-4.900963E-2,-4.8127044E-2,-4.551068E-2,-5.04661E-2,-4.896087E-2,-4.7225703E-2,-4.3316655E-2,-4.6182785E-2,-4.265239E-2,-3.727541E-2,-4.2231634E-2,-5.008981E-2,-4.1607678E-2,-5.089405E-2,-4.8871137E-2,-4.950775E-2,-3.946734E-2,-4.546766E-2,-5.3907055E-2,-4.3816812E-2,1.3600202E-1,-4.8092693E-2,-5.0687317E-2,-4.1833155E-2,-3.3373635E-2,-7.304003E-2,-5.19445E-2,-5.0161682E-2,-4.671638E-2,-5.1796217E-2,-3.8713604E-2,7.148701E-2,-3.8691778E-2,-4.4335842E-2,-5.306159E-2,-1.04431935E-1,-3.968493E-2,5.8307096E-2,1.0637223E-1,-2.6224414E-2,5.1089223E-2,-1.1093616E-1,-5.1109944E-2],"split_indices":[4,4,6,4,5,5,5,4,5,6,6,5,6,5,6,5,6,5,6,6,5,6,0,1,6,5,4,4,0,0,1,6,5,6,6,5,6,6,0,6,5,5,0,6,1,1,1,4,0,4,1,1,0,4,1,5,5,5,1,1,5,0,1,0,0,0,0,0,0,0,0,0,0,0,0,0,0,0,0,0,0,0,0,0,0,0,0,0,0,0,0,0,0,0,0,0,0,0,0,0,0,0,0,0,0,0,0,0,0,0,0,0,0,0,0,0,0,0,0,0,0,0,0,0,0,0,0],"split_type":[0,0,0,0,0,0,0,0,0,0,0,0,0,0,0,0,0,0,0,0,0,0,0,0,0,0,0,0,0,0,0,0,0,0,0,0,0,0,0,0,0,0,0,0,0,0,0,0,0,0,0,0,0,0,0,0,0,0,0,0,0,0,0,0,0,0,0,0,0,0,0,0,0,0,0,0,0,0,0,0,0,0,0,0,0,0,0,0,0,0,0,0,0,0,0,0,0,0,0,0,0,0,0,0,0,0,0,0,0,0,0,0,0,0,0,0,0,0,0,0,0,0,0,0,0,0,0],"sum_hessian":[2.099732E6,1.369686E6,7.30046E5,8.56182E5,5.13504E5,5.03522E5,2.26524E5,4.8336E5,3.72822E5,3.59645E5,1.53859E5,3.13916E5,1.89606E5,1.18909E5,1.07615E5,1.46284E5,3.37076E5,2.45217E5,1.27605E5,2.55633E5,1.04012E5,8.1064E4,7.2795E4,1.78542E5,1.35374E5,6.4113E4,1.25493E5,4.0323E4,7.8586E4,9.17E2,1.06698E5,1.35199E5,1.1085E4,1.97417E5,1.39659E5,5.8097E4,1.8712E5,5.1954E4,7.5651E4,1.42235E5,1.13398E5,5.1836E4,5.2176E4,4.37E4,3.7364E4,4.0479E4,3.2316E4,8.4319E4,9.4223E4,9.473E4,4.0644E4,7E0,6.4106E4,1.07855E5,1.7638E4,3.006E4,1.0263E4,7.1055E4,7.531E3,1.07E2,8.1E2,9.907E4,7.628E3,1.35061E5,1.38E2,1.0936E4,1.49E2,1.96096E5,1.321E3,3.2E1,1.39627E5,6.48E3,5.1617E4,8.5761E4,1.01359E5,1.3702E4,3.8252E4,7.5498E4,1.53E2,7.539E4,6.6845E4,4.7289E4,6.6109E4,2.3994E4,2.7842E4,1.3167E4,3.9009E4,2.3132E4,2.0568E4,3.0462E4,6.902E3,3.6715E4,3.764E3,2.4334E4,7.982E3,8.2816E4,1.503E3,9.0606E4,3.617E3,9.3036E4,1.694E3,3.7937E4,2.707E3,3E0,4E0,4.2591E4,2.1515E4,8.8594E4,1.9261E4,2.79E2,1.7359E4,8.476E3,2.1584E4,1.0116E4,1.47E2,4.9E1,7.1006E4,4.85E2,7.046E3,9.1E1,1.6E1,3.66E2,4.44E2,9.8098E4,9.72E2,2.44E2,7.384E3],"tree_param":{"num_deleted":"0","num_feature":"7","num_nodes":"127","size_leaf_vector":"0"}},{"base_weights":[-1.11269504E-1,-1.1501804E-1,-9.825672E-2,-1.1722971E-1,-1.0969602E-1,-1.0855054E-1,-7.135192E-2,-1.1847376E-1,-1.1551435E-1,-1.14611104E-1,-9.7448E-2,-1.1478033E-1,-9.933793E-2,-9.686824E-2,-4.1480754E-2,-1.1934193E-1,-1.1791179E-1,-1.17926635E-1,-1.1311176E-1,-1.174265E-1,-1.0683657E-1,-1.1073808E-1,-8.975705E-2,-1.0671178E-1,-1.16092205E-1,-8.9019015E-2,-1.1195189E-1,-9.443599E-2,-1.6506927E-1,-6.2877476E-2,-1.7637398E-2,-1.1996425E-1,-1.18963145E-1,-1.1792804E-1,-7.754497E-2,-1.2011267E-1,-1.17382094E-1,-1.1524755E-1,-1.09564446E-1,-1.1931471E-1,-1.1643251E-1,-1.12182684E-1,-9.857095E-2,-1.1539426E-1,-1.0481148E-1,-9.544488E-2,-8.647722E-2,-1.1208342E-1,-9.659794E-2,-1.1582953E-1,-1.517265E-1,-9.6896686E-2,-5.483746E-2,-1.0386679E-1,-1.5276462E-1,-1.10731855E-1,-7.973059E-2,-2.0827259E-1,-1.1993529E-1,-5.973691E-2,-7.454251E-2,3.264393E-2,-5.240768E-2,-1.19711354E-1,-1.21693715E-1,-7.878455E-2,-1.1906045E-1,-1.1845198E-1,-1.1673872E-1,2.488926E-1,-1.18928544E-1,-1.2204713E-1,-1.19117044E-1,-1.1808764E-1,-1.14583425E-1,-1.1831196E-1,-1.1420866E-1,-1.12234496E-1,-1.0776711E-1,-1.1908611E-1,-1.2346262E-1,-1.1899617E-1,-1.1531449E-1,-1.1572081E-1,-1.0773052E-1,-1.04483776E-1,-9.343031E-2,-8.214137E-2,-1.156619E-1,-1.21573515E-1,-1.0238012E-1,-9.42524E-2,-1.3991253E-1,-8.759901E-2,-8.274419E-2,4.3134582E-1,-1.1213609E-1,-9.9590845E-2,3.7405468E-3,-1.1801928E-1,-1.12408474E-1,-1.3254341E-1,-1.7346811E-1,-7.47563E-2,-1.0432023E-1,-9.236947E-2,-1.4145688E-2,-1.10503115E-1,4.394035E-2,-2.349139E-1,-1.2361818E-1,-1.0957486E-1,-1.558593E-1,-7.1646765E-2,-1.2077009E-1,-1.1083049E-1,-2.9491714E-1,-6.06574E-2,-5.476558E-2,-8.52359E-2,-6.1324935E-2,-4.946757E-3,1.4333002E-1,-1.4715736E-1,-1.4707536E-2],"categories":[],"categories_nodes":[],"categories_segments":[],"categories_sizes":[],"default_left":[true,true,true,true,true,true,true,true,true,true,true,true,true,true,true,true,true,true,true,true,true,true,true,true,true,true,true,true,true,true,true,true,true,true,true,true,true,true,true,true,true,true,true,true,true,true,true,true,true,true,true,true,true,true,true,true,true,true,false,true,true,true,true,false,false,false,false,false,false,false,false,false,false,false,false,false,false,false,false,false,false,false,false,false,false,false,false,false,false,false,false,false,false,false,false,false,false,false,false,false,false,false,false,false,false,false,false,false,false,false,false,false,false,false,false,false,false,false,false,false,false,false,false,false,false],"id":4,"left_children":[1,3,5,7,9,11,13,15,17,19,21,23,25,27,29,31,33,35,37,39,41,43,45,47,49,51,53,55,57,59,61,63,65,67,69,71,73,75,77,79,81,83,85,87,89,91,93,95,97,99,101,103,105,107,109,111,113,115,-1,117,119,121,123,-1,-1,-1,-1,-1,-1,-1,-1,-1,-1,-1,-1,-1,-1,-1,-1,-1,-1,-1,-1,-1,-1,-1,-1,-1,-1,-1,-1,-1,-1,-1,-1,-1,-1,-1,-1,-1,-1,-1,-1,-1,-1,-1,-1,-1,-1,-1,-1,-1,-1,-1,-1,-1,-1,-1,-1,-1,-1,-1,-1,-1,-1],"loss_changes":[1.0241211E2,1.9175781E1,1.3004834E2,2.4433594E0,2.8799316E1,1.948169E1,9.9045715E1,3.1152344E-1,2.7924805E0,7.4628906E0,1.399939E1,2.1323242E0,1.7825806E1,1.1610107E1,3.0542244E1,4.7607422E-2,2.5683594E-1,2.734375E-1,1.8251953E0,4.5654297E-1,4.001587E0,1.3742065E0,1.6113892E0,1.5293274E0,1.6137695E0,2.0291016E1,2.0328125E1,1.620819E1,4.6782684E0,1.1514893E0,4.950821E1,2.8686523E-2,6.281738E-1,2.3828125E-1,2.2721198E0,7.8125E-2,3.684082E-1,4.6850586E-1,4.255371E-1,6.726074E-2,4.572754E-1,8.5601807E-1,1.0745544E0,2.4078369E-1,8.8879395E-1,1.670166E0,2.2341919E-1,5.7810974E-1,2.9556656E0,1.2827148E0,5.075207E-1,1.0060242E1,2.1563377E1,5.0483704E1,2.4374268E1,1.6588135E0,1.1793915E1,1.0360432E1,0E0,1.10458374E-1,9.402008E-1,4.81699E1,5.9797962E1,0E0,0E0,0E0,0E0,0E0,0E0,0E0,0E0,0E0,0E0,0E0,0E0,0E0,0E0,0E0,0E0,0E0,0E0,0E0,0E0,0E0,0E0,0E0,0E0,0E0,0E0,0E0,0E0,0E0,0E0,0E0,0E0,0E0,0E0,0E0,0E0,0E0,0E0,0E0,0E0,0E0,0E0,0E0,0E0,0E0,0E0,0E0,0E0,0E0,0E0,0E0,0E0,0E0,0E0,0E0,0E0,0E0,0E0,0E0,0E0,0E0,0E0],"parents":[2147483647,0,0,1,1,2,2,3,3,4,4,5,5,6,6,7,7,8,8,9,9,10,10,11,11,12,12,13,13,14,14,15,15,16,16,17,17,18,18,19,19,20,20,21,21,22,22,23,23,24,24,25,25,26,26,27,27,28,28,29,29,30,30,31,31,32,32,33,33,34,34,35,35,36,36,37,37,38,38,39,39,40,40,41,41,42,42,43,43,44,44,45,45,46,46,47,47,48,48,49,49,50,50,51,51,52,52,53,53,54,54,55,55,56,56,57,57,59,59,60,60,61,61,62,62],"right_children":[2,4,6,8,10,12,14,16,18,20,22,24,26,28,30,32,34,36,38,40,42,44,46,48,50,52,54,56,58,60,62,64,66,68,70,72,74,76,78,80,82,84,86,88,90,92,94,96,98,100,102,104,106,108,110,112,114,116,-1,118,120,122,124,-1,-1,-1,-1,-1,-1,-1,-1,-1,-1,-1,-1,-1,-1,-1,-1,-1,-1,-1,-1,-1,-1,-1,-1,-1,-1,-1,-1,-1,-1,-1,-1,-1,-1,-1,-1,-1,-1,-1,-1,-1,-1,-1,-1,-1,-1,-1,-1,-1,-1,-1,-1,-1,-1,-1,-1,-1,-1,-1,-1,-1,-1],"split_conditions":[6.5E0,3.5E0,9.961185E-1,4.051785E-1,9.905845E-1,5.07426E-1,9.961185E-1,1.12278506E-1,3.497515E-1,8.357645E-1,4.383455E-1,1.05E1,3.05E1,9.3699455E-1,1.35E1,5.1625103E-2,1.54E2,9.5E0,2.5E0,1.69943E-1,4.383455E-1,2.306065E-1,9.8214304E-1,3.1035948E-1,5.033005E-1,1.65E1,9.115165E-1,4.978505E-1,5.45E1,1.15E1,1.95E1,4.5993753E-2,5.1847547E-2,9.91228E-1,1.695E2,8.495625E-1,2.19769E-1,2.5E0,8.72324E-1,1.195E2,1.699555E-1,2.280055E-1,8.5E0,2.9872E-2,1.05E1,8.92999E-1,6.5E0,9.5E0,4.25E1,2.708525E-1,2.55E1,1.05E1,7.659025E-1,9.00306E-1,4.35E1,4.873755E-1,5.55E1,3.05E1,-3.598059E-2,1.05E1,1.25E1,1.75E1,2.55E1,-3.5913408E-2,-3.6508117E-2,-2.3635365E-2,-3.5718136E-2,-3.5535596E-2,-3.5021618E-2,7.466778E-2,-3.5678566E-2,-3.661414E-2,-3.5735115E-2,-3.5426293E-2,-3.437503E-2,-3.549359E-2,-3.42626E-2,-3.367035E-2,-3.2330137E-2,-3.5725836E-2,-3.703879E-2,-3.5698853E-2,-3.459435E-2,-3.4716245E-2,-3.231916E-2,-3.1345133E-2,-2.8029094E-2,-2.4642412E-2,-3.4698572E-2,-3.6472056E-2,-3.0714037E-2,-2.827572E-2,-4.1973762E-2,-2.6279705E-2,-2.4823258E-2,1.2940376E-1,-3.3640828E-2,-2.9877255E-2,1.1221641E-3,-3.5405785E-2,-3.3722542E-2,-3.9763026E-2,-5.2040435E-2,-2.2426892E-2,-3.129607E-2,-2.7710842E-2,-4.243707E-3,-3.3150937E-2,1.31821055E-2,-7.047417E-2,-3.7085455E-2,-3.287246E-2,-4.6757795E-2,-2.1494031E-2,-3.623103E-2,-3.324915E-2,-8.8475145E-2,-1.8197222E-2,-1.6429674E-2,-2.557077E-2,-1.8397482E-2,-1.4840272E-3,4.2999007E-2,-4.414721E-2,-4.4122613E-3],"split_indices":[4,4,6,5,5,6,5,5,6,6,6,0,0,5,0,5,0,1,4,6,5,6,6,6,6,4,6,5,1,0,0,5,5,6,0,5,6,0,5,1,5,5,0,6,1,6,0,1,1,6,1,0,6,6,0,5,0,0,0,0,0,0,0,0,0,0,0,0,0,0,0,0,0,0,0,0,0,0,0,0,0,0,0,0,0,0,0,0,0,0,0,0,0,0,0,0,0,0,0,0,0,0,0,0,0,0,0,0,0,0,0,0,0,0,0,0,0,0,0,0,0,0,0,0,0],"split_type":[0,0,0,0,0,0,0,0,0,0,0,0,0,0,0,0,0,0,0,0,0,0,0,0,0,0,0,0,0,0,0,0,0,0,0,0,0,0,0,0,0,0,0,0,0,0,0,0,0,0,0,0,0,0,0,0,0,0,0,0,0,0,0,0,0,0,0,0,0,0,0,0,0,0,0,0,0,0,0,0,0,0,0,0,0,0,0,0,0,0,0,0,0,0,0,0,0,0,0,0,0,0,0,0,0,0,0,0,0,0,0,0,0,0,0,0,0,0,0,0,0,0,0,0,0],"sum_hessian":[2.099732E6,1.630138E6,4.69594E5,1.151562E6,4.78576E5,3.39643E5,1.29951E5,6.67438E5,4.84124E5,3.41518E5,1.37058E5,2.02617E5,1.37026E5,7.0083E4,5.9868E4,2.62184E5,4.05254E5,2.41551E5,2.42573E5,2.50713E5,9.0805E4,5.0236E4,8.6822E4,2.8348E4,1.74269E5,7.5374E4,6.1652E4,6.7672E4,2.411E3,3.1552E4,2.8316E4,9.9084E4,1.631E5,4.05089E5,1.65E2,4.8127E4,1.93424E5,1.51391E5,9.1182E4,8.6423E4,1.6429E5,5.5133E4,3.5672E4,2.8123E4,2.2113E4,3.1744E4,5.5078E4,1.8508E4,9.84E3,1.72998E5,1.271E3,6.1255E4,1.4119E4,5.1461E4,1.0191E4,3.2097E4,3.5575E4,1.23E3,1.181E3,2.4864E4,6.688E3,1.1576E4,1.674E4,8.6505E4,1.2579E4,3.96E2,1.62704E5,2.81138E5,1.23951E5,1.8E1,1.47E2,1.6312E4,3.1815E4,1.54447E5,3.8977E4,3.8301E4,1.1309E5,3.666E4,5.4522E4,8.1937E4,4.486E3,4.9858E4,1.14432E5,3.0706E4,2.4427E4,1.6581E4,1.9091E4,2.27E2,2.7896E4,2.795E3,1.9318E4,3.0918E4,8.26E2,4.2334E4,1.2744E4,1E0,1.8507E4,9.555E3,2.85E2,1.05461E5,6.7537E4,6.79E2,5.92E2,1.5384E4,4.5871E4,7.344E3,6.775E3,4.925E4,2.211E3,2.667E3,7.524E3,3.1298E4,7.99E2,2.9723E4,5.852E3,5.8E2,6.5E2,2.097E4,3.894E3,3.694E3,2.994E3,8.642E3,2.934E3,4.764E3,1.1976E4],"tree_param":{"num_deleted":"0","num_feature":"7","num_nodes":"125","size_leaf_vector":"0"}},{"base_weights":[-7.7889435E-2,-8.0919236E-2,-6.991797E-2,-8.206118E-2,-7.736384E-2,-7.6421596E-2,-5.2872434E-2,-8.332312E-2,-8.11482E-2,-8.069132E-2,-6.922015E-2,-8.0544904E-2,-6.967311E-2,-6.851559E-2,-3.410823E-2,-8.382607E-2,-8.31046E-2,-8.217833E-2,-7.9231754E-2,-8.251848E-2,-7.5132184E-2,-7.986718E-2,-6.477076E-2,-7.85321E-2,-8.348425E-2,-6.535391E-2,-8.504905E-2,-6.641007E-2,-1.09022394E-1,-2.9896282E-2,-1.21374704E-1,-8.367179E-2,-8.5698985E-2,-8.292541E-2,-8.3980836E-2,-8.316933E-2,-8.1160136E-2,4.0539545E-1,-7.923971E-2,-8.184762E-2,-8.4518105E-2,-8.165024E-2,-7.155859E-2,-8.330876E-2,-7.576185E-2,-6.9149606E-2,-6.131993E-2,-8.157118E-2,-7.523645E-2,-8.2996584E-2,-9.605088E-2,-6.598912E-2,1.8985106E-1,1.0053208E-1,-8.5270755E-2,-6.845975E-2,5.510213E-2,-2.4945855E-1,-9.7788334E-2,-3.9970547E-2,9.588587E-2,-2.8573668E-1,-1.1558879E-1,-8.3678514E-2,-5.2670244E-2,-8.4742144E-2,-8.798071E-2,-8.273214E-2,-8.384726E-2,-8.40469E-2,-6.681458E-2,-8.507136E-2,-8.289334E-2,-8.210054E-2,-7.918691E-2,-8.07982E-2,-7.694533E-2,-8.1860006E-2,3.0108702E-1,-8.5988E-2,-8.021298E-2,-3.5654534E-2,-8.200541E-2,-7.089348E-2,-1.16538584E-1,-4.3864276E-2,-8.371653E-2,3.0348623E-1,-7.615118E-2,-8.486114E-2,-6.759254E-2,-6.0698878E-2,-6.2156104E-2,-8.116319E-2,-1.0015708E-1,-7.717231E-2,-2.9135812E-2,-8.316897E-2,2.0078789E-1,-8.2716815E-2,-1.152195E-1,-6.424635E-2,-1.1658177E-1,3.0568722E-1,1.549996E-2,2.429098E-1,-1.0279987E-1,-7.990236E-2,-8.838411E-2,-7.4289225E-2,-5.227747E-2,-7.895309E-2,1.5196273E-1,-1.1393806E-1,-2.8315687E-1,-4.8317455E-2,-1.3200882E-1,-3.480649E-2,-2.59628E-1,2.2406799E-1,-4.185676E-2],"categories":[],"categories_nodes":[],"categories_segments":[],"categories_sizes":[],"default_left":[true,true,true,true,true,true,true,true,true,true,true,true,true,true,true,true,true,true,true,true,true,true,true,true,true,true,true,true,true,true,true,true,true,true,true,true,true,false,true,true,true,true,true,true,true,true,true,true,true,true,true,true,true,true,true,true,true,true,true,true,true,false,false,false,false,false,false,false,false,false,false,false,false,false,false,false,false,false,false,false,false,false,false,false,false,false,false,false,false,false,false,false,false,false,false,false,false,false,false,false,false,false,false,false,false,false,false,false,false,false,false,false,false,false,false,false,false,false,false,false,false],"id":5,"left_children":[1,3,5,7,9,11,13,15,17,19,21,23,25,27,29,31,33,35,37,39,41,43,45,47,49,51,53,55,57,59,61,63,65,67,69,71,73,-1,75,77,79,81,83,85,87,89,91,93,95,97,99,101,103,105,107,109,111,113,115,117,119,-1,-1,-1,-1,-1,-1,-1,-1,-1,-1,-1,-1,-1,-1,-1,-1,-1,-1,-1,-1,-1,-1,-1,-1,-1,-1,-1,-1,-1,-1,-1,-1,-1,-1,-1,-1,-1,-1,-1,-1,-1,-1,-1,-1,-1,-1,-1,-1,-1,-1,-1,-1,-1,-1,-1,-1,-1,-1,-1,-1],"loss_changes":[5.0706055E1,6.1708984E0,6.410303E1,1.3198242E0,1.0017578E1,1.1641602E1,4.687729E1,4.6142578E-2,1.3125E0,2.6608887E0,5.078003E0,1.5306396E0,1.0537903E1,7.421051E0,2.668615E1,3.515625E-2,4.6142578E-2,4.3164062E-1,9.3310547E-1,2.581787E-1,1.5074463E0,4.404602E-1,1.1393738E0,1.5385742E0,6.3916016E-1,2.010553E1,1.440979E0,2.0625092E1,6.7627296E0,8.778148E1,3.1461105E0,2.3742676E-2,1.676178E-2,4.296875E-2,5.9173584E-2,1.0852051E-1,3.9135742E-1,0E0,8.293457E-1,7.2650146E-1,3.0706787E-1,3.7278748E-1,1.2473297E0,2.7282715E-1,2.153885E0,8.100891E-1,1.8203735E-2,6.002197E-1,6.6023254E0,4.989197E0,9.9700546E-1,1.0894043E1,6.215679E0,1.2408686E0,5.7411194E-1,7.6770935E0,1.7852932E1,1.4199848E0,6.7398987E0,7.274083E1,9.070898E1,0E0,0E0,0E0,0E0,0E0,0E0,0E0,0E0,0E0,0E0,0E0,0E0,0E0,0E0,0E0,0E0,0E0,0E0,0E0,0E0,0E0,0E0,0E0,0E0,0E0,0E0,0E0,0E0,0E0,0E0,0E0,0E0,0E0,0E0,0E0,0E0,0E0,0E0,0E0,0E0,0E0,0E0,0E0,0E0,0E0,0E0,0E0,0E0,0E0,0E0,0E0,0E0,0E0,0E0,0E0,0E0,0E0,0E0,0E0,0E0],"parents":[2147483647,0,0,1,1,2,2,3,3,4,4,5,5,6,6,7,7,8,8,9,9,10,10,11,11,12,12,13,13,14,14,15,15,16,16,17,17,18,18,19,19,20,20,21,21,22,22,23,23,24,24,25,25,26,26,27,27,28,28,29,29,30,30,31,31,32,32,33,33,34,34,35,35,36,36,38,38,39,39,40,40,41,41,42,42,43,43,44,44,45,45,46,46,47,47,48,48,49,49,50,50,51,51,52,52,53,53,54,54,55,55,56,56,57,57,58,58,59,59,60,60],"right_children":[2,4,6,8,10,12,14,16,18,20,22,24,26,28,30,32,34,36,38,40,42,44,46,48,50,52,54,56,58,60,62,64,66,68,70,72,74,-1,76,78,80,82,84,86,88,90,92,94,96,98,100,102,104,106,108,110,112,114,116,118,120,-1,-1,-1,-1,-1,-1,-1,-1,-1,-1,-1,-1,-1,-1,-1,-1,-1,-1,-1,-1,-1,-1,-1,-1,-1,-1,-1,-1,-1,-1,-1,-1,-1,-1,-1,-1,-1,-1,-1,-1,-1,-1,-1,-1,-1,-1,-1,-1,-1,-1,-1,-1,-1,-1,-1,-1,-1,-1,-1,-1],"split_conditions":[5.5E0,3.5E0,9.961185E-1,1.5E0,9.905845E-1,5.07426E-1,9.961185E-1,5E-1,6.7891E-1,9.905845E-1,3.19524E-1,2.75E1,5.55E1,9.115165E-1,4.75E1,3.7926602E-1,2.65E1,4.1963398E-1,6.79217E-1,4.97945E-1,2.306065E-1,1.7400101E-1,9.761905E-1,2.39223E-1,4.838935E-1,5.25E1,5.0769997E-1,8.969165E-1,9.175625E-1,3.15E1,5.65E1,2.54E2,1.526705E-1,2.65E1,6.9540155E-1,5.5E0,3.497515E-1,1.21618636E-1,5.583875E-1,4.978505E-1,7.65042E-1,2.98809E-2,8.92999E-1,2.98809E-2,1.74218E-1,6.5E0,5.5E0,2.33791E-1,4.75E1,4.83547E-1,3.05E1,9.5457053E-1,5.75E1,6.75E1,8.75E1,6.482865E-1,3.25E1,9.12175E-1,3.05E1,2.95E1,3.65E1,-8.572101E-2,-3.4676638E-2,-2.5103556E-2,-1.5801074E-2,-2.5422644E-2,-2.6394214E-2,-2.4819644E-2,-2.5154179E-2,-2.521407E-2,-2.0044375E-2,-2.552141E-2,-2.4868004E-2,-2.4630163E-2,-2.3756074E-2,-2.4239462E-2,-2.30836E-2,-2.4558002E-2,9.032611E-2,-2.57964E-2,-2.4063895E-2,-1.0696361E-2,-2.4601625E-2,-2.1268046E-2,-3.4961578E-2,-1.3159283E-2,-2.511496E-2,9.104587E-2,-2.2845354E-2,-2.5458341E-2,-2.0277763E-2,-1.8209664E-2,-1.8646833E-2,-2.4348957E-2,-3.0047126E-2,-2.3151694E-2,-8.740744E-3,-2.4950692E-2,6.023637E-2,-2.4815045E-2,-3.456585E-2,-1.9273905E-2,-3.497453E-2,9.170617E-2,4.649988E-3,7.2872944E-2,-3.0839963E-2,-2.3970708E-2,-2.6515232E-2,-2.2286769E-2,-1.5683241E-2,-2.3685927E-2,4.558882E-2,-3.418142E-2,-8.4947065E-2,-1.4495237E-2,-3.960265E-2,-1.0441948E-2,-7.78884E-2,6.72204E-2,-1.2557028E-2],"split_indices":[4,4,6,4,5,6,5,4,5,6,6,0,0,5,0,6,1,6,5,5,5,6,6,6,6,4,6,5,5,0,0,0,5,0,6,0,5,0,6,5,5,5,5,6,6,1,0,6,1,6,1,6,1,1,0,5,0,5,0,0,0,0,0,0,0,0,0,0,0,0,0,0,0,0,0,0,0,0,0,0,0,0,0,0,0,0,0,0,0,0,0,0,0,0,0,0,0,0,0,0,0,0,0,0,0,0,0,0,0,0,0,0,0,0,0,0,0,0,0,0,0],"split_type":[0,0,0,0,0,0,0,0,0,0,0,0,0,0,0,0,0,0,0,0,0,0,0,0,0,0,0,0,0,0,0,0,0,0,0,0,0,0,0,0,0,0,0,0,0,0,0,0,0,0,0,0,0,0,0,0,0,0,0,0,0,0,0,0,0,0,0,0,0,0,0,0,0,0,0,0,0,0,0,0,0,0,0,0,0,0,0,0,0,0,0,0,0,0,0,0,0,0,0,0,0,0,0,0,0,0,0,0,0,0,0,0,0,0,0,0,0,0,0,0,0],"sum_hessian":[2.099732E6,1.52145E6,5.78282E5,1.151562E6,3.69888E5,4.18574E5,1.59708E5,4.8336E5,6.68202E5,2.62587E5,1.07301E5,2.59816E5,1.58758E5,8.7096E4,7.2612E4,1.46284E5,3.37076E5,4.34568E5,2.33634E5,1.9762E5,6.4967E4,3.162E4,7.5681E4,1.5423E5,1.05586E5,1.23946E5,3.4812E4,8.2795E4,4.301E3,6.927E4,3.342E3,1.35193E5,1.1091E4,2.79924E5,5.7152E4,2.20185E5,2.14383E5,3E0,2.33631E5,1.48007E5,4.9613E4,2.2998E4,4.1969E4,1.719E4,1.443E4,3.3347E4,4.2334E4,8.0226E4,7.4004E4,1.01649E5,3.937E3,1.23639E5,3.07E2,4.1E1,3.4771E4,8.1422E4,1.373E3,3.17E2,3.984E3,6.4134E4,5.136E3,1.12E2,3.23E3,1.35162E5,3.1E1,7.841E3,3.25E3,2.31484E5,4.844E4,5.6929E4,2.23E2,2.7862E4,1.92323E5,1.45161E5,6.9222E4,1.39107E5,9.4524E4,1.48003E5,4E0,3.6971E4,1.2642E4,1.77E2,2.2821E4,4.136E4,6.09E2,1.77E2,1.7013E4,1.4E1,1.4416E4,3.002E3,3.0345E4,2.4334E4,1.8E4,7.8508E4,1.718E3,7.1021E4,2.983E3,1.01588E5,6.1E1,2.325E3,1.612E3,1.19524E5,4.115E3,1.84E2,1.23E2,2.4E1,1.7E1,1.2773E4,2.1998E4,5.9856E4,2.1566E4,5.76E2,7.97E2,6.4E1,2.53E2,1.63E3,2.354E3,6.2662E4,1.472E3,2.66E3,2.476E3],"tree_param":{"num_deleted":"0","num_feature":"7","num_nodes":"121","size_leaf_vector":"0"}},{"base_weights":[-5.4522965E-2,-5.567419E-2,-4.231521E-2,-5.741905E-2,-5.215145E-2,-8.601129E-3,-5.0575443E-2,-5.8149725E-2,-5.533482E-2,-5.6358E-2,-4.7034338E-2,-4.7951296E-2,1.4731954E-2,-3.883303E-2,-5.850673E-2,-5.8128394E-2,-7.3720455E-2,-5.696354E-2,-5.037064E-2,-5.745292E-2,-5.3853516E-2,-5.362211E-2,-4.185661E-2,-6.7565314E-2,-3.6729295E-2,-9.401902E-3,5.7052817E-2,-4.8154972E-2,5.0826117E-2,-9.379417E-2,-5.5551935E-2,-5.8132187E-2,3.0730057E-1,-5.1449716E-2,-1.1354332E-1,-5.7989985E-2,-5.528358E-2,3.0112374E-1,-5.0481107E-2,-5.7500623E-2,-3.1236278E-2,-5.5860873E-2,-5.1391836E-2,-5.3362615E-2,-1.0501194E-1,-4.4766717E-2,-3.5757843E-2,-1.0920473E-2,-8.132953E-2,-5.8377728E-2,3.266977E-2,1.2678087E-2,-3.5144784E-2,9.431127E-2,1.7588228E-2,-4.2934578E-2,-1.037835E-1,-4.4037156E-2,1.4775568E-1,-5.935982E-2,-2.4000604E-1,-4.1478407E-2,-6.200779E-2,-5.870705E-2,-5.7567097E-2,4.764488E-1,-6.553395E-2,-5.567264E-2,7.6674394E-2,-2.0063676E-2,-1.21359214E-1,-5.778905E-2,-7.0631765E-2,-5.6236923E-2,-4.063169E-2,-4.5474548E-2,3.319017E-1,-5.4500263E-2,-4.2700823E-2,-5.8302898E-2,-5.6827378E-2,1.2913835E-1,-4.032617E-2,-6.468454E-2,-5.4762613E-2,4.23854E-1,-5.1430628E-2,-5.7971124E-2,-5.077928E-2,-7.260474E-2,-1.2104349E-1,2.8914696E-2,-4.4936154E-2,-2.4795642E-2,-4.1259013E-2,-1.659852E-2,2.5223526E-1,-4.380606E-2,-9.2241086E-2,-4.4996835E-2,-6.695311E-2,7.7703893E-1,2.2883669E-2,1.5763855E-1,6.9565712E-3,-1.4374608E-2,-8.467778E-2,-5.787808E-2,1.0526376E-1,-5.6706745E-2,7.501284E-2,-5.587117E-2,4.132373E-3,1.683691E-2,-1.6544041E-1,2.5827937E-2,-2.7317426E-1,-2.0093808E-1,1.5687285E-1,-6.691907E-2,-8.1553105E-3,-9.916895E-2,-3.5091937E-1,-5.371235E-2,8.796424E-3,-7.461562E-2,-6.083347E-2],"categories":[],"categories_nodes":[],"categories_segments":[],"categories_sizes":[],"default_left":[true,true,true,true,true,true,true,true,true,true,true,true,true,true,true,true,true,true,true,true,true,true,true,true,true,true,true,true,true,true,true,true,true,true,true,true,true,true,true,true,true,true,true,true,true,true,true,true,true,true,true,true,true,true,true,true,true,true,true,true,true,true,true,false,false,false,false,false,false,false,false,false,false,false,false,false,false,false,false,false,false,false,false,false,false,false,false,false,false,false,false,false,false,false,false,false,false,false,false,false,false,false,false,false,false,false,false,false,false,false,false,false,false,false,false,false,false,false,false,false,false,false,false,false,false,false,false],"id":6,"left_children":[1,3,5,7,9,11,13,15,17,19,21,23,25,27,29,31,33,35,37,39,41,43,45,47,49,51,53,55,57,59,61,63,65,67,69,71,73,75,77,79,81,83,85,87,89,91,93,95,97,99,101,103,105,107,109,111,113,115,117,119,121,123,125,-1,-1,-1,-1,-1,-1,-1,-1,-1,-1,-1,-1,-1,-1,-1,-1,-1,-1,-1,-1,-1,-1,-1,-1,-1,-1,-1,-1,-1,-1,-1,-1,-1,-1,-1,-1,-1,-1,-1,-1,-1,-1,-1,-1,-1,-1,-1,-1,-1,-1,-1,-1,-1,-1,-1,-1,-1,-1,-1,-1,-1,-1,-1,-1],"loss_changes":[2.9507324E1,1.1791504E1,5.0391907E1,1.9511719E0,1.3678711E1,3.2697327E1,1.3533691E1,3.112793E-1,2.6903687E0,9.534912E-1,9.779358E0,2.9152756E0,2.2834187E1,4.897683E1,9.03952E0,1.3320312E0,1.1435604E0,4.293213E-1,3.2107239E0,3.0169678E-1,5.215454E-1,1.6772766E0,2.848236E0,3.759468E0,1.2672991E1,8.093361E0,1.1936436E1,1.5409546E1,5.0754013E1,3.3723343E1,7.2701416E0,3.0493164E-1,6.6186655E-1,4.549706E-1,3.3657646E-1,3.912964E-1,1.3266907E0,2.9245067E-1,2.5703888E0,1.2756348E-1,6.5100783E-1,5.628662E-1,9.008713E-1,1.4919128E0,3.2007933E-1,1.3583374E0,3.1272354E0,1.4147217E0,1.5845852E0,7.346897E-1,1.459487E1,6.356205E0,6.7621727E0,6.9668655E0,1.6830776E1,2.9547035E1,3.386382E1,4.4671288E1,8.710468E0,2.0992985E0,1.991285E1,1.5484592E1,8.078766E-1,0E0,0E0,0E0,0E0,0E0,0E0,0E0,0E0,0E0,0E0,0E0,0E0,0E0,0E0,0E0,0E0,0E0,0E0,0E0,0E0,0E0,0E0,0E0,0E0,0E0,0E0,0E0,0E0,0E0,0E0,0E0,0E0,0E0,0E0,0E0,0E0,0E0,0E0,0E0,0E0,0E0,0E0,0E0,0E0,0E0,0E0,0E0,0E0,0E0,0E0,0E0,0E0,0E0,0E0,0E0,0E0,0E0,0E0,0E0,0E0,0E0,0E0,0E0,0E0],"parents":[2147483647,0,0,1,1,2,2,3,3,4,4,5,5,6,6,7,7,8,8,9,9,10,10,11,11,12,12,13,13,14,14,15,15,16,16,17,17,18,18,19,19,20,20,21,21,22,22,23,23,24,24,25,25,26,26,27,27,28,28,29,29,30,30,31,31,32,32,33,33,34,34,35,35,36,36,37,37,38,38,39,39,40,40,41,41,42,42,43,43,44,44,45,45,46,46,47,47,48,48,49,49,50,50,51,51,52,52,53,53,54,54,55,55,56,56,57,57,58,58,59,59,60,60,61,61,62,62],"right_children":[2,4,6,8,10,12,14,16,18,20,22,24,26,28,30,32,34,36,38,40,42,44,46,48,50,52,54,56,58,60,62,64,66,68,70,72,74,76,78,80,82,84,86,88,90,92,94,96,98,100,102,104,106,108,110,112,114,116,118,120,122,124,126,-1,-1,-1,-1,-1,-1,-1,-1,-1,-1,-1,-1,-1,-1,-1,-1,-1,-1,-1,-1,-1,-1,-1,-1,-1,-1,-1,-1,-1,-1,-1,-1,-1,-1,-1,-1,-1,-1,-1,-1,-1,-1,-1,-1,-1,-1,-1,-1,-1,-1,-1,-1,-1,-1,-1,-1,-1,-1,-1,-1,-1,-1,-1,-1],"split_conditions":[1.35E1,6.76093E-1,2.15E1,9.356905E-1,3.5E0,5.849005E-1,3.55E1,6.6833746E-1,4.02837E-1,2.5E0,5.368035E-1,3.25E1,1.65E1,3.05E1,3.95E1,6.6717947E-1,5.026545E-1,2.19769E-1,4.031195E-1,3.75E1,5.583875E-1,5.33465E-1,7.5E0,6.1041E-1,3.307215E-1,1.65E1,1.95E1,2.85E1,9.919355E-1,9.91465E-1,5.55E1,1.95667E-1,6.5E0,4.89044E-1,8.5E0,1.15E1,3.05E1,3E0,4.5E0,2.5E0,3.95E1,7.5E0,5.58577E-1,1.858895E-1,5.5E0,5.43095E-1,1.05E1,1.95E1,1.55E1,7.71744E-1,3.31434E-1,8.3095205E-1,1.75E1,9.04197E-1,2.05E1,2.45E1,9.36633E-1,9.106765E-1,9.69697E-1,8.524455E-1,8.9512205E-1,9.791665E-1,6.15E1,-1.7612116E-2,-1.727013E-2,1.4293465E-1,-1.9660186E-2,-1.6701793E-2,2.3002319E-2,-6.019103E-3,-3.6407765E-2,-1.7336715E-2,-2.118953E-2,-1.6871078E-2,-1.21895075E-2,-1.3642365E-2,9.957051E-2,-1.635008E-2,-1.2810248E-2,-1.749087E-2,-1.7048214E-2,3.8741507E-2,-1.2097851E-2,-1.9405363E-2,-1.6428785E-2,1.271562E-1,-1.54291885E-2,-1.7391337E-2,-1.5233784E-2,-2.1781422E-2,-3.631305E-2,8.674409E-3,-1.3480847E-2,-7.4386927E-3,-1.23777045E-2,-4.9795564E-3,7.5670585E-2,-1.3141819E-2,-2.7672326E-2,-1.3499051E-2,-2.0085933E-2,2.331117E-1,6.865101E-3,4.7291566E-2,2.0869714E-3,-4.3123825E-3,-2.5403334E-2,-1.7363425E-2,3.157913E-2,-1.7012024E-2,2.2503853E-2,-1.6761351E-2,1.2397119E-3,5.051073E-3,-4.9632125E-2,7.7483812E-3,-8.195228E-2,-6.0281426E-2,4.7061857E-2,-2.0075724E-2,-2.4465933E-3,-2.9750686E-2,-1.0527582E-1,-1.6113706E-2,2.6389272E-3,-2.2384686E-2,-1.825004E-2],"split_indices":[4,5,1,6,4,5,0,5,5,4,6,0,4,4,0,5,6,5,5,0,6,6,4,6,5,1,1,4,6,5,0,5,4,6,1,1,0,1,4,0,0,1,6,6,0,6,1,4,1,6,5,6,0,6,0,4,5,6,5,5,6,5,0,0,0,0,0,0,0,0,0,0,0,0,0,0,0,0,0,0,0,0,0,0,0,0,0,0,0,0,0,0,0,0,0,0,0,0,0,0,0,0,0,0,0,0,0,0,0,0,0,0,0,0,0,0,0,0,0,0,0,0,0,0,0,0,0],"split_type":[0,0,0,0,0,0,0,0,0,0,0,0,0,0,0,0,0,0,0,0,0,0,0,0,0,0,0,0,0,0,0,0,0,0,0,0,0,0,0,0,0,0,0,0,0,0,0,0,0,0,0,0,0,0,0,0,0,0,0,0,0,0,0,0,0,0,0,0,0,0,0,0,0,0,0,0,0,0,0,0,0,0,0,0,0,0,0,0,0,0,0,0,0,0,0,0,0,0,0,0,0,0,0,0,0,0,0,0,0,0,0,0,0,0,0,0,0,0,0,0,0,0,0,0,0,0,0],"sum_hessian":[2.099732E6,1.918782E6,1.8095E5,1.283188E6,6.35594E5,3.561E4,1.4534E5,9.50086E5,3.33102E5,3.48828E5,2.86766E5,1.3255E4,2.2355E4,5.8595E4,8.6745E4,9.48791E5,1.295E3,2.50804E5,8.2298E4,2.42701E5,1.06127E5,1.26195E5,1.60571E5,4.822E3,8.433E3,1.4237E4,8.118E3,5.3077E4,5.518E3,6.7E3,8.0045E4,9.48782E5,9E0,8.32E2,4.63E2,1.55662E5,9.5142E4,2.5E1,8.2273E4,2.42259E5,4.42E2,5.8446E4,4.7681E4,1.25563E5,6.32E2,1.08698E5,5.1873E4,9.43E2,3.879E3,6.428E3,2.005E3,7.664E3,6.573E3,4.175E3,3.943E3,4.8525E4,4.552E3,2.789E3,2.729E3,5.424E3,1.276E3,2.5174E4,5.4871E4,4.70272E5,4.7851E5,6E0,3E0,8.06E2,2.6E1,3.6E1,4.27E2,1.53232E5,2.43E3,8.9327E4,5.815E3,2E0,2.3E1,5.4245E4,2.8028E4,1.10498E5,1.31761E5,2.3E1,4.19E2,6.463E3,5.1983E4,3E0,4.7678E4,4.5095E4,8.0468E4,2.11E2,4.21E2,2.49E2,1.08449E5,1.7335E4,3.4538E4,9.24E2,1.9E1,8.75E2,3.004E3,2.513E3,3.915E3,2.5E1,1.98E3,2.9E2,7.374E3,4.632E3,1.941E3,2.8E2,3.895E3,1.719E3,2.224E3,3.8063E4,1.0462E4,1.54E3,3.012E3,2.138E3,6.51E2,6.9E1,2.66E3,4.726E3,6.98E2,5.63E2,7.13E2,2.0247E4,4.927E3,4.67E3,5.0201E4],"tree_param":{"num_deleted":"0","num_feature":"7","num_nodes":"127","size_leaf_vector":"0"}},{"base_weights":[-3.816612E-2,-3.897194E-2,-2.9621111E-2,-4.01933E-2,-3.650609E-2,-2.674867E-3,-3.622319E-2,-4.0155903E-2,-6.4948164E-2,-3.832014E-2,-3.0639965E-2,-1.86515E-2,2.6457716E-2,-2.5794966E-2,-4.231942E-2,-4.068961E-2,-3.8632695E-2,-3.620932E-2,-8.665865E-2,-4.0395197E-2,-3.657449E-2,-3.801927E-2,-2.7389817E-2,-3.442384E-2,7.740555E-3,7.096861E-2,8.973811E-3,-3.2530565E-2,6.376609E-2,-3.7170574E-2,-5.332738E-2,-4.0692568E-2,2.754357E-1,-3.9828207E-2,-3.4221534E-2,-4.224762E-2,1.8935416E-2,-5.6558706E-2,-9.864964E-2,-4.3340288E-2,-4.0112752E-2,-3.865347E-2,-3.3448447E-2,-3.7692245E-2,-8.9684E-2,5.529685E-1,-2.7684808E-2,6.861676E-2,-3.6673967E-2,3.4553343E-1,4.729651E-3,-1.319209E-2,8.2454175E-2,-5.1604327E-2,2.2226108E-2,-6.376417E-2,-2.4404285E-2,3.3173746E-1,4.6167355E-2,-4.0076323E-2,1.1411044E-1,-1.0915579E-1,-4.361088E-2,-4.1094974E-2,-4.0297E-2,4.4701272E-1,-5.0788816E-2,-4.3839302E-2,-3.9321445E-2,-3.483078E-2,1.7316084E-2,-1.2788241E-2,-5.1975258E-2,-4.0648177E-2,1.255547E-1,-6.907E-2,4.924289E-2,-8.9027874E-2,-1.2513262E-1,-4.2664062E-2,-5.2621484E-2,4.466579E-1,-4.0117364E-2,-3.983825E-2,-3.57326E-2,-3.7158445E-2,-3.0997712E-2,-3.5817645E-2,-4.437379E-2,-4.533205E-2,-1.0091297E-1,-2.849972E-2,-2.6396825E-3,9.230668E-2,-1.9187799E-1,-2.9492896E-2,-6.8940885E-2,7.2132015E-1,2.638028E-1,-3.939868E-2,2.0301547E-2,6.073007E-2,-1.6897583E-1,3.7433913E-1,7.3986106E-2,-4.019759E-2,-2.1815103E-1,-1.0156098E-2,8.170448E-2,-1.7206023E-2,-1.2644611E-1,8.401895E-2,-3.0788295E-2,1.1654703E-1,5.715236E-1,-7.234871E-2,1.1281873E-1,-3.8782325E-2,-6.422518E-2,-2.1772774E-2,1.7562822E-1,-6.97032E-2,-2.6317877E-1,-8.289281E-2,-3.4746416E-2],"categories":[],"categories_nodes":[],"categories_segments":[],"categories_sizes":[],"default_left":[true,true,true,true,true,true,true,true,true,true,true,true,true,true,true,true,true,true,true,true,true,true,true,true,true,true,true,true,true,true,true,true,true,true,true,true,true,true,true,true,true,true,true,true,true,false,true,true,true,true,true,true,true,true,true,true,true,true,true,true,true,true,true,false,false,false,false,false,false,false,false,false,false,false,false,false,false,false,false,false,false,false,false,false,false,false,false,false,false,false,false,false,false,false,false,false,false,false,false,false,false,false,false,false,false,false,false,false,false,false,false,false,false,false,false,false,false,false,false,false,false,false,false,false,false],"id":7,"left_children":[1,3,5,7,9,11,13,15,17,19,21,23,25,27,29,31,33,35,37,39,41,43,45,47,49,51,53,55,57,59,61,63,65,67,69,71,73,75,77,79,81,83,85,87,89,-1,91,93,95,97,99,101,103,105,107,109,111,113,115,117,119,121,123,-1,-1,-1,-1,-1,-1,-1,-1,-1,-1,-1,-1,-1,-1,-1,-1,-1,-1,-1,-1,-1,-1,-1,-1,-1,-1,-1,-1,-1,-1,-1,-1,-1,-1,-1,-1,-1,-1,-1,-1,-1,-1,-1,-1,-1,-1,-1,-1,-1,-1,-1,-1,-1,-1,-1,-1,-1,-1,-1,-1,-1,-1],"loss_changes":[1.4457031E1,5.7773438E0,3.2191315E1,1.1853027E0,6.762512E0,1.6575298E1,9.238647E0,1.0400391E0,1.2035513E0,1.757019E0,3.599701E0,9.573931E0,9.815105E0,3.2349403E1,5.1965485E0,8.9782715E-1,1.7519531E0,2.785058E-1,3.9180183E-1,1.8273926E-1,1.7122803E0,7.72171E-1,1.785955E1,3.3402977E0,8.7491665E0,3.4394016E0,7.2721014E0,1.2656609E1,1.7674244E1,2.747599E1,1.5849625E1,1.4929199E-1,5.26457E-1,5.2993774E-1,2.2267609E0,2.1483612E-1,5.3238267E-1,4.21695E-1,1.8914318E-1,1.1949158E-1,4.7229004E-1,5.465698E-1,9.5645905E-1,5.697632E-1,1.3885689E-1,0E0,2.126152E0,1.9184104E0,3.2625446E0,2.1439238E0,5.8616033E0,4.939055E0,7.708729E0,3.0802317E0,1.4315165E1,3.0045208E1,2.73968E1,1.1852919E1,2.7821453E1,1.9135818E0,9.851E0,2.6305511E1,8.666237E0,0E0,0E0,0E0,0E0,0E0,0E0,0E0,0E0,0E0,0E0,0E0,0E0,0E0,0E0,0E0,0E0,0E0,0E0,0E0,0E0,0E0,0E0,0E0,0E0,0E0,0E0,0E0,0E0,0E0,0E0,0E0,0E0,0E0,0E0,0E0,0E0,0E0,0E0,0E0,0E0,0E0,0E0,0E0,0E0,0E0,0E0,0E0,0E0,0E0,0E0,0E0,0E0,0E0,0E0,0E0,0E0,0E0,0E0,0E0,0E0,0E0,0E0],"parents":[2147483647,0,0,1,1,2,2,3,3,4,4,5,5,6,6,7,7,8,8,9,9,10,10,11,11,12,12,13,13,14,14,15,15,16,16,17,17,18,18,19,19,20,20,21,21,22,22,23,23,24,24,25,25,26,26,27,27,28,28,29,29,30,30,31,31,32,32,33,33,34,34,35,35,36,36,37,37,38,38,39,39,40,40,41,41,42,42,43,43,44,44,46,46,47,47,48,48,49,49,50,50,51,51,52,52,53,53,54,54,55,55,56,56,57,57,58,58,59,59,60,60,61,61,62,62],"right_children":[2,4,6,8,10,12,14,16,18,20,22,24,26,28,30,32,34,36,38,40,42,44,46,48,50,52,54,56,58,60,62,64,66,68,70,72,74,76,78,80,82,84,86,88,90,-1,92,94,96,98,100,102,104,106,108,110,112,114,116,118,120,122,124,-1,-1,-1,-1,-1,-1,-1,-1,-1,-1,-1,-1,-1,-1,-1,-1,-1,-1,-1,-1,-1,-1,-1,-1,-1,-1,-1,-1,-1,-1,-1,-1,-1,-1,-1,-1,-1,-1,-1,-1,-1,-1,-1,-1,-1,-1,-1,-1,-1,-1,-1,-1,-1,-1,-1,-1,-1,-1,-1,-1,-1,-1],"split_conditions":[1.35E1,6.76093E-1,2.15E1,6.6797304E-1,5.5E0,1.65E1,3.35E1,9.356905E-1,5.026545E-1,3.3977598E-1,4.185905E-1,9.4226205E-1,1.95E1,3.05E1,9.0482E-1,6.6717947E-1,4.5E0,4.595375E-1,8.5E0,8.4993553E-1,4.5E0,4.169895E-1,4.1884547E-1,1.55E1,9.511905E-1,9.05848E-1,2.05E1,2.55E1,8.28629E-1,9.00306E-1,4.15E1,1.95667E-1,6.5E0,5.5E0,6.5883696E-1,4.5E0,1.5E1,6.738795E-1,1.05E1,3.16071E-1,8.5104454E-1,5.5E0,7.746035E-1,1.15E1,7.92857E-1,1.6589056E-1,1.55E1,8.9523804E-1,7.6754403E-1,1.55E1,9.230265E-1,8.51393E-1,9.236845E-1,2.05E1,6.2808204E-1,9.383335E-1,2.65E1,8.1149197E-1,9.919355E-1,8.553915E-1,8.8413095E-1,3.6E1,9.59844E-1,-1.23284925E-2,-1.2089101E-2,1.3410382E-1,-1.5236645E-2,-1.3151791E-2,-1.1796434E-2,-1.0449234E-2,5.1948256E-3,-3.8364723E-3,-1.5592578E-2,-1.2194454E-2,3.766641E-2,-2.0721E-2,1.4772868E-2,-2.6708363E-2,-3.7539788E-2,-1.2799219E-2,-1.5786447E-2,1.3399738E-1,-1.203521E-2,-1.1951475E-2,-1.0719781E-2,-1.1147534E-2,-9.299314E-3,-1.0745294E-2,-1.3312138E-2,-1.35996165E-2,-3.0273894E-2,-8.549917E-3,-7.919048E-4,2.7692005E-2,-5.7563398E-2,-8.847869E-3,-2.0682266E-2,2.1639605E-1,7.914084E-2,-1.1819605E-2,6.0904645E-3,1.8219022E-2,-5.0692752E-2,1.12301745E-1,2.2195833E-2,-1.2059277E-2,-6.544531E-2,-3.0468295E-3,2.4511347E-2,-5.161807E-3,-3.7933834E-2,2.5205687E-2,-9.2364885E-3,3.496411E-2,1.7145708E-1,-2.1704612E-2,3.3845622E-2,-1.1634698E-2,-1.9267555E-2,-6.5318323E-3,5.268847E-2,-2.091096E-2,-7.895363E-2,-2.4867846E-2,-1.0423925E-2],"split_indices":[4,5,0,5,4,4,1,6,6,6,6,6,1,4,5,5,4,6,1,5,0,6,6,1,6,5,1,0,6,5,1,5,4,0,5,4,0,5,4,6,5,1,6,0,5,0,0,6,6,1,5,5,5,0,6,5,0,6,5,5,6,4,5,0,0,0,0,0,0,0,0,0,0,0,0,0,0,0,0,0,0,0,0,0,0,0,0,0,0,0,0,0,0,0,0,0,0,0,0,0,0,0,0,0,0,0,0,0,0,0,0,0,0,0,0,0,0,0,0,0,0,0,0,0,0],"split_type":[0,0,0,0,0,0,0,0,0,0,0,0,0,0,0,0,0,0,0,0,0,0,0,0,0,0,0,0,0,0,0,0,0,0,0,0,0,0,0,0,0,0,0,0,0,0,0,0,0,0,0,0,0,0,0,0,0,0,0,0,0,0,0,0,0,0,0,0,0,0,0,0,0,0,0,0,0,0,0,0,0,0,0,0,0,0,0,0,0,0,0,0,0,0,0,0,0,0,0,0,0,0,0,0,0,0,0,0,0,0,0,0,0,0,0,0,0,0,0,0,0,0,0,0,0],"sum_hessian":[2.099732E6,1.918782E6,1.8095E5,1.283188E6,6.35594E5,3.561E4,1.4534E5,1.281255E6,1.933E3,4.85463E5,1.50131E5,2.2998E4,1.2612E4,5.3621E4,9.1719E4,9.4879E5,3.32465E5,8.33E2,1.1E3,2.21794E5,2.63669E5,4.5902E4,1.04229E5,1.4395E4,8.603E3,3.556E3,9.056E3,4.9871E4,3.75E3,6.2493E4,2.9226E4,9.48782E5,8E0,2.61567E5,7.0898E4,7.51E2,8.2E1,3.15E2,7.85E2,1.9396E4,2.02398E5,1.58348E5,1.05321E5,4.5615E4,2.87E2,5.2E1,1.04177E5,3.07E2,1.4088E4,7.5E1,8.528E3,4.27E2,3.129E3,1.625E3,7.431E3,1.0295E4,3.9576E4,2.3E2,3.52E3,6.1316E4,1.177E3,4.331E3,2.4895E4,4.70272E5,4.7851E5,5E0,3E0,2.933E4,2.32237E5,7.007E4,8.28E2,1.87E2,5.64E2,5.3E1,2.9E1,2.82E2,3.3E1,5.79E2,2.06E2,1.8084E4,1.312E3,1E0,2.02397E5,1.12644E5,4.5704E4,4.1891E4,6.343E4,3.5626E4,9.989E3,5.9E1,2.28E2,1.00894E5,3.283E3,2.82E2,2.5E1,1.1525E4,2.563E3,1.2E1,6.3E1,2.224E3,6.304E3,2.9E2,1.37E2,8.7E1,3.042E3,1.522E3,1.03E2,4.812E3,2.619E3,5.908E3,4.387E3,2.2E3,3.7376E4,1.22E2,1.08E2,1.267E3,2.253E3,5.82E4,3.116E3,3.67E2,8.1E2,3.449E3,8.82E2,4.582E3,2.0313E4],"tree_param":{"num_deleted":"0","num_feature":"7","num_nodes":"125","size_leaf_vector":"0"}},{"base_weights":[-2.6716052E-2,-2.7610587E-2,-2.280395E-2,-2.82453E-2,-2.5974952E-2,-2.6523383E-2,-1.5514693E-2,-2.8231652E-2,-6.151547E-2,-2.7630506E-2,-2.2609672E-2,-2.6223717E-2,-7.036443E-2,-1.123639E-2,-3.387506E-2,-2.8640147E-2,-2.7165309E-2,-4.311758E-2,-1.310168E-1,-2.8394323E-2,-2.5670942E-2,-2.534791E-2,-2.0374006E-2,-1.5761452E-2,-2.717865E-2,-8.791619E-2,-1.3437154E-2,-1.3049109E-2,6.817297E-2,-5.9605025E-2,-3.180352E-2,-2.8470084E-2,-3.0302087E-2,-2.8572643E-2,-2.5684254E-2,-6.6714406E-2,1.1842983E-2,-1.0844748E-1,-1.7911412E-1,-3.235415E-2,-2.8308192E-2,-2.8721763E-2,-2.4852103E-2,-2.5115684E-2,-6.6473015E-2,-2.0101871E-2,-8.543227E-2,3.281476E-2,-1.9432982E-2,-2.5472421E-2,-3.1571195E-2,-6.315539E-2,-1.2093559E-1,4.6964115E-1,-3.2726694E-2,-1.2348559E-2,-2.0789416E-1,1.490437E-1,-3.1436218E-3,-4.1744E-2,-6.61865E-2,-2.832889E-2,-4.4407208E-2,-2.8472396E-2,6.029383E-1,-2.9278656E-2,-3.5108678E-2,-3.039466E-2,-2.8193796E-2,1.03255406E-1,-2.5715934E-2,-2.7789732E-2,-9.978389E-2,-2.3029463E-2,6.8406975E-1,-1.12444125E-1,-4.4411443E-2,-2.8280577E-2,-3.4113154E-2,9.140138E-2,-2.8320808E-2,-3.2992758E-2,-2.7904311E-2,-2.6086222E-2,-2.2886025E-2,-2.7722556E-2,-2.3003796E-2,-4.175916E-2,-9.428412E-2,-2.1198124E-2,-2.832165E-3,-9.092391E-2,9.7567745E-2,8.715539E-2,8.272622E-3,-2.0123575E-2,2.0648308E-1,-2.808307E-2,-1.7270068E-2,-4.5073096E-2,-2.9178008E-2,-1.2544094E-1,-4.335029E-2,-8.660062E-2,-1.4989634E-1,9.5575586E-2,-4.1535046E-2,1.4494312E-1,-1.2864284E-2,1.6367877E-1,-2.4422628E-1,-1.9687066E-2,1.857457E-1,-9.312406E-2,1.2783784E-1,-4.6708025E-2,2.3591553E-1,-7.193438E-2,-4.490328E-2,1.7246611E-2,-3.215221E-2,-2.9961707E-2,-5.225779E-2],"categories":[],"categories_nodes":[],"categories_segments":[],"categories_sizes":[],"default_left":[true,true,true,true,true,true,true,true,true,true,true,true,true,true,true,true,true,true,true,true,true,true,true,true,true,true,true,true,true,true,true,true,true,true,true,true,true,true,false,true,true,true,true,true,true,true,true,true,true,true,true,true,true,false,true,true,true,true,true,true,true,true,true,false,false,false,false,false,false,false,false,false,false,false,false,false,false,false,false,false,false,false,false,false,false,false,false,false,false,false,false,false,false,false,false,false,false,false,false,false,false,false,false,false,false,false,false,false,false,false,false,false,false,false,false,false,false,false,false,false,false,false,false],"id":8,"left_children":[1,3,5,7,9,11,13,15,17,19,21,23,25,27,29,31,33,35,37,39,41,43,45,47,49,51,53,55,57,59,61,63,65,67,69,71,73,75,-1,77,79,81,83,85,87,89,91,93,95,97,99,101,103,-1,105,107,109,111,113,115,117,119,121,-1,-1,-1,-1,-1,-1,-1,-1,-1,-1,-1,-1,-1,-1,-1,-1,-1,-1,-1,-1,-1,-1,-1,-1,-1,-1,-1,-1,-1,-1,-1,-1,-1,-1,-1,-1,-1,-1,-1,-1,-1,-1,-1,-1,-1,-1,-1,-1,-1,-1,-1,-1,-1,-1,-1,-1,-1,-1,-1,-1],"loss_changes":[7.34729E0,1.7735596E0,1.0594238E1,5.57312E-1,2.6612854E0,3.3974762E0,1.0370813E1,5.352783E-1,6.3880444E-1,4.7857666E-1,9.639511E-1,2.5671082E0,1.7533684E0,1.541486E1,1.3280087E0,2.5061035E-1,7.0980835E-1,5.19548E-1,9.455562E-2,7.766724E-2,2.2367859E-1,6.7459106E-1,1.5339432E0,3.8346076E0,1.7641449E0,1.0895634E0,3.8824885E0,1.428775E1,1.3784612E1,2.1564865E-1,1.0101032E0,1.1951904E0,4.052124E-1,1.19781494E-1,6.811447E-1,3.5764825E-1,2.852259E0,1.39449835E-2,0E0,3.4131527E-2,3.4317017E-1,6.541824E-2,1.712532E-1,3.870201E-1,2.6892853E-1,1.6352463E0,3.7166595E-1,2.0144017E0,3.1224484E0,3.6315765E0,2.1274033E0,9.431784E-1,5.57786E-1,0E0,4.560225E-1,8.464073E0,5.1024876E0,6.9395447E0,1.4991618E1,7.0430833E-1,1.6265392E-1,3.1555176E0,5.6421375E-1,0E0,0E0,0E0,0E0,0E0,0E0,0E0,0E0,0E0,0E0,0E0,0E0,0E0,0E0,0E0,0E0,0E0,0E0,0E0,0E0,0E0,0E0,0E0,0E0,0E0,0E0,0E0,0E0,0E0,0E0,0E0,0E0,0E0,0E0,0E0,0E0,0E0,0E0,0E0,0E0,0E0,0E0,0E0,0E0,0E0,0E0,0E0,0E0,0E0,0E0,0E0,0E0,0E0,0E0,0E0,0E0,0E0,0E0,0E0,0E0],"parents":[2147483647,0,0,1,1,2,2,3,3,4,4,5,5,6,6,7,7,8,8,9,9,10,10,11,11,12,12,13,13,14,14,15,15,16,16,17,17,18,18,19,19,20,20,21,21,22,22,23,23,24,24,25,25,26,26,27,27,28,28,29,29,30,30,31,31,32,32,33,33,34,34,35,35,36,36,37,37,39,39,40,40,41,41,42,42,43,43,44,44,45,45,46,46,47,47,48,48,49,49,50,50,51,51,52,52,54,54,55,55,56,56,57,57,58,58,59,59,60,60,61,61,62,62],"right_children":[2,4,6,8,10,12,14,16,18,20,22,24,26,28,30,32,34,36,38,40,42,44,46,48,50,52,54,56,58,60,62,64,66,68,70,72,74,76,-1,78,80,82,84,86,88,90,92,94,96,98,100,102,104,-1,106,108,110,112,114,116,118,120,122,-1,-1,-1,-1,-1,-1,-1,-1,-1,-1,-1,-1,-1,-1,-1,-1,-1,-1,-1,-1,-1,-1,-1,-1,-1,-1,-1,-1,-1,-1,-1,-1,-1,-1,-1,-1,-1,-1,-1,-1,-1,-1,-1,-1,-1,-1,-1,-1,-1,-1,-1,-1,-1,-1,-1,-1,-1,-1,-1,-1],"split_conditions":[7.5E0,9.913055E-1,8.8554E-1,9.52574E-1,4.5E0,8.752425E-1,5.55E1,8.438885E-1,9.8214304E-1,3.5E0,5.3827846E-1,1.05E1,4.05E1,4.55E1,6.15E1,6.3100696E-1,3.5E0,8.28431E-1,7.5E0,4.116155E-2,1.69943E-1,5.33465E-1,3.95E1,1.05E1,5.45E1,1.45E1,4.25E1,4.35E1,4.75E1,1.45E1,9.961185E-1,6.30369E-1,8.5E0,5.5E0,8.44682E-1,3.64816E-1,8.5E0,5.1E1,-5.373424E-2,2.984605E-2,4.120715E-2,5.8898948E-2,7.5E0,5.5E0,5.5E0,1.05E1,1.615E2,7.416665E-1,8.69231E-1,1.65E1,6.15E1,8.77489E-1,6.99474E-1,1.4089236E-1,4.15E1,8.8785195E-1,9.117335E-1,9.91465E-1,5.45E1,6.21554E-1,6.21554E-1,6.45E1,9.961185E-1,-8.541719E-3,1.808815E-1,-8.7835975E-3,-1.0532604E-2,-9.118399E-3,-8.458139E-3,3.0976623E-2,-7.7147805E-3,-8.33692E-3,-2.9935168E-2,-6.908839E-3,2.0522094E-1,-3.3733238E-2,-1.3323434E-2,-8.484174E-3,-1.0233946E-2,2.7420416E-2,-8.496243E-3,-9.897828E-3,-8.371294E-3,-7.825867E-3,-6.865808E-3,-8.316767E-3,-6.901139E-3,-1.2527748E-2,-2.8285237E-2,-6.3594375E-3,-8.4964954E-4,-2.7277175E-2,2.9270325E-2,2.6146617E-2,2.4817865E-3,-6.0370727E-3,6.1944928E-2,-8.424921E-3,-5.1810206E-3,-1.3521929E-2,-8.753403E-3,-3.7632283E-2,-1.3005088E-2,-2.5980186E-2,-4.4968903E-2,2.8672677E-2,-1.2460514E-2,4.3482937E-2,-3.8592855E-3,4.9103633E-2,-7.3267885E-2,-5.90612E-3,5.572371E-2,-2.793722E-2,3.8351353E-2,-1.4012408E-2,7.077466E-2,-2.1580314E-2,-1.3470984E-2,5.1739835E-3,-9.645663E-3,-8.988513E-3,-1.5677338E-2],"split_indices":[4,5,6,5,0,6,0,6,6,0,6,0,4,1,0,5,1,6,1,6,6,6,1,1,1,4,0,1,0,1,5,5,0,0,6,6,1,0,0,6,6,6,1,0,0,1,1,5,6,4,1,6,5,0,4,6,6,5,0,5,5,0,6,0,0,0,0,0,0,0,0,0,0,0,0,0,0,0,0,0,0,0,0,0,0,0,0,0,0,0,0,0,0,0,0,0,0,0,0,0,0,0,0,0,0,0,0,0,0,0,0,0,0,0,0,0,0,0,0,0,0,0,0],"split_type":[0,0,0,0,0,0,0,0,0,0,0,0,0,0,0,0,0,0,0,0,0,0,0,0,0,0,0,0,0,0,0,0,0,0,0,0,0,0,0,0,0,0,0,0,0,0,0,0,0,0,0,0,0,0,0,0,0,0,0,0,0,0,0,0,0,0,0,0,0,0,0,0,0,0,0,0,0,0,0,0,0,0,0,0,0,0,0,0,0,0,0,0,0,0,0,0,0,0,0,0,0,0,0,0,0,0,0,0,0,0,0,0,0,0,0,0,0,0,0,0,0,0,0],"sum_hessian":[2.099732E6,1.708958E6,3.90774E5,1.23118E6,4.77778E5,2.58744E5,1.3203E5,1.230677E6,5.03E2,3.20232E5,1.57546E5,2.56989E5,1.755E3,1.0708E5,2.495E4,8.89789E5,3.40888E5,3.99E2,1.04E2,2.30408E5,8.9824E4,7.0809E4,8.6737E4,2.1496E4,2.35493E5,1.341E3,4.14E2,1.04691E5,2.389E3,1.857E3,2.3093E4,8.07207E5,8.2582E4,1.74785E5,1.66103E5,2.79E2,1.2E2,7.3E1,3.1E1,4.897E3,2.25511E5,1.9E4,7.0824E4,7.0413E4,3.96E2,8.6377E4,3.6E2,1.51E3,1.9986E4,1.69615E5,6.5878E4,7.68E2,5.73E2,1.5E1,3.99E2,1.04317E5,3.74E2,1.119E3,1.27E3,5.02E2,1.355E3,1.8105E4,4.988E3,8.07205E5,2E0,6.8091E4,1.4491E4,3.0073E4,1.44712E5,4E1,1.66063E5,1.29E2,1.5E2,1.15E2,5E0,6.8E1,5E0,1.482E3,3.415E3,2.3E1,2.25488E5,3.046E3,1.5954E4,4.3504E4,2.732E4,3.1508E4,3.8905E4,2.11E2,1.85E2,8.1221E4,5.156E3,3.5E2,1E1,4.69E2,1.041E3,1.9926E4,6E1,1.28662E5,4.0953E4,9.916E3,5.5962E4,1.84E2,5.84E2,2.64E2,3.09E2,2.5E1,3.74E2,3.4E2,1.03977E5,3.3E1,3.41E2,2E2,9.19E2,7.53E2,5.17E2,4.94E2,8E0,1.065E3,2.9E2,1.401E3,1.6704E4,1.758E3,3.23E3],"tree_param":{"num_deleted":"0","num_feature":"7","num_nodes":"123","size_leaf_vector":"0"}},{"base_weights":[-1.8701104E-2,-1.9924548E-2,-1.6983299E-2,-1.9857941E-2,-4.1057233E-2,-1.910272E-2,-1.3623925E-2,-1.9794175E-2,-2.7922453E-2,-2.5587708E-2,-5.3964566E-2,-1.8920025E-2,-5.1321935E-2,-1.631539E-2,-5.506247E-3,-1.9849494E-2,1.1601049E-1,-2.4656372E-2,-3.9875496E-2,-2.61339E-2,4.659451E-1,-1.1705952E-1,-4.9773544E-2,-1.9066187E-2,7.5594173E-3,-1.3515738E-1,-4.7014546E-2,5.4575708E-2,-1.6452767E-2,6.407751E-3,-2.2030268E-2,-2.0111805E-2,-1.7994907E-2,2.5571104E-2,2.9618618E-1,-2.831566E-2,-1.7300202E-2,4.5380265E-2,-4.044021E-2,-2.201221E-2,-5.105783E-2,-9.040355E-2,-1.2484103E-1,-3.4003355E-2,-6.082554E-2,-1.8929182E-2,-7.447137E-2,1.427461E-1,-1.0047026E-2,-1.4392196E-1,-8.8832885E-2,-4.2391945E-2,-1.2461765E-1,-5.8768364E-3,2.3354313E-1,5.5479236E-2,-1.6571052E-2,1.75417E-3,5.1752675E-2,-4.0320992E-2,-1.5852E-2,-2.0074334E-2,-4.9238585E-2,-1.884519E-2,5.8010193E-3,-2.7743554E-2,7.841055E-2,8.201886E-3,3.3139375E-1,-2.4749326E-2,-3.085582E-2,-2.5905196E-2,-8.83129E-3,-2.3322493E-2,1.4087103E-1,-2.970223E-2,-4.2581707E-2,-2.3747656E-2,2.1600974E-1,-3.7748925E-2,-6.040767E-2,-2.8030999E-2,-4.237363E-2,-7.83581E-2,-2.2105275E-2,-1.9062173E-2,2.7292045E-3,2.5786124E-3,-8.432109E-2,3.30282E-1,3.751759E-2,-3.9241772E-2,4.050005E-2,-6.0411472E-2,-1.4697444E-1,-3.7976574E-2,-9.1488555E-2,-3.390714E-2,-7.196239E-2,-4.9861833E-2,-1.6972008E-1,-9.197092E-2,2.232618E-2,-1.0809979E-1,3.04248E-1,-7.301297E-4,8.8863075E-2,-4.877064E-2,-1.6440433E-2,7.123068E-3,-4.8391845E-2,-1.178063E-1,6.621734E-2,-1.577971E-2,-1.351767E-1,1.6063726E-2,-2.3392197E-2],"categories":[],"categories_nodes":[],"categories_segments":[],"categories_sizes":[],"default_left":[true,true,true,true,true,true,true,true,true,true,true,true,true,true,true,true,true,true,true,true,false,true,true,true,true,true,true,true,true,true,true,true,true,true,true,true,true,true,true,true,true,false,false,true,true,true,true,true,true,true,true,true,true,true,true,true,true,true,true,true,true,false,false,false,false,false,false,false,false,false,false,false,false,false,false,false,false,false,false,false,false,false,false,false,false,false,false,false,false,false,false,false,false,false,false,false,false,false,false,false,false,false,false,false,false,false,false,false,false,false,false,false,false,false,false,false,false],"id":9,"left_children":[1,3,5,7,9,11,13,15,17,19,21,23,25,27,29,31,33,35,37,39,-1,41,43,45,47,49,51,53,55,57,59,61,63,65,67,69,71,73,75,77,79,-1,-1,81,83,85,87,89,91,93,95,97,99,101,103,105,107,109,111,113,115,-1,-1,-1,-1,-1,-1,-1,-1,-1,-1,-1,-1,-1,-1,-1,-1,-1,-1,-1,-1,-1,-1,-1,-1,-1,-1,-1,-1,-1,-1,-1,-1,-1,-1,-1,-1,-1,-1,-1,-1,-1,-1,-1,-1,-1,-1,-1,-1,-1,-1,-1,-1,-1,-1,-1,-1],"loss_changes":[4.4125366E0,1.7252808E0,6.218384E0,6.281128E-1,7.6774883E-1,3.1513672E0,7.3819504E0,9.114105E0,3.733287E-1,4.830773E-1,5.4921675E-1,2.0611572E0,1.0838423E0,2.4720535E0,1.6562967E1,5.89447E-1,8.042146E0,2.0228577E-1,1.0082126E-1,1.7895961E-1,0E0,1.5679002E-2,3.4128714E-1,4.018631E0,6.961013E0,4.689932E-2,1.0253434E0,5.313519E0,2.1557388E0,1.031565E1,3.9824486E0,1.1582642E0,3.0399704E0,9.3182397E-1,1.6702557E0,4.479456E-2,1.8232298E-1,9.5132165E-2,4.5714855E-2,6.2722003E-1,2.8579831E-2,0E0,0E0,3.950429E-2,7.8371525E-1,1.5217285E0,9.913678E-1,6.638009E0,3.8207247E0,2.2220612E-2,3.707409E-5,6.782503E-1,5.3437614E-1,8.9559895E-1,3.0282102E0,7.806823E-1,1.0626144E0,1.1937143E1,1.1167198E1,2.071368E1,6.3412843E0,0E0,0E0,0E0,0E0,0E0,0E0,0E0,0E0,0E0,0E0,0E0,0E0,0E0,0E0,0E0,0E0,0E0,0E0,0E0,0E0,0E0,0E0,0E0,0E0,0E0,0E0,0E0,0E0,0E0,0E0,0E0,0E0,0E0,0E0,0E0,0E0,0E0,0E0,0E0,0E0,0E0,0E0,0E0,0E0,0E0,0E0,0E0,0E0,0E0,0E0,0E0,0E0,0E0,0E0,0E0,0E0],"parents":[2147483647,0,0,1,1,2,2,3,3,4,4,5,5,6,6,7,7,8,8,9,9,10,10,11,11,12,12,13,13,14,14,15,15,16,16,17,17,18,18,19,19,21,21,22,22,23,23,24,24,25,25,26,26,27,27,28,28,29,29,30,30,31,31,32,32,33,33,34,34,35,35,36,36,37,37,38,38,39,39,40,40,43,43,44,44,45,45,46,46,47,47,48,48,49,49,50,50,51,51,52,52,53,53,54,54,55,55,56,56,57,57,58,58,59,59,60,60],"right_children":[2,4,6,8,10,12,14,16,18,20,22,24,26,28,30,32,34,36,38,40,-1,42,44,46,48,50,52,54,56,58,60,62,64,66,68,70,72,74,76,78,80,-1,-1,82,84,86,88,90,92,94,96,98,100,102,104,106,108,110,112,114,116,-1,-1,-1,-1,-1,-1,-1,-1,-1,-1,-1,-1,-1,-1,-1,-1,-1,-1,-1,-1,-1,-1,-1,-1,-1,-1,-1,-1,-1,-1,-1,-1,-1,-1,-1,-1,-1,-1,-1,-1,-1,-1,-1,-1,-1,-1,-1,-1,-1,-1,-1,-1,-1,-1,-1,-1],"split_conditions":[5.380535E-1,5.33465E-1,7.645995E-1,1.665E2,4.747085E-1,7.503845E-1,1.45E1,1.63E2,9.967215E-2,4.740215E-1,5.345415E-1,7.41988E-1,7.51791E-1,7.74798E-1,3.35E1,4.2456E-1,1.138812E-1,4.56898E-2,5E-1,2.15E1,1.3978353E-1,6.242625E-1,4.5E0,7.3533E-1,7.43095E-1,3.5E1,7.623755E-1,7.71958E-1,5.4195845E-1,3.15E1,4.05E1,4.238615E-1,4.75E1,1.645E2,2.526645E-1,3.5E0,1.955E2,1.1E1,2.75183E-1,1.65E1,2.4088249E-1,-2.7121065E-2,-3.745231E-2,3.5E0,5.36716E-1,7.327635E-1,9.5E0,1.15E1,1.5E1,5E0,2.2E1,2.65E1,9.5E0,1.45E1,7.651515E-1,7.5E0,7.7807355E-1,2.75E1,6.2872696E-1,3.55E1,4.75E1,-6.0223006E-3,-1.4771576E-2,-5.653557E-3,1.7403058E-3,-8.323067E-3,2.3523167E-2,2.460566E-3,9.9418126E-2,-7.424798E-3,-9.256747E-3,-7.771559E-3,-2.6493869E-3,-6.996748E-3,4.226131E-2,-8.910669E-3,-1.2774513E-2,-7.1242973E-3,6.480292E-2,-1.1324678E-2,-1.81223E-2,-8.4093E-3,-1.271209E-2,-2.3507431E-2,-6.6315825E-3,-5.718652E-3,8.1876136E-4,7.735838E-4,-2.5296329E-2,9.908461E-2,1.1255277E-2,-1.1772532E-2,1.2150015E-2,-1.8123442E-2,-4.4092335E-2,-1.1392972E-2,-2.7446568E-2,-1.0172143E-2,-2.1588717E-2,-1.495855E-2,-5.0916027E-2,-2.7591277E-2,6.6978545E-3,-3.2429937E-2,9.12744E-2,-2.1903892E-4,2.6658924E-2,-1.4631192E-2,-4.9321298E-3,2.1369206E-3,-1.4517554E-2,-3.5341892E-2,1.9865204E-2,-4.733913E-3,-4.055301E-2,4.819118E-3,-7.0176595E-3],"split_indices":[5,5,6,0,6,6,0,0,5,6,5,6,6,6,0,5,5,5,4,0,0,6,4,6,6,1,6,6,5,0,4,5,0,0,6,4,0,1,6,4,6,0,0,4,5,6,4,4,1,4,0,1,4,1,5,1,6,4,5,4,1,0,0,0,0,0,0,0,0,0,0,0,0,0,0,0,0,0,0,0,0,0,0,0,0,0,0,0,0,0,0,0,0,0,0,0,0,0,0,0,0,0,0,0,0,0,0,0,0,0,0,0,0,0,0,0,0],"split_type":[0,0,0,0,0,0,0,0,0,0,0,0,0,0,0,0,0,0,0,0,0,0,0,0,0,0,0,0,0,0,0,0,0,0,0,0,0,0,0,0,0,0,0,0,0,0,0,0,0,0,0,0,0,0,0,0,0,0,0,0,0,0,0,0,0,0,0,0,0,0,0,0,0,0,0,0,0,0,0,0,0,0,0,0,0,0,0,0,0,0,0,0,0,0,0,0,0,0,0,0,0,0,0,0,0,0,0,0,0,0,0,0,0,0,0,0,0],"sum_hessian":[2.099732E6,1.226321E6,8.73411E5,1.22247E6,3.851E3,5.35537E5,3.37874E5,1.212883E6,9.587E3,1.753E3,2.098E3,5.32519E5,3.018E3,2.53743E5,8.4131E4,1.21239E6,4.93E2,7.532E3,2.055E3,1.752E3,1E0,1.29E2,1.969E3,5.29596E5,2.923E3,1.46E2,2.872E3,4.9E2,2.53253E5,4.8885E4,3.5246E4,1.06215E6,1.5024E5,3.29E2,1.64E2,5.028E3,2.504E3,1.3E1,2.042E3,1.505E3,2.47E2,3.2E1,9.7E1,8.13E2,1.156E3,5.28291E5,1.305E3,3.36E2,2.587E3,1.21E2,2.5E1,2.712E3,1.6E2,3.67E2,1.23E2,4.15E2,2.52838E5,4.4336E4,4.549E3,8.898E3,2.6348E4,1.060787E6,1.363E3,1.45057E5,5.183E3,1.64E2,1.65E2,1.8E1,1.46E2,2.096E3,2.932E3,1.241E3,1.263E3,8E0,5E0,3.42E2,1.7E3,1.495E3,1E1,1.04E2,1.43E2,4.77E2,3.36E2,7.95E2,3.61E2,5.25067E5,3.224E3,1.48E2,1.157E3,1.2E2,2.16E2,1.64E3,9.47E2,5E0,1.16E2,2E0,2.3E1,2.109E3,6.03E2,6.1E1,9.9E1,9E1,2.77E2,2.1E1,1.02E2,1.55E2,2.6E2,1.02E3,2.51818E5,4.0049E4,4.287E3,3.57E2,4.192E3,7.07E3,1.828E3,5.035E3,2.1313E4],"tree_param":{"num_deleted":"0","num_feature":"7","num_nodes":"117","size_leaf_vector":"0"}},{"base_weights":[2.6436166E-3,-1.382181E-2,3.2256436E-1,-1.8700808E-2,9.376689E-2,1.5303849E-1,5.856806E-1,-1.9943204E-2,8.342419E-3,-7.3208837E-3,2.9604822E-1,7.748716E-2,4.4772515E-1,2.6563442E-1,6.157498E-1,-1.8628214E-2,-2.434876E-2,-7.297743E-3,1.9439451E-1,-2.1640554E-2,7.954675E-2,2.3301186E-1,3.8713816E-1,-7.177265E-3,1.6759352E-1,3.5830417E-1,6.085885E-1,1.09679066E-1,3.143973E-1,5.780026E-1,8.194718E-1,-1.8983426E-2,-1.6727034E-2,-2.5631107E-2,-7.0913055E-4,-1.0462004E-2,6.404302E-2,1.6023189E-1,3.2491037E-1,-2.5479928E-2,5.1794993E-3,1.3261662E-2,1.530637E-1,1.3859287E-1,2.818775E-1,2.9804602E-1,4.4233117E-1,-6.625682E-2,1.0478393E-2,1.4839204E-1,4.2164138E-1,2.3259343E-1,4.0560305E-1,3.0117404E-1,6.722243E-1,1.9528694E-1,5.7999197E-2,2.533561E-1,3.7057254E-1,5.032997E-1,6.563365E-1,5.425809E-1,8.282075E-1,-1.8350706E-2,-2.1547781E-2,-1.7409435E-2,7.701691E-2,-2.1136941E-2,-3.1041108E-2,-1.3134234E-2,1.13817826E-1,-1.4242743E-2,-7.4248E-5,3.5364076E-2,9.9745125E-2,2.0507634E-1,1.2036524E-1,2.9752943E-1,8.1780404E-1,-3.1459942E-2,-1.8298242E-2,-1.2943725E-2,5.591161E-2,-3.3220018E-3,1.3491985E-1,1.0737301E-1,1.8453565E-1,7.812599E-2,1.964331E-1,2.0822977E-1,3.2847592E-1,2.8666997E-1,7.764013E-1,3.539752E-1,4.742729E-1,-1.972718E-2,-1.0854525E-1,-2.1774318E-2,2.3577893E-2,2.3082489E-1,5.4548163E-2,2.0340815E-1,5.545703E-1,3.0920842E-1,1.4643997E-1,3.422556E-1,4.966347E-1,-7.8959754E-5,3.7835976E-1,5.1073474E-1,7.51105E-1,1.7430015E-1,2.9137668E-1,5.0975733E-2,3.0613264E-1,2.3599312E-1,4.4490686E-1,4.0622693E-1,3.1366843E-1,4.2967838E-1,5.722382E-1,6.106824E-1,7.5216985E-1,4.244328E-1,9.1259414E-1,6.141386E-1,8.383141E-1],"categories":[],"categories_nodes":[],"categories_segments":[],"categories_sizes":[],"default_left":[true,true,true,true,true,true,true,true,true,true,true,true,true,true,true,true,true,true,true,true,true,true,true,true,true,true,true,true,true,true,true,true,true,true,true,true,true,true,true,true,true,true,true,true,true,true,true,true,true,true,true,true,true,true,true,true,true,true,true,true,true,true,true,false,false,false,false,false,false,false,false,false,false,false,false,false,false,false,false,false,false,false,false,false,false,false,false,false,false,false,false,false,false,false,false,false,false,false,false,false,false,false,false,false,false,false,false,false,false,false,false,false,false,false,false,false,false,false,false,false,false,false,false,false,false,false,false],"id":10,"left_children":[1,3,5,7,9,11,13,15,17,19,21,23,25,27,29,31,33,35,37,39,41,43,45,47,49,51,53,55,57,59,61,63,65,67,69,71,73,75,77,79,81,83,85,87,89,91,93,95,97,99,101,103,105,107,109,111,113,115,117,119,121,123,125,-1,-1,-1,-1,-1,-1,-1,-1,-1,-1,-1,-1,-1,-1,-1,-1,-1,-1,-1,-1,-1,-1,-1,-1,-1,-1,-1,-1,-1,-1,-1,-1,-1,-1,-1,-1,-1,-1,-1,-1,-1,-1,-1,-1,-1,-1,-1,-1,-1,-1,-1,-1,-1,-1,-1,-1,-1,-1,-1,-1,-1,-1,-1,-1],"loss_changes":[3.6537544E5,3.462786E4,1.5144053E5,2.1202422E3,5.8517492E4,4.5970605E4,1.28025E4,3.4952734E2,8.065605E3,2.3735986E3,5.4753594E3,1.2537596E4,6.0606562E3,8.688716E2,9.3511875E3,3.137793E1,4.2042676E2,5.771878E2,9.5830615E2,1.6868188E2,1.315909E3,2.6002227E3,1.9176289E3,8.838253E2,3.883588E3,1.6101406E3,2.944668E3,1.2040219E2,2.9837012E2,6.0035312E3,4.59375E2,6.3521484E1,4.6792896E2,3.1985254E2,1.0154921E3,9.6151794E1,1.1118265E2,3.0452832E2,6.015117E2,6.1541565E1,1.8861064E2,2.8649896E2,1.8408984E2,6.722024E2,1.2744414E3,8.1164453E2,6.7947656E2,3.8360406E2,2.7561935E2,5.7260166E3,1.6228242E3,4.886604E2,1.1345469E3,6.003545E2,1.5883281E3,2.0609436E1,2.9564198E1,1.3864111E2,9.183154E1,2.6652031E3,2.1907188E3,2.5391077E2,3.981875E2,0E0,0E0,0E0,0E0,0E0,0E0,0E0,0E0,0E0,0E0,0E0,0E0,0E0,0E0,0E0,0E0,0E0,0E0,0E0,0E0,0E0,0E0,0E0,0E0,0E0,0E0,0E0,0E0,0E0,0E0,0E0,0E0,0E0,0E0,0E0,0E0,0E0,0E0,0E0,0E0,0E0,0E0,0E0,0E0,0E0,0E0,0E0,0E0,0E0,0E0,0E0,0E0,0E0,0E0,0E0,0E0,0E0,0E0,0E0,0E0,0E0,0E0,0E0,0E0],"parents":[2147483647,0,0,1,1,2,2,3,3,4,4,5,5,6,6,7,7,8,8,9,9,10,10,11,11,12,12,13,13,14,14,15,15,16,16,17,17,18,18,19,19,20,20,21,21,22,22,23,23,24,24,25,25,26,26,27,27,28,28,29,29,30,30,31,31,32,32,33,33,34,34,35,35,36,36,37,37,38,38,39,39,40,40,41,41,42,42,43,43,44,44,45,45,46,46,47,47,48,48,49,49,50,50,51,51,52,52,53,53,54,54,55,55,56,56,57,57,58,58,59,59,60,60,61,61,62,62],"right_children":[2,4,6,8,10,12,14,16,18,20,22,24,26,28,30,32,34,36,38,40,42,44,46,48,50,52,54,56,58,60,62,64,66,68,70,72,74,76,78,80,82,84,86,88,90,92,94,96,98,100,102,104,106,108,110,112,114,116,118,120,122,124,126,-1,-1,-1,-1,-1,-1,-1,-1,-1,-1,-1,-1,-1,-1,-1,-1,-1,-1,-1,-1,-1,-1,-1,-1,-1,-1,-1,-1,-1,-1,-1,-1,-1,-1,-1,-1,-1,-1,-1,-1,-1,-1,-1,-1,-1,-1,-1,-1,-1,-1,-1,-1,-1,-1,-1,-1,-1,-1,-1,-1,-1,-1,-1,-1],"split_conditions":[5.45E1,7.334915E-1,7.8701997E-1,2.75E1,1.55E1,7.8715146E-1,5.90273E-1,2.38876E-1,6.024425E-1,9.5E0,9.13929E-1,4.464575E-1,2.075E2,4.1798198E-1,3.495E2,1.715E2,2.05E1,4.85126E-1,9.0474E-1,7.160665E-1,7.06272E-1,7.2953606E-1,2.75E1,5.16344E-2,4.595E2,5.714115E-1,5.865425E-1,1.505E2,8.726985E-1,9.066545E-1,3.815E2,2.403305E-1,8.098945E-1,2.2898051E-1,6.874475E-1,2.043055E-1,4.20502E-1,6.65E1,5.6E2,2.85E1,9.5E0,9.58114E-1,8.69475E-1,2.75E1,2.85E1,5.595E2,8.29811E-1,7.55E1,8.061015E-2,3.085E2,5.928455E-1,3.55E2,8.84184E-1,4.777215E-1,4.225E2,3.92408E-1,4.025E2,3.165E2,5.495E2,8.299685E-1,1.805E2,9.824285E-1,3.815E2,-5.5052117E-3,-6.4643347E-3,-5.2228305E-3,2.3105074E-2,-6.3410825E-3,-9.312333E-3,-3.9402703E-3,3.4145348E-2,-4.272823E-3,-2.22744E-5,1.06092235E-2,2.9923538E-2,6.1522905E-2,3.6109574E-2,8.9258835E-2,2.4534123E-1,-9.437983E-3,-5.4894728E-3,-3.8831176E-3,1.6773485E-2,-9.966006E-4,4.0475957E-2,3.2211903E-2,5.5360697E-2,2.3437798E-2,5.892993E-2,6.246893E-2,9.854278E-2,8.6000994E-2,2.329204E-1,1.0619257E-1,1.4228188E-1,-5.918154E-3,-3.256358E-2,-6.5322956E-3,7.0733684E-3,6.924747E-2,1.636445E-2,6.102245E-2,1.663711E-1,9.276253E-2,4.393199E-2,1.0267668E-1,1.4899041E-1,-2.3687928E-5,1.13507934E-1,1.5322043E-1,2.2533152E-1,5.229005E-2,8.7413006E-2,1.529272E-2,9.18398E-2,7.0797935E-2,1.3347207E-1,1.2186808E-1,9.4100535E-2,1.2890352E-1,1.7167147E-1,1.8320474E-1,2.2565097E-1,1.2732986E-1,2.7377826E-1,1.842416E-1,2.5149426E-1],"split_indices":[4,6,5,4,4,6,6,6,5,4,6,6,4,6,4,1,4,6,5,5,5,5,4,6,4,5,5,0,5,5,1,5,5,5,5,5,5,1,1,0,0,6,6,4,4,0,5,4,5,0,5,0,6,5,0,6,0,4,1,6,4,6,0,0,0,0,0,0,0,0,0,0,0,0,0,0,0,0,0,0,0,0,0,0,0,0,0,0,0,0,0,0,0,0,0,0,0,0,0,0,0,0,0,0,0,0,0,0,0,0,0,0,0,0,0,0,0,0,0,0,0,0,0,0,0,0,0],"split_type":[0,0,0,0,0,0,0,0,0,0,0,0,0,0,0,0,0,0,0,0,0,0,0,0,0,0,0,0,0,0,0,0,0,0,0,0,0,0,0,0,0,0,0,0,0,0,0,0,0,0,0,0,0,0,0,0,0,0,0,0,0,0,0,0,0,0,0,0,0,0,0,0,0,0,0,0,0,0,0,0,0,0,0,0,0,0,0,0,0,0,0,0,0,0,0,0,0,0,0,0,0,0,0,0,0,0,0,0,0,0,0,0,0,0,0,0,0,0,0,0,0,0,0,0,0,0,0],"sum_hessian":[6.9362376E7,6.596723E7,3.395148E6,6.3105484E7,2.861746E6,2.064799E6,1.330349E6,6.033369E7,2.771794E6,1.908164E6,9.53582E5,1.643454E6,4.21345E5,1.14256E5,1.216093E6,4.6464704E7,1.3868987E7,2.556857E6,2.14937E5,1.638128E6,2.70036E5,5.63577E5,3.90005E5,8.47314E5,7.9614E5,2.7081E5,1.50535E5,2.7216E4,8.704E4,1.025993E6,1.901E5,3.915E7,7.314705E6,1.3155366E7,7.13621E5,2.448267E6,1.0859E5,1.7035E5,4.4587E4,1.432991E6,2.05137E5,1.42003E5,1.28033E5,1.92203E5,3.71374E5,1.4919E5,2.40815E5,1.94954E5,6.5236E5,7.40196E5,5.5944E4,7.4038E4,1.96772E5,2.5818E4,1.24717E5,1.0244E4,1.6972E4,4.1716E4,4.5324E4,5.25172E5,5.00821E5,5.816E3,1.84284E5,3.1401992E7,7.748005E6,7.261844E6,5.2861E4,7.185923E6,5.969443E6,6.43778E5,6.9843E4,1.794968E6,6.53299E5,6.0219E4,4.8371E4,8.0168E4,9.0182E4,4.2242E4,2.345E3,7.8191E5,6.51081E5,1.51144E5,5.3993E4,1.24969E5,1.7034E4,5.2222E4,7.5811E4,9.3969E4,9.8234E4,1.43919E5,2.27455E5,1.45726E5,3.464E3,6.3945E4,1.7687E5,9.2823E4,1.02131E5,1.88427E5,4.63933E5,3.94055E5,3.46141E5,2.1178E4,3.4766E4,3.9187E4,3.4851E4,1.16032E5,8.074E4,5.266E3,2.0552E4,4.093E4,8.3787E4,8.41E3,1.834E3,1.6506E4,4.66E2,3.8251E4,3.465E3,2.7861E4,1.7463E4,2.53964E5,2.71208E5,3.39225E5,1.61596E5,4.41E3,1.406E3,8.311E3,1.75973E5],"tree_param":{"num_deleted":"0","num_feature":"7","num_nodes":"127","size_leaf_vector":"0"}},{"base_weights":[1.8506005E-3,-1.0111731E-2,2.1791853E-1,-1.3252381E-2,6.068133E-2,8.605459E-2,3.887665E-1,-1.4160672E-2,2.520118E-3,-7.0290193E-3,1.9815564E-1,4.7835995E-2,3.263039E-1,2.6409298E-1,4.437501E-1,-1.3138246E-2,-1.760429E-2,-6.8382886E-3,1.379548E-1,-1.6060278E-2,5.6616385E-2,1.4094724E-1,2.4878773E-1,-6.2850174E-3,1.1323661E-1,2.3501249E-1,4.7470093E-1,2.3721607E-1,5.7713336E-1,4.1573524E-1,5.688776E-1,-1.2232464E-2,-1.36965485E-2,-1.8700505E-2,1.2166697E-3,-8.885397E-3,2.2465903E-2,1.2625417E-1,4.7690594E-1,-1.7251046E-2,4.159743E-2,1.5852993E-2,1.07282065E-1,1.3142292E-1,5.392423E-1,1.6037923E-1,2.7400118E-1,-5.463504E-2,2.8712573E-3,1.00057594E-1,2.9374105E-1,1.7636237E-1,2.7635476E-1,2.759096E-1,5.2384645E-1,1.498589E-1,3.186838E-1,2.279471E-1,5.883077E-1,3.6376482E-1,4.7355026E-1,4.9158418E-1,5.9274256E-1,-1.1833188E-2,-1.5160923E-2,-1.4238456E-2,-1.1351411E-2,-1.5370193E-2,-2.4087103E-2,-5.124678E-3,8.798402E-2,-1.4137226E-2,-5.835681E-3,6.7643994E-3,6.1709315E-2,7.5244464E-2,1.5921026E-1,6.601286E-1,6.643107E-3,-1.9282343E-2,-7.5387076E-4,9.574369E-3,1.4520672E-1,-1.9728753E-3,8.935367E-2,5.2968156E-2,1.3038254E-1,1.0039125E-1,1.9104806E-1,6.8594915E-1,-1.6760802E-2,1.3486217E-1,2.244198E-1,2.405493E-1,3.2437217E-1,-1.3850346E-2,-1.00615926E-1,-1.4796462E-2,1.1573029E-2,1.4418033E-1,2.4482999E-2,8.86431E-2,4.2764074E-1,2.3123364E-1,8.8229395E-2,2.1175529E-1,3.0592576E-1,-8.853438E-2,3.2438266E-1,3.5549757E-1,5.734158E-1,2.1613117E-1,4.0404506E-2,2.6050213E-1,4.142759E-1,-3.2102384E-2,3.2230383E-1,3.7720546E-1,6.00697E-1,3.33738E-1,4.242726E-1,4.6275207E-1,7.0085776E-1,3.4669065E-1,5.952765E-1,6.0677004E-1,4.892954E-1],"categories":[],"categories_nodes":[],"categories_segments":[],"categories_sizes":[],"default_left":[true,true,true,true,true,true,true,true,true,true,true,true,true,true,true,true,true,true,true,true,true,true,true,true,true,true,true,true,true,true,true,true,true,true,true,true,true,true,true,true,true,true,true,true,true,true,true,true,true,true,true,true,true,true,true,true,true,true,true,true,true,true,true,false,false,false,false,false,false,false,false,false,false,false,false,false,false,false,false,false,false,false,false,false,false,false,false,false,false,false,false,false,false,false,false,false,false,false,false,false,false,false,false,false,false,false,false,false,false,false,false,false,false,false,false,false,false,false,false,false,false,false,false,false,false,false,false],"id":11,"left_children":[1,3,5,7,9,11,13,15,17,19,21,23,25,27,29,31,33,35,37,39,41,43,45,47,49,51,53,55,57,59,61,63,65,67,69,71,73,75,77,79,81,83,85,87,89,91,93,95,97,99,101,103,105,107,109,111,113,115,117,119,121,123,125,-1,-1,-1,-1,-1,-1,-1,-1,-1,-1,-1,-1,-1,-1,-1,-1,-1,-1,-1,-1,-1,-1,-1,-1,-1,-1,-1,-1,-1,-1,-1,-1,-1,-1,-1,-1,-1,-1,-1,-1,-1,-1,-1,-1,-1,-1,-1,-1,-1,-1,-1,-1,-1,-1,-1,-1,-1,-1,-1,-1,-1,-1,-1,-1],"loss_changes":[1.792793E5,1.4612754E4,8.19753E4,9.015615E2,2.598816E4,1.8856648E4,1.08654375E4,2.0950781E2,4.343204E3,1.0752056E3,2.6686328E3,6.2713784E3,3.8182988E3,4.0813125E3,3.8555469E3,2.3202148E1,2.8106104E2,1.9227888E2,8.783125E2,1.1246976E2,4.8007843E2,1.640874E3,1.0894199E3,4.2920682E2,1.9085293E3,4.2308105E2,1.0486406E3,3.179371E3,1.4952734E2,2.7002344E3,3.708711E2,2.0457764E1,3.607422E1,2.3092725E2,4.125436E2,4.7984863E1,1.289594E2,3.5989062E2,6.367388E2,5.3783936E1,1.099766E2,1.6877402E2,1.3002393E2,7.8166016E2,8.240259E2,1.7720557E2,6.407129E2,2.894856E2,1.2532032E2,2.4932646E3,1.4991704E3,3.4890918E2,1.9545898E2,3.759729E2,7.180547E2,1.563793E3,1.2855703E3,2.9234413E1,9.697754E1,8.5976953E2,1.0439219E3,7.1308887E2,2.2279297E2,0E0,0E0,0E0,0E0,0E0,0E0,0E0,0E0,0E0,0E0,0E0,0E0,0E0,0E0,0E0,0E0,0E0,0E0,0E0,0E0,0E0,0E0,0E0,0E0,0E0,0E0,0E0,0E0,0E0,0E0,0E0,0E0,0E0,0E0,0E0,0E0,0E0,0E0,0E0,0E0,0E0,0E0,0E0,0E0,0E0,0E0,0E0,0E0,0E0,0E0,0E0,0E0,0E0,0E0,0E0,0E0,0E0,0E0,0E0,0E0,0E0,0E0,0E0,0E0],"parents":[2147483647,0,0,1,1,2,2,3,3,4,4,5,5,6,6,7,7,8,8,9,9,10,10,11,11,12,12,13,13,14,14,15,15,16,16,17,17,18,18,19,19,20,20,21,21,22,22,23,23,24,24,25,25,26,26,27,27,28,28,29,29,30,30,31,31,32,32,33,33,34,34,35,35,36,36,37,37,38,38,39,39,40,40,41,41,42,42,43,43,44,44,45,45,46,46,47,47,48,48,49,49,50,50,51,51,52,52,53,53,54,54,55,55,56,56,57,57,58,58,59,59,60,60,61,61,62,62],"right_children":[2,4,6,8,10,12,14,16,18,20,22,24,26,28,30,32,34,36,38,40,42,44,46,48,50,52,54,56,58,60,62,64,66,68,70,72,74,76,78,80,82,84,86,88,90,92,94,96,98,100,102,104,106,108,110,112,114,116,118,120,122,124,126,-1,-1,-1,-1,-1,-1,-1,-1,-1,-1,-1,-1,-1,-1,-1,-1,-1,-1,-1,-1,-1,-1,-1,-1,-1,-1,-1,-1,-1,-1,-1,-1,-1,-1,-1,-1,-1,-1,-1,-1,-1,-1,-1,-1,-1,-1,-1,-1,-1,-1,-1,-1,-1,-1,-1,-1,-1,-1,-1,-1,-1,-1,-1,-1],"split_conditions":[5.05E1,7.334915E-1,7.5265753E-1,2.45E1,1.45E1,8.22784E-1,7.622435E-1,2.38876E-1,6.25211E-1,9.5E0,8.3599997E-1,4.043995E-1,2.065E2,3.585E2,3.795E2,1.5E0,5.55E1,4.179445E-1,5.625E2,1.45E1,8.7448156E-1,5.625E2,2.15E1,4.0664002E-2,4.665E2,8.7667704E-1,5.928455E-1,8.43153E-1,5.5092204E-1,9.104185E-1,3.855E2,1.535E2,1.695E2,2.70059E-1,8.13823E-1,9.36086E-2,3.65E1,5.453445E-1,1.07920006E-1,7.50423E-1,9.091285E-1,8.4772253E-1,5.908175E-1,3.35E1,9.9477544E-2,9.632265E-1,9.3780553E-1,7.55E1,8.061015E-2,3.355E2,5.928455E-1,2.835E2,5.712605E-1,4.777215E-1,4.215E2,3.545E2,1.885E2,4.777215E-1,3.815E2,9.0700305E-1,9.9928045E-1,8.698775E-1,4.425E2,-3.5499565E-3,-4.5482772E-3,-4.271537E-3,-3.4054236E-3,-4.611058E-3,-7.2261314E-3,-1.5374034E-3,2.6395207E-2,-4.241168E-3,-1.7507045E-3,2.02932E-3,1.8512795E-2,2.257334E-2,4.7763083E-2,1.980386E-1,1.9929323E-3,-5.784703E-3,-2.2616124E-4,2.8723106E-3,4.3562017E-2,-5.918626E-4,2.6806103E-2,1.5890447E-2,3.9114762E-2,3.0117376E-2,5.731442E-2,2.0578475E-1,-5.028241E-3,4.0458653E-2,6.732594E-2,7.216479E-2,9.731165E-2,-4.155104E-3,-3.018478E-2,-4.4389386E-3,3.4719089E-3,4.32541E-2,7.3449E-3,2.659293E-2,1.2829223E-1,6.93701E-2,2.6468819E-2,6.352659E-2,9.177773E-2,-2.6560314E-2,9.7314805E-2,1.0664927E-1,1.7202476E-1,6.4839356E-2,1.2121352E-2,7.8150645E-2,1.2428278E-1,-9.6307155E-3,9.6691154E-2,1.13161646E-1,1.802091E-1,1.001214E-1,1.2728179E-1,1.3882563E-1,2.1025734E-1,1.040072E-1,1.7858295E-1,1.8203102E-1,1.4678863E-1],"split_indices":[4,5,6,4,4,5,5,5,6,4,6,6,4,4,0,4,0,6,0,0,5,1,4,6,4,5,6,6,5,6,1,0,0,6,6,5,4,5,5,6,6,6,6,4,6,5,5,4,5,1,6,1,6,6,1,0,4,5,1,5,5,6,1,0,0,0,0,0,0,0,0,0,0,0,0,0,0,0,0,0,0,0,0,0,0,0,0,0,0,0,0,0,0,0,0,0,0,0,0,0,0,0,0,0,0,0,0,0,0,0,0,0,0,0,0,0,0,0,0,0,0,0,0,0,0,0,0],"split_type":[0,0,0,0,0,0,0,0,0,0,0,0,0,0,0,0,0,0,0,0,0,0,0,0,0,0,0,0,0,0,0,0,0,0,0,0,0,0,0,0,0,0,0,0,0,0,0,0,0,0,0,0,0,0,0,0,0,0,0,0,0,0,0,0,0,0,0,0,0,0,0,0,0,0,0,0,0,0,0,0,0,0,0,0,0,0,0,0,0,0,0,0,0,0,0,0,0,0,0,0,0,0,0,0,0,0,0,0,0,0,0,0,0,0,0,0,0,0,0,0,0,0,0,0,0,0,0],"sum_hessian":[6.9362376E7,6.572367E7,3.638708E6,6.2931776E7,2.791893E6,2.053656E6,1.585052E6,5.950506E7,3.426717E6,1.870577E6,9.21316E5,1.771801E6,2.81855E5,4.85103E5,1.099949E6,4.5882376E7,1.3622684E7,3.205239E6,2.21478E5,1.638128E6,2.32449E5,4.32568E5,4.88748E5,9.69506E5,8.02295E5,1.74505E5,1.0735E5,4.46748E5,3.8355E4,8.98735E5,2.01214E5,1.7496424E7,2.8385952E7,1.2872909E7,7.49775E5,2.995951E6,2.09288E5,2.14089E5,7.389E3,1.604982E6,3.3146E4,1.28813E5,1.03636E5,4.22467E5,1.0101E4,1.08458E5,3.8029E5,1.54366E5,8.1514E5,7.47705E5,5.459E4,7.2152E4,1.02353E5,2.128E4,8.607E4,2.15583E5,2.31165E5,1.19E3,3.7165E4,4.73294E5,4.25441E5,4.7475E4,1.53739E5,1.5397135E7,2.09929E6,2.3057808E7,5.328142E6,7.954793E6,4.918116E6,6.98711E5,5.1064E4,1.100613E6,1.895338E6,1.49481E5,5.9807E4,8.403E4,1.30059E5,5.317E3,2.072E3,1.429026E6,1.75956E5,2.5321E4,7.825E3,1.03671E5,2.5142E4,3.0926E4,7.271E4,2.77859E5,1.44608E5,7.992E3,2.109E3,7.7558E4,3.09E4,2.28528E5,1.51762E5,8.1806E4,7.256E4,2.68991E5,5.46149E5,4.72086E5,2.75619E5,2.1563E4,3.3027E4,4.4466E4,2.7686E4,3.2143E4,7.021E4,2.498E3,1.8782E4,1.958E4,6.649E4,1.34279E5,8.1304E4,1.43704E5,8.7461E4,3.17E2,8.73E2,2.062E3,3.5103E4,3.16325E5,1.56969E5,4.0615E5,1.9291E4,1.9805E4,2.767E4,1.35377E5,1.8362E4],"tree_param":{"num_deleted":"0","num_feature":"7","num_nodes":"127","size_leaf_vector":"0"}},{"base_weights":[1.2954723E-3,-6.665536E-3,1.6130038E-1,-9.177423E-3,5.048684E-2,6.944349E-2,2.8320727E-1,-9.719936E-3,1.0058125E-2,1.0162307E-3,1.6495168E-1,3.8535353E-2,2.39518E-1,1.9931896E-1,3.1869414E-1,-9.981181E-3,2.6761496E-3,-2.2624852E-3,1.04135156E-1,-9.895612E-3,6.0817454E-2,1.3651705E-1,2.3893972E-1,-8.3081545E-3,8.574232E-2,1.783066E-1,3.2706693E-1,1.7071006E-1,3.948833E-1,2.982134E-1,4.0178308E-1,-9.45533E-3,-1.5695741E-2,-1.0422048E-2,1.03206515E-1,-5.6003216E-3,1.8506307E-2,1.2350073E-1,2.179285E-2,-1.1181736E-2,6.0668115E-2,2.7620904E-2,9.151147E-2,1.0374072E-1,1.689284E-1,2.3279846E-1,4.9715757E-1,3.5955783E-3,-3.3166476E-2,1.5697606E-1,6.2097535E-2,2.2858681E-2,1.947582E-1,1.4574608E-1,3.688151E-1,1.0307205E-1,2.2651052E-1,2.2674281E-2,4.058283E-1,3.1601194E-1,1.6321965E-1,3.705403E-1,4.3756285E-1,-9.130159E-3,-1.3550305E-2,-1.833134E-2,-2.3192893E-4,-1.1682978E-2,1.4015682E-2,8.3449304E-2,4.313069E-1,-1.0504746E-2,-2.636368E-3,1.2054868E-2,7.662975E-2,8.2085E-2,1.4946184E-1,3.2669988E-2,-2.640357E-2,-1.2632322E-2,1.0780101E-2,2.3855763E-2,1.745197E-1,-7.546776E-3,5.9761092E-2,8.898962E-2,3.7919015E-1,1.0001338E-1,3.240857E-1,1.4055566E-1,1.9928557E-1,2.0519932E-1,2.8952736E-1,7.3550445E-1,4.7200024E-1,-2.2863144E-2,1.8102964E-2,-2.2732077E-2,-6.5511696E-2,1.7432053E-1,1.3443777E-2,4.4811055E-2,2.0823033E-1,1.7391833E-2,4.568458E-1,1.6891739E-1,2.8657398E-1,-1.6365092E-2,2.0936356E-1,2.429301E-1,4.1240135E-1,1.5716475E-1,5.7180612E-3,1.8287224E-1,3.0546165E-1,1.0080072E-1,-2.0873548E-1,3.64404E-1,4.6083567E-1,2.8425708E-1,4.131294E-1,9.177537E-2,3.0128616E-1,2.1778569E-1,4.2427844E-1,4.6401086E-1,3.0691135E-1],"categories":[],"categories_nodes":[],"categories_segments":[],"categories_sizes":[],"default_left":[true,true,true,true,true,true,true,true,true,true,true,true,true,true,true,true,true,true,true,true,true,true,true,true,true,true,true,true,true,true,true,true,true,true,true,true,true,true,true,true,true,true,true,true,true,true,true,true,true,true,true,true,true,true,true,true,true,true,true,true,true,true,true,false,false,false,false,false,false,false,false,false,false,false,false,false,false,false,false,false,false,false,false,false,false,false,false,false,false,false,false,false,false,false,false,false,false,false,false,false,false,false,false,false,false,false,false,false,false,false,false,false,false,false,false,false,false,false,false,false,false,false,false,false,false,false,false],"id":12,"left_children":[1,3,5,7,9,11,13,15,17,19,21,23,25,27,29,31,33,35,37,39,41,43,45,47,49,51,53,55,57,59,61,63,65,67,69,71,73,75,77,79,81,83,85,87,89,91,93,95,97,99,101,103,105,107,109,111,113,115,117,119,121,123,125,-1,-1,-1,-1,-1,-1,-1,-1,-1,-1,-1,-1,-1,-1,-1,-1,-1,-1,-1,-1,-1,-1,-1,-1,-1,-1,-1,-1,-1,-1,-1,-1,-1,-1,-1,-1,-1,-1,-1,-1,-1,-1,-1,-1,-1,-1,-1,-1,-1,-1,-1,-1,-1,-1,-1,-1,-1,-1,-1,-1,-1,-1,-1,-1],"loss_changes":[8.835383E4,9.485726E3,3.6813812E4,6.604966E2,1.5752205E4,9.855463E3,4.2054297E3,1.9934668E2,2.0123251E3,1.267447E3,1.7660273E3,3.5083423E3,1.5450625E3,2.349543E3,1.68925E3,1.8116113E2,1.6729847E3,1.0641694E2,3.2057666E2,1.490729E2,3.05396E2,6.441826E2,3.6944727E2,2.3563898E2,1.3309224E3,4.3394824E2,8.9800586E2,1.3827188E3,2.1832324E2,1.9135234E3,2.192832E2,7.3510254E1,2.0704504E2,3.4637527E1,9.493429E2,1.922507E1,7.9701416E1,1.7498828E2,2.0068735E1,5.139264E1,1.2322808E2,1.6275513E2,1.1294641E2,2.4759619E2,2.6258594E2,3.5634375E2,3.2110107E1,2.0669199E2,8.702533E1,4.902412E2,1.498668E3,3.8524506E1,3.6401904E2,2.2900592E2,5.290137E2,8.721615E2,6.915801E2,2.771841E1,1.1846582E2,2.169914E3,9.151304E2,8.602334E2,3.1605078E2,0E0,0E0,0E0,0E0,0E0,0E0,0E0,0E0,0E0,0E0,0E0,0E0,0E0,0E0,0E0,0E0,0E0,0E0,0E0,0E0,0E0,0E0,0E0,0E0,0E0,0E0,0E0,0E0,0E0,0E0,0E0,0E0,0E0,0E0,0E0,0E0,0E0,0E0,0E0,0E0,0E0,0E0,0E0,0E0,0E0,0E0,0E0,0E0,0E0,0E0,0E0,0E0,0E0,0E0,0E0,0E0,0E0,0E0,0E0,0E0,0E0,0E0,0E0,0E0],"parents":[2147483647,0,0,1,1,2,2,3,3,4,4,5,5,6,6,7,7,8,8,9,9,10,10,11,11,12,12,13,13,14,14,15,15,16,16,17,17,18,18,19,19,20,20,21,21,22,22,23,23,24,24,25,25,26,26,27,27,28,28,29,29,30,30,31,31,32,32,33,33,34,34,35,35,36,36,37,37,38,38,39,39,40,40,41,41,42,42,43,43,44,44,45,45,46,46,47,47,48,48,49,49,50,50,51,51,52,52,53,53,54,54,55,55,56,56,57,57,58,58,59,59,60,60,61,61,62,62],"right_children":[2,4,6,8,10,12,14,16,18,20,22,24,26,28,30,32,34,36,38,40,42,44,46,48,50,52,54,56,58,60,62,64,66,68,70,72,74,76,78,80,82,84,86,88,90,92,94,96,98,100,102,104,106,108,110,112,114,116,118,120,122,124,126,-1,-1,-1,-1,-1,-1,-1,-1,-1,-1,-1,-1,-1,-1,-1,-1,-1,-1,-1,-1,-1,-1,-1,-1,-1,-1,-1,-1,-1,-1,-1,-1,-1,-1,-1,-1,-1,-1,-1,-1,-1,-1,-1,-1,-1,-1,-1,-1,-1,-1,-1,-1,-1,-1,-1,-1,-1,-1,-1,-1,-1,-1,-1,-1],"split_conditions":[5.65E1,7.503265E-1,7.6637745E-1,3.35E1,1.85E1,8.22784E-1,7.622435E-1,8.3343804E-1,5.3371453E-1,1.05E1,9.4859946E-1,4.464575E-1,2.035E2,3.135E2,3.795E2,4.01939E-1,1.15E1,2.88086E-1,6.65E1,1.55E1,8.7447655E-1,8.36084E-1,3.78E2,6.295E2,1.785E2,4.1798198E-1,5.928455E-1,8.461705E-1,4.85508E-1,2.835E2,3.955E2,4.01939E-1,2.95E1,8.5E0,3.775E2,8.061015E-2,3.235E2,5.6059897E-1,1.435E2,8.5E0,9.2838097E-1,6.340225E-1,4.265E2,5.625E2,3.55E1,9.698665E-1,3.835E2,8.061015E-2,6.044345E-1,2.745E2,4.355E2,4.035E2,9.35496E-1,4.85996E-1,4.215E2,3.545E2,1.955E2,4.81801E-1,3.955E2,1.805E2,3.305E2,8.7862504E-1,4.425E2,-2.7390479E-3,-4.0650917E-3,-5.499402E-3,-6.957868E-5,-3.5048935E-3,4.204705E-3,2.5034793E-2,1.2939207E-1,-3.151424E-3,-7.909104E-4,3.6164606E-3,2.2988927E-2,2.46255E-2,4.483855E-2,9.800997E-3,-7.921072E-3,-3.7896966E-3,3.2340304E-3,7.156729E-3,5.235591E-2,-2.2640328E-3,1.7928328E-2,2.6696889E-2,1.1375705E-1,3.0004015E-2,9.722572E-2,4.2166702E-2,5.978567E-2,6.1559796E-2,8.685821E-2,2.2065134E-1,1.4160007E-1,-6.8589435E-3,5.4308893E-3,-6.8196235E-3,-1.965351E-2,5.229616E-2,4.0331334E-3,1.3443317E-2,6.2469102E-2,5.21755E-3,1.3705374E-1,5.0675217E-2,8.59722E-2,-4.909528E-3,6.280907E-2,7.287903E-2,1.2372041E-1,4.7149427E-2,1.7154184E-3,5.4861672E-2,9.16385E-2,3.0240217E-2,-6.262065E-2,1.093212E-1,1.3825071E-1,8.5277125E-2,1.2393882E-1,2.7532613E-2,9.0385854E-2,6.5335706E-2,1.2728354E-1,1.3920327E-1,9.207341E-2],"split_indices":[4,6,5,4,4,6,6,5,5,4,6,5,4,4,1,6,4,6,0,1,6,5,0,0,1,5,5,5,6,1,0,5,1,4,1,6,0,6,0,4,5,5,0,0,4,5,0,6,6,0,4,1,6,5,0,1,4,6,0,4,0,5,0,0,0,0,0,0,0,0,0,0,0,0,0,0,0,0,0,0,0,0,0,0,0,0,0,0,0,0,0,0,0,0,0,0,0,0,0,0,0,0,0,0,0,0,0,0,0,0,0,0,0,0,0,0,0,0,0,0,0,0,0,0,0,0,0],"split_type":[0,0,0,0,0,0,0,0,0,0,0,0,0,0,0,0,0,0,0,0,0,0,0,0,0,0,0,0,0,0,0,0,0,0,0,0,0,0,0,0,0,0,0,0,0,0,0,0,0,0,0,0,0,0,0,0,0,0,0,0,0,0,0,0,0,0,0,0,0,0,0,0,0,0,0,0,0,0,0,0,0,0,0,0,0,0,0,0,0,0,0,0,0,0,0,0,0,0,0,0,0,0,0,0,0,0,0,0,0,0,0,0,0,0,0,0,0,0,0,0,0,0,0,0,0,0,0],"sum_hessian":[6.9362376E7,6.607484E7,3.287538E6,6.3293064E7,2.781774E6,1.874844E6,1.412694E6,6.1556936E7,1.736129E6,1.942322E6,8.39452E5,1.586522E6,2.88322E5,4.19956E5,9.92738E5,6.0286416E7,1.270523E6,1.53509E6,2.01039E5,1.6426E6,2.99722E5,6.06405E5,2.33047E5,7.96327E5,7.90195E5,1.69686E5,1.18636E5,3.66363E5,5.3593E4,7.96429E5,1.96309E5,5.520635E7,5.08006E6,1.124068E6,1.46455E5,1.32254E6,2.1255E5,1.6276E5,3.8279E4,1.613198E6,2.9402E4,1.43992E5,1.5573E5,3.01507E5,3.04898E5,2.27635E5,5.412E3,5.38473E5,2.57854E5,1.96924E5,5.93271E5,1.624E4,1.53446E5,2.2204E4,9.6432E4,1.65616E5,2.00747E5,1.531E3,5.2062E4,7.03653E5,9.2776E4,1.04805E5,9.1504E4,5.1145076E7,4.061278E6,4.340312E6,7.39748E5,1.068915E6,5.5153E4,1.38138E5,8.317E3,4.98189E5,8.24351E5,1.91316E5,2.1234E4,6.2715E4,1.00045E5,3.1231E4,7.048E3,1.513248E6,9.995E4,2.2219E4,7.183E3,6.8758E4,7.5234E4,1.54378E5,1.352E3,2.96493E5,5.014E3,1.57603E5,1.47295E5,1.53137E5,7.4498E4,5.14E2,4.898E3,1.9069E5,3.47783E5,1.94962E5,6.2892E4,1.75693E5,2.1231E4,5.30516E5,6.2755E4,1.6039E4,2.01E2,1.19747E5,3.3699E4,6.258E3,1.5946E4,2.4803E4,7.1629E4,1.06462E5,5.9154E4,1.29289E5,